<?xml version="1.0"?>
<MethodSetup Method="BDT::BDTG4">
  <GeneralInfo>
    <Info name="TMVA Release" value="4.2.1 [262657]"/>
    <Info name="ROOT Release" value="6.14/09 [396809]"/>
    <Info name="Creator" value="sharmaa"/>
    <Info name="Date" value="Fri Jul 17 15:23:21 2020"/>
    <Info name="Host" value="Linux cmsbuild20.cern.ch 3.10.0-957.5.1.el7.x86_64 #1 SMP Fri Feb 1 14:54:57 UTC 2019 x86_64 x86_64 x86_64 GNU/Linux"/>
    <Info name="Dir" value="/afs/cern.ch/user/s/sharmaa/CMSSW_10_6_4/src/PlotsConfigurations/Configurations/EFT/WH3l/BDT_analysis/BDT_config/WH3left_Full2017"/>
    <Info name="Training events" value="6493"/>
    <Info name="TrainingTime" value="1.70590401e+00"/>
    <Info name="AnalysisType" value="Classification"/>
  </GeneralInfo>
  <Options>
    <Option name="V" modified="Yes">False</Option>
    <Option name="VerbosityLevel" modified="No">Default</Option>
    <Option name="VarTransform" modified="No">None</Option>
    <Option name="H" modified="Yes">False</Option>
    <Option name="CreateMVAPdfs" modified="No">False</Option>
    <Option name="IgnoreNegWeightsInTraining" modified="No">False</Option>
    <Option name="NTrees" modified="Yes">500</Option>
    <Option name="MaxDepth" modified="Yes">2</Option>
    <Option name="MinNodeSize" modified="Yes">1.5%</Option>
    <Option name="nCuts" modified="Yes">500</Option>
    <Option name="BoostType" modified="Yes">Grad</Option>
    <Option name="AdaBoostR2Loss" modified="No">quadratic</Option>
    <Option name="UseBaggedBoost" modified="Yes">True</Option>
    <Option name="Shrinkage" modified="Yes">5.000000e-02</Option>
    <Option name="AdaBoostBeta" modified="No">5.000000e-01</Option>
    <Option name="UseRandomisedTrees" modified="No">False</Option>
    <Option name="UseNvars" modified="No">4</Option>
    <Option name="UsePoissonNvars" modified="No">True</Option>
    <Option name="BaggedSampleFraction" modified="No">5.000000e-01</Option>
    <Option name="UseYesNoLeaf" modified="No">True</Option>
    <Option name="NegWeightTreatment" modified="No">pray</Option>
    <Option name="Css" modified="No">1.000000e+00</Option>
    <Option name="Cts_sb" modified="No">1.000000e+00</Option>
    <Option name="Ctb_ss" modified="No">1.000000e+00</Option>
    <Option name="Cbb" modified="No">1.000000e+00</Option>
    <Option name="NodePurityLimit" modified="No">5.000000e-01</Option>
    <Option name="SeparationType" modified="No">giniindex</Option>
    <Option name="RegressionLossFunctionBDTG" modified="No">huber</Option>
    <Option name="HuberQuantile" modified="No">7.000000e-01</Option>
    <Option name="DoBoostMonitor" modified="No">False</Option>
    <Option name="UseFisherCuts" modified="No">False</Option>
    <Option name="MinLinCorrForFisher" modified="No">8.000000e-01</Option>
    <Option name="UseExclusiveVars" modified="No">False</Option>
    <Option name="DoPreselection" modified="No">False</Option>
    <Option name="SigToBkgFraction" modified="No">1.000000e+00</Option>
    <Option name="PruneMethod" modified="No">nopruning</Option>
    <Option name="PruneStrength" modified="No">0.000000e+00</Option>
    <Option name="PruningValFraction" modified="No">5.000000e-01</Option>
    <Option name="SkipNormalization" modified="No">False</Option>
    <Option name="nEventsMin" modified="No">0</Option>
    <Option name="UseBaggedGrad" modified="No">False</Option>
    <Option name="GradBaggingFraction" modified="Yes">5.000000e-01</Option>
    <Option name="UseNTrainEvents" modified="No">0</Option>
    <Option name="NNodesMax" modified="No">0</Option>
  </Options>
  <Variables NVar="15">
    <Variable VarIndex="0" Expression="WH3l_dphilllmet" Label="WH3l_dphilllmet" Title="WH3l_dphilllmet" Unit="" Internal="WH3l_dphilllmet" Type="F" Min="5.09925419e-03" Max="3.14157605e+00"/>
    <Variable VarIndex="1" Expression="MinIf$(WH3l_mOSll[],WH3l_mOSll[Iteration$]&gt;0)" Label="MinIf$(WH3l_mOSll[],WH3l_mOSll[Iteration$]&gt;0)" Title="MinIf$(WH3l_mOSll[],WH3l_mOSll[Iteration$]&gt;0)" Unit="" Internal="MinIf__WH3l_mOSll__,WH3l_mOSll_Iteration___0_" Type="F" Min="1.20114632e+01" Max="7.11150269e+02"/>
    <Variable VarIndex="2" Expression="MinIf$(WH3l_ptOSll[],WH3l_ptOSll[Iteration$]&gt;0)" Label="MinIf$(WH3l_ptOSll[],WH3l_ptOSll[Iteration$]&gt;0)" Title="MinIf$(WH3l_ptOSll[],WH3l_ptOSll[Iteration$]&gt;0)" Unit="" Internal="MinIf__WH3l_ptOSll__,WH3l_ptOSll_Iteration___0_" Type="F" Min="5.13214529e-01" Max="1.14792993e+03"/>
    <Variable VarIndex="3" Expression="MinIf$(WH3l_drOSll[],WH3l_drOSll[Iteration$]&gt;0)" Label="MinIf$(WH3l_drOSll[],WH3l_drOSll[Iteration$]&gt;0)" Title="MinIf$(WH3l_drOSll[],WH3l_drOSll[Iteration$]&gt;0)" Unit="" Internal="MinIf__WH3l_drOSll__,WH3l_drOSll_Iteration___0_" Type="F" Min="1.88116059e-02" Max="3.95869136e+00"/>
    <Variable VarIndex="4" Expression="WH3l_ptlll" Label="WH3l_ptlll" Title="WH3l_ptlll" Unit="" Internal="WH3l_ptlll" Type="F" Min="1.04584837e+00" Max="2.27228418e+03"/>
    <Variable VarIndex="5" Expression="WH3l_dphilmet[0]" Label="WH3l_dphilmet[0]" Title="WH3l_dphilmet[0]" Unit="" Internal="WH3l_dphilmet_0_" Type="F" Min="2.07519531e-03" Max="3.14154053e+00"/>
    <Variable VarIndex="6" Expression="WH3l_dphilmet[1]" Label="WH3l_dphilmet[1]" Title="WH3l_dphilmet[1]" Unit="" Internal="WH3l_dphilmet_1_" Type="F" Min="9.57250595e-04" Max="3.14158368e+00"/>
    <Variable VarIndex="7" Expression="WH3l_dphilmet[2]" Label="WH3l_dphilmet[2]" Title="WH3l_dphilmet[2]" Unit="" Internal="WH3l_dphilmet_2_" Type="F" Min="1.40666962e-05" Max="3.14133954e+00"/>
    <Variable VarIndex="8" Expression="WH3l_ptWWW" Label="WH3l_ptWWW" Title="WH3l_ptWWW" Unit="" Internal="WH3l_ptWWW" Type="F" Min="7.23988339e-02" Max="8.94668030e+02"/>
    <Variable VarIndex="9" Expression="WH3l_mtWWW" Label="WH3l_mtWWW" Title="WH3l_mtWWW" Unit="" Internal="WH3l_mtWWW" Type="F" Min="6.24987446e-02" Max="4.55656348e+03"/>
    <Variable VarIndex="10" Expression="WH3l_mlll" Label="WH3l_mlll" Title="WH3l_mlll" Unit="" Internal="WH3l_mlll" Type="F" Min="3.07987919e+01" Max="3.92972656e+03"/>
    <Variable VarIndex="11" Expression="PuppiMET_pt" Label="PuppiMET_pt" Title="PuppiMET_pt" Unit="" Internal="PuppiMET_pt" Type="F" Min="7.49543726e-01" Max="2.28429541e+03"/>
    <Variable VarIndex="12" Expression="Alt$(Lepton_pt[0],0)" Label="Alt$(Lepton_pt[0],0)" Title="Alt$(Lepton_pt[0],0)" Unit="" Internal="Alt__Lepton_pt_0_,0_" Type="F" Min="2.50624638e+01" Max="2.81464209e+03"/>
    <Variable VarIndex="13" Expression="Alt$(Lepton_pt[1],0)" Label="Alt$(Lepton_pt[1],0)" Title="Alt$(Lepton_pt[1],0)" Unit="" Internal="Alt__Lepton_pt_1_,0_" Type="F" Min="2.00281658e+01" Max="1.26134314e+03"/>
    <Variable VarIndex="14" Expression="Alt$(Lepton_pt[2],0)" Label="Alt$(Lepton_pt[2],0)" Title="Alt$(Lepton_pt[2],0)" Unit="" Internal="Alt__Lepton_pt_2_,0_" Type="F" Min="1.50075064e+01" Max="7.84111694e+02"/>
  </Variables>
  <Spectators NSpec="0"/>
  <Classes NClass="2">
    <Class Name="Background" Index="0"/>
    <Class Name="Signal" Index="1"/>
  </Classes>
  <Transformations NTransformations="0"/>
  <MVAPdfs/>
  <Weights NTrees="500" AnalysisType="1">
    <BinaryTree type="DecisionTree" boostWeight="1.0000000000000000e+00" itree="0">
      <Node pos="s" depth="0" NCoef="0" IVar="10" Cut="2.4911351013183594e+02" cType="1" res="6.6741835325956345e-03" rms="4.9995544552803040e-01" purity="5.0667417049407959e-01" nType="0">
        <Node pos="l" depth="1" NCoef="0" IVar="9" Cut="1.9551496887207031e+02" cType="1" res="-1.5792180597782135e-01" rms="4.7440564632415771e-01" purity="3.4207817912101746e-01" nType="0">
          <Node pos="l" depth="2" NCoef="0" IVar="-1" Cut="0.0000000000000000e+00" cType="1" res="-2.1029124036431313e-02" rms="4.5362716913223267e-01" purity="2.8970876336097717e-01" nType="-99"/>
          <Node pos="r" depth="2" NCoef="0" IVar="-1" Cut="0.0000000000000000e+00" cType="1" res="2.4908108636736870e-02" rms="4.3354195356369019e-01" purity="7.4908107519149780e-01" nType="-99"/>
        </Node>
        <Node pos="r" depth="1" NCoef="0" IVar="10" Cut="3.9611599731445312e+02" cType="1" res="3.5912045836448669e-01" rms="3.4789726138114929e-01" purity="8.5912048816680908e-01" nType="0">
          <Node pos="l" depth="2" NCoef="0" IVar="-1" Cut="0.0000000000000000e+00" cType="1" res="2.4133676663041115e-02" rms="4.3790018558502197e-01" purity="7.4133676290512085e-01" nType="-99"/>
          <Node pos="r" depth="2" NCoef="0" IVar="-1" Cut="0.0000000000000000e+00" cType="1" res="4.8721347004175186e-02" rms="1.1235223710536957e-01" purity="9.8721349239349365e-01" nType="-99"/>
        </Node>
      </Node>
    </BinaryTree>
    <BinaryTree type="DecisionTree" boostWeight="1.0000000000000000e+00" itree="1">
      <Node pos="s" depth="0" NCoef="0" IVar="12" Cut="9.7723289489746094e+01" cType="1" res="-4.0090898983180523e-03" rms="4.9290490150451660e-01" purity="4.9632233381271362e-01" nType="0">
        <Node pos="l" depth="1" NCoef="0" IVar="10" Cut="1.6693331909179688e+02" cType="1" res="-1.9124671816825867e-01" rms="4.5673355460166931e-01" purity="3.0017554759979248e-01" nType="0">
          <Node pos="l" depth="2" NCoef="0" IVar="-1" Cut="0.0000000000000000e+00" cType="1" res="-2.5656955316662788e-02" rms="4.2258712649345398e-01" purity="2.3414283990859985e-01" nType="-99"/>
          <Node pos="r" depth="2" NCoef="0" IVar="-1" Cut="0.0000000000000000e+00" cType="1" res="8.0624446272850037e-03" rms="4.9209454655647278e-01" purity="5.7544690370559692e-01" nType="-99"/>
        </Node>
        <Node pos="r" depth="1" NCoef="0" IVar="12" Cut="1.8493066406250000e+02" cType="1" res="2.5764715671539307e-01" rms="4.1653519868850708e-01" purity="7.7042877674102783e-01" nType="0">
          <Node pos="l" depth="2" NCoef="0" IVar="-1" Cut="0.0000000000000000e+00" cType="1" res="1.5079163014888763e-02" rms="4.7186493873596191e-01" purity="6.5794563293457031e-01" nType="-99"/>
          <Node pos="r" depth="2" NCoef="0" IVar="-1" Cut="0.0000000000000000e+00" cType="1" res="4.2162176221609116e-02" rms="2.3332220315933228e-01" purity="9.4202184677124023e-01" nType="-99"/>
        </Node>
      </Node>
    </BinaryTree>
    <BinaryTree type="DecisionTree" boostWeight="1.0000000000000000e+00" itree="2">
      <Node pos="s" depth="0" NCoef="0" IVar="10" Cut="2.5705841064453125e+02" cType="1" res="-7.7707213349640369e-03" rms="4.8711490631103516e-01" purity="4.9296250939369202e-01" nType="0">
        <Node pos="l" depth="1" NCoef="0" IVar="4" Cut="1.0066424560546875e+02" cType="1" res="-1.3991551101207733e-01" rms="4.7169655561447144e-01" purity="3.4789848327636719e-01" nType="0">
          <Node pos="l" depth="2" NCoef="0" IVar="-1" Cut="0.0000000000000000e+00" cType="1" res="-1.8806323409080505e-02" rms="4.5471799373626709e-01" purity="2.9611584544181824e-01" nType="-99"/>
          <Node pos="r" depth="2" NCoef="0" IVar="-1" Cut="0.0000000000000000e+00" cType="1" res="2.0060921087861061e-02" rms="4.4975480437278748e-01" purity="7.1597260236740112e-01" nType="-99"/>
        </Node>
        <Node pos="r" depth="1" NCoef="0" IVar="10" Cut="4.3314535522460938e+02" cType="1" res="3.2011610269546509e-01" rms="3.5089027881622314e-01" purity="8.5290551185607910e-01" nType="0">
          <Node pos="l" depth="2" NCoef="0" IVar="-1" Cut="0.0000000000000000e+00" cType="1" res="2.2902801632881165e-02" rms="4.3034392595291138e-01" purity="7.5375515222549438e-01" nType="-99"/>
          <Node pos="r" depth="2" NCoef="0" IVar="-1" Cut="0.0000000000000000e+00" cType="1" res="4.5979384332895279e-02" rms="4.3402565643191338e-03" purity="1.0000000000000000e+00" nType="-99"/>
        </Node>
      </Node>
    </BinaryTree>
    <BinaryTree type="DecisionTree" boostWeight="1.0000000000000000e+00" itree="3">
      <Node pos="s" depth="0" NCoef="0" IVar="12" Cut="9.1358566284179688e+01" cType="1" res="1.9385473802685738e-02" rms="4.7981455922126770e-01" purity="5.2036994695663452e-01" nType="0">
        <Node pos="l" depth="1" NCoef="0" IVar="10" Cut="1.3923275756835938e+02" cType="1" res="-1.7153483629226685e-01" rms="4.5569267868995667e-01" purity="3.0234569311141968e-01" nType="0">
          <Node pos="l" depth="2" NCoef="0" IVar="-1" Cut="0.0000000000000000e+00" cType="1" res="-2.5460781529545784e-02" rms="4.0974920988082886e-01" purity="2.1538785099983215e-01" nType="-99"/>
          <Node pos="r" depth="2" NCoef="0" IVar="-1" Cut="0.0000000000000000e+00" cType="1" res="-2.2559934295713902e-03" rms="4.9544060230255127e-01" purity="4.6033567190170288e-01" nType="-99"/>
        </Node>
        <Node pos="r" depth="1" NCoef="0" IVar="12" Cut="1.2503766632080078e+02" cType="1" res="2.5992554426193237e-01" rms="3.9353477954864502e-01" purity="7.9505813121795654e-01" nType="0">
          <Node pos="l" depth="2" NCoef="0" IVar="-1" Cut="0.0000000000000000e+00" cType="1" res="8.3091622218489647e-03" rms="4.8688039183616638e-01" purity="5.8877146244049072e-01" nType="-99"/>
          <Node pos="r" depth="2" NCoef="0" IVar="-1" Cut="0.0000000000000000e+00" cType="1" res="3.4749973565340042e-02" rms="3.0683535337448120e-01" purity="8.9265632629394531e-01" nType="-99"/>
        </Node>
      </Node>
    </BinaryTree>
    <BinaryTree type="DecisionTree" boostWeight="1.0000000000000000e+00" itree="4">
      <Node pos="s" depth="0" NCoef="0" IVar="10" Cut="2.4092065429687500e+02" cType="1" res="1.7568929120898247e-02" rms="4.7571319341659546e-01" purity="5.2140390872955322e-01" nType="0">
        <Node pos="l" depth="1" NCoef="0" IVar="12" Cut="6.9538932800292969e+01" cType="1" res="-1.1786904931068420e-01" rms="4.7162568569183350e-01" purity="3.5849496722221375e-01" nType="0">
          <Node pos="l" depth="2" NCoef="0" IVar="-1" Cut="0.0000000000000000e+00" cType="1" res="-2.1582869812846184e-02" rms="4.2799198627471924e-01" purity="2.4436745047569275e-01" nType="-99"/>
          <Node pos="r" depth="2" NCoef="0" IVar="-1" Cut="0.0000000000000000e+00" cType="1" res="5.8317370712757111e-04" rms="4.9554228782653809e-01" purity="5.0489300489425659e-01" nType="-99"/>
        </Node>
        <Node pos="r" depth="1" NCoef="0" IVar="10" Cut="3.4405941772460938e+02" cType="1" res="2.9556497931480408e-01" rms="3.4542450308799744e-01" purity="8.5578620433807373e-01" nType="0">
          <Node pos="l" depth="2" NCoef="0" IVar="-1" Cut="0.0000000000000000e+00" cType="1" res="1.7725815996527672e-02" rms="4.4941338896751404e-01" purity="7.1676892042160034e-01" nType="-99"/>
          <Node pos="r" depth="2" NCoef="0" IVar="-1" Cut="0.0000000000000000e+00" cType="1" res="4.0015906095504761e-02" rms="1.8223416805267334e-01" purity="9.6624350547790527e-01" nType="-99"/>
        </Node>
      </Node>
    </BinaryTree>
    <BinaryTree type="DecisionTree" boostWeight="1.0000000000000000e+00" itree="5">
      <Node pos="s" depth="0" NCoef="0" IVar="10" Cut="2.5415269470214844e+02" cType="1" res="2.1128948777914047e-02" rms="4.7086703777313232e-01" purity="5.2657890319824219e-01" nType="0">
        <Node pos="l" depth="1" NCoef="0" IVar="9" Cut="1.9692532348632812e+02" cType="1" res="-9.5729202032089233e-02" rms="4.7369968891143799e-01" purity="3.7551319599151611e-01" nType="0">
          <Node pos="l" depth="2" NCoef="0" IVar="-1" Cut="0.0000000000000000e+00" cType="1" res="-1.4975145459175110e-02" rms="4.6086972951889038e-01" purity="3.1436929106712341e-01" nType="-99"/>
          <Node pos="r" depth="2" NCoef="0" IVar="-1" Cut="0.0000000000000000e+00" cType="1" res="2.8081985190510750e-02" rms="3.8599765300750732e-01" purity="8.0861091613769531e-01" nType="-99"/>
        </Node>
        <Node pos="r" depth="1" NCoef="0" IVar="5" Cut="1.7967647314071655e+00" cType="1" res="2.7358704805374146e-01" rms="3.5028353333473206e-01" purity="8.5293853282928467e-01" nType="0">
          <Node pos="l" depth="2" NCoef="0" IVar="-1" Cut="0.0000000000000000e+00" cType="1" res="1.0168209671974182e-02" rms="4.6700313687324524e-01" purity="6.7448562383651733e-01" nType="-99"/>
          <Node pos="r" depth="2" NCoef="0" IVar="-1" Cut="0.0000000000000000e+00" cType="1" res="3.4308422356843948e-02" rms="2.7563193440437317e-01" purity="9.1413384675979614e-01" nType="-99"/>
        </Node>
      </Node>
    </BinaryTree>
    <BinaryTree type="DecisionTree" boostWeight="1.0000000000000000e+00" itree="6">
      <Node pos="s" depth="0" NCoef="0" IVar="10" Cut="2.5055607604980469e+02" cType="1" res="7.6189301908016205e-03" rms="4.6642947196960449e-01" purity="5.1322770118713379e-01" nType="0">
        <Node pos="l" depth="1" NCoef="0" IVar="10" Cut="1.3899305725097656e+02" cType="1" res="-1.1278253793716431e-01" rms="4.6746173501014709e-01" purity="3.5362121462821960e-01" nType="0">
          <Node pos="l" depth="2" NCoef="0" IVar="-1" Cut="0.0000000000000000e+00" cType="1" res="-2.1419476717710495e-02" rms="4.1659316420555115e-01" purity="2.3236465454101562e-01" nType="-99"/>
          <Node pos="r" depth="2" NCoef="0" IVar="-1" Cut="0.0000000000000000e+00" cType="1" res="7.0883339503780007e-05" rms="4.9638780951499939e-01" purity="4.9360498785972595e-01" nType="-99"/>
        </Node>
        <Node pos="r" depth="1" NCoef="0" IVar="7" Cut="1.6309406757354736e+00" cType="1" res="2.7244696021080017e-01" rms="3.3677366375923157e-01" purity="8.6428874731063843e-01" nType="0">
          <Node pos="l" depth="2" NCoef="0" IVar="-1" Cut="0.0000000000000000e+00" cType="1" res="3.6791857331991196e-02" rms="2.1203461289405823e-01" purity="9.5171254873275757e-01" nType="-99"/>
          <Node pos="r" depth="2" NCoef="0" IVar="-1" Cut="0.0000000000000000e+00" cType="1" res="1.8575217574834824e-02" rms="4.1992756724357605e-01" purity="7.6357036828994751e-01" nType="-99"/>
        </Node>
      </Node>
    </BinaryTree>
    <BinaryTree type="DecisionTree" boostWeight="1.0000000000000000e+00" itree="7">
      <Node pos="s" depth="0" NCoef="0" IVar="10" Cut="2.2875045776367188e+02" cType="1" res="-1.4163352549076080e-02" rms="4.6308836340904236e-01" purity="4.9022611975669861e-01" nType="0">
        <Node pos="l" depth="1" NCoef="0" IVar="4" Cut="6.9145080566406250e+01" cType="1" res="-1.3737538456916809e-01" rms="4.5513057708740234e-01" purity="3.1908425688743591e-01" nType="0">
          <Node pos="l" depth="2" NCoef="0" IVar="-1" Cut="0.0000000000000000e+00" cType="1" res="-2.2257560864090919e-02" rms="4.1524165868759155e-01" purity="2.2534993290901184e-01" nType="-99"/>
          <Node pos="r" depth="2" NCoef="0" IVar="-1" Cut="0.0000000000000000e+00" cType="1" res="4.8372773453593254e-03" rms="4.8587030172348022e-01" purity="5.3080326318740845e-01" nType="-99"/>
        </Node>
        <Node pos="r" depth="1" NCoef="0" IVar="5" Cut="7.6687222719192505e-01" cType="1" res="2.1330393850803375e-01" rms="3.8493180274963379e-01" purity="8.0617880821228027e-01" nType="0">
          <Node pos="l" depth="2" NCoef="0" IVar="-1" Cut="0.0000000000000000e+00" cType="1" res="-1.0764724574983120e-02" rms="4.7993412613868713e-01" purity="4.6174618601799011e-01" nType="-99"/>
          <Node pos="r" depth="2" NCoef="0" IVar="-1" Cut="0.0000000000000000e+00" cType="1" res="2.7453131973743439e-02" rms="3.4269601106643677e-01" purity="8.5935896635055542e-01" nType="-99"/>
        </Node>
      </Node>
    </BinaryTree>
    <BinaryTree type="DecisionTree" boostWeight="1.0000000000000000e+00" itree="8">
      <Node pos="s" depth="0" NCoef="0" IVar="12" Cut="1.0301478576660156e+02" cType="1" res="-6.0173347592353821e-03" rms="4.5747822523117065e-01" purity="4.9723094701766968e-01" nType="0">
        <Node pos="l" depth="1" NCoef="0" IVar="11" Cut="1.0517474365234375e+02" cType="1" res="-1.4415489137172699e-01" rms="4.4916433095932007e-01" purity="3.0201342701911926e-01" nType="0">
          <Node pos="l" depth="2" NCoef="0" IVar="-1" Cut="0.0000000000000000e+00" cType="1" res="-1.6380662098526955e-02" rms="4.4259276986122131e-01" purity="2.8268066048622131e-01" nType="-99"/>
          <Node pos="r" depth="2" NCoef="0" IVar="-1" Cut="0.0000000000000000e+00" cType="1" res="2.1784711629152298e-02" rms="4.3893337249755859e-01" purity="7.2183781862258911e-01" nType="-99"/>
        </Node>
        <Node pos="r" depth="1" NCoef="0" IVar="12" Cut="2.4382070922851562e+02" cType="1" res="2.2367650270462036e-01" rms="3.7058255076408386e-01" purity="8.2183688879013062e-01" nType="0">
          <Node pos="l" depth="2" NCoef="0" IVar="-1" Cut="0.0000000000000000e+00" cType="1" res="1.7528312280774117e-02" rms="4.2719197273254395e-01" purity="7.4969685077667236e-01" nType="-99"/>
          <Node pos="r" depth="2" NCoef="0" IVar="-1" Cut="0.0000000000000000e+00" cType="1" res="3.9014767855405807e-02" rms="1.4925645664334297e-02" purity="1.0000000000000000e+00" nType="-99"/>
        </Node>
      </Node>
    </BinaryTree>
    <BinaryTree type="DecisionTree" boostWeight="1.0000000000000000e+00" itree="9">
      <Node pos="s" depth="0" NCoef="0" IVar="10" Cut="2.1888104248046875e+02" cType="1" res="1.3476826250553131e-02" rms="4.5361679792404175e-01" purity="5.1460349559783936e-01" nType="0">
        <Node pos="l" depth="1" NCoef="0" IVar="4" Cut="1.0137955474853516e+02" cType="1" res="-1.0752454400062561e-01" rms="4.5848867297172546e-01" purity="3.3483460545539856e-01" nType="0">
          <Node pos="l" depth="2" NCoef="0" IVar="-1" Cut="0.0000000000000000e+00" cType="1" res="-1.4821843244135380e-02" rms="4.4829875230789185e-01" purity="2.8645074367523193e-01" nType="-99"/>
          <Node pos="r" depth="2" NCoef="0" IVar="-1" Cut="0.0000000000000000e+00" cType="1" res="2.5611607357859612e-02" rms="3.9445748925209045e-01" purity="8.0013370513916016e-01" nType="-99"/>
        </Node>
        <Node pos="r" depth="1" NCoef="0" IVar="7" Cut="1.2655787467956543e+00" cType="1" res="2.3294264078140259e-01" rms="3.5069587826728821e-01" purity="8.4065866470336914e-01" nType="0">
          <Node pos="l" depth="2" NCoef="0" IVar="-1" Cut="0.0000000000000000e+00" cType="1" res="3.4659758210182190e-02" rms="2.1211642026901245e-01" purity="9.5084720849990845e-01" nType="-99"/>
          <Node pos="r" depth="2" NCoef="0" IVar="-1" Cut="0.0000000000000000e+00" cType="1" res="1.6487020999193192e-02" rms="4.2195999622344971e-01" purity="7.4561309814453125e-01" nType="-99"/>
        </Node>
      </Node>
    </BinaryTree>
    <BinaryTree type="DecisionTree" boostWeight="1.0000000000000000e+00" itree="10">
      <Node pos="s" depth="0" NCoef="0" IVar="10" Cut="2.4034143066406250e+02" cType="1" res="-3.4894343465566635e-02" rms="4.5003280043601990e-01" purity="4.6687120199203491e-01" nType="0">
        <Node pos="l" depth="1" NCoef="0" IVar="4" Cut="1.4315319824218750e+02" cType="1" res="-1.4582036435604095e-01" rms="4.4586193561553955e-01" purity="2.9861018061637878e-01" nType="0">
          <Node pos="l" depth="2" NCoef="0" IVar="-1" Cut="0.0000000000000000e+00" cType="1" res="-1.6228590160608292e-02" rms="4.4247069954872131e-01" purity="2.8216555714607239e-01" nType="-99"/>
          <Node pos="r" depth="2" NCoef="0" IVar="-1" Cut="0.0000000000000000e+00" cType="1" res="3.2700188457965851e-02" rms="2.9827845096588135e-01" purity="9.0175950527191162e-01" nType="-99"/>
        </Node>
        <Node pos="r" depth="1" NCoef="0" IVar="13" Cut="8.4342567443847656e+01" cType="1" res="2.2129271924495697e-01" rms="3.4221312403678894e-01" purity="8.5547524690628052e-01" nType="0">
          <Node pos="l" depth="2" NCoef="0" IVar="-1" Cut="0.0000000000000000e+00" cType="1" res="3.6970432847738266e-02" rms="1.8201451003551483e-01" purity="9.6289461851119995e-01" nType="-99"/>
          <Node pos="r" depth="2" NCoef="0" IVar="-1" Cut="0.0000000000000000e+00" cType="1" res="1.7612487077713013e-02" rms="3.8228046894073486e-01" purity="8.0385345220565796e-01" nType="-99"/>
        </Node>
      </Node>
    </BinaryTree>
    <BinaryTree type="DecisionTree" boostWeight="1.0000000000000000e+00" itree="11">
      <Node pos="s" depth="0" NCoef="0" IVar="10" Cut="2.5236331176757812e+02" cType="1" res="-2.6645283214747906e-03" rms="4.4399073719978333e-01" purity="4.9840265512466431e-01" nType="0">
        <Node pos="l" depth="1" NCoef="0" IVar="10" Cut="1.5264489746093750e+02" cType="1" res="-1.0934891551733017e-01" rms="4.5479717850685120e-01" purity="3.3183526992797852e-01" nType="0">
          <Node pos="l" depth="2" NCoef="0" IVar="-1" Cut="0.0000000000000000e+00" cType="1" res="-1.8470434471964836e-02" rms="4.1680768132209778e-01" purity="2.3571994900703430e-01" nType="-99"/>
          <Node pos="r" depth="2" NCoef="0" IVar="-1" Cut="0.0000000000000000e+00" cType="1" res="-3.4802319714799523e-04" rms="4.8936378955841064e-01" purity="4.8023271560668945e-01" nType="-99"/>
        </Node>
        <Node pos="r" depth="1" NCoef="0" IVar="10" Cut="2.9657479858398438e+02" cType="1" res="2.6530104875564575e-01" rms="2.6895821094512939e-01" purity="9.1677999496459961e-01" nType="0">
          <Node pos="l" depth="2" NCoef="0" IVar="-1" Cut="0.0000000000000000e+00" cType="1" res="1.5077247284352779e-02" rms="4.1968500614166260e-01" purity="7.6112759113311768e-01" nType="-99"/>
          <Node pos="r" depth="2" NCoef="0" IVar="-1" Cut="0.0000000000000000e+00" cType="1" res="3.3174142241477966e-02" rms="2.0243212580680847e-01" purity="9.5648086071014404e-01" nType="-99"/>
        </Node>
      </Node>
    </BinaryTree>
    <BinaryTree type="DecisionTree" boostWeight="1.0000000000000000e+00" itree="12">
      <Node pos="s" depth="0" NCoef="0" IVar="10" Cut="2.3970469665527344e+02" cType="1" res="-7.2329933755099773e-03" rms="4.4714862108230591e-01" purity="4.9724540114402771e-01" nType="0">
        <Node pos="l" depth="1" NCoef="0" IVar="9" Cut="1.6426701354980469e+02" cType="1" res="-9.4603732228279114e-02" rms="4.5679113268852234e-01" purity="3.3637851476669312e-01" nType="0">
          <Node pos="l" depth="2" NCoef="0" IVar="-1" Cut="0.0000000000000000e+00" cType="1" res="-1.4232140034437180e-02" rms="4.4130089879035950e-01" purity="2.7434307336807251e-01" nType="-99"/>
          <Node pos="r" depth="2" NCoef="0" IVar="-1" Cut="0.0000000000000000e+00" cType="1" res="6.8200859241187572e-03" rms="4.7803169488906860e-01" purity="5.7152032852172852e-01" nType="-99"/>
        </Node>
        <Node pos="r" depth="1" NCoef="0" IVar="6" Cut="2.3704857826232910e+00" cType="1" res="1.7673480510711670e-01" rms="3.6286547780036926e-01" purity="8.3596658706665039e-01" nType="0">
          <Node pos="l" depth="2" NCoef="0" IVar="-1" Cut="0.0000000000000000e+00" cType="1" res="2.4734679609537125e-02" rms="3.1658673286437988e-01" purity="8.8396102190017700e-01" nType="-99"/>
          <Node pos="r" depth="2" NCoef="0" IVar="-1" Cut="0.0000000000000000e+00" cType="1" res="2.4728737771511078e-03" rms="4.6529710292816162e-01" purity="6.6038167476654053e-01" nType="-99"/>
        </Node>
      </Node>
    </BinaryTree>
    <BinaryTree type="DecisionTree" boostWeight="1.0000000000000000e+00" itree="13">
      <Node pos="s" depth="0" NCoef="0" IVar="10" Cut="2.9727218627929688e+02" cType="1" res="-1.1005858890712261e-02" rms="4.4327065348625183e-01" purity="4.9487668275833130e-01" nType="0">
        <Node pos="l" depth="1" NCoef="0" IVar="9" Cut="1.4956257629394531e+02" cType="1" res="-8.4208697080612183e-02" rms="4.5830577611923218e-01" purity="3.6547875404357910e-01" nType="0">
          <Node pos="l" depth="2" NCoef="0" IVar="-1" Cut="0.0000000000000000e+00" cType="1" res="-1.4200811274349689e-02" rms="4.3900457024574280e-01" purity="2.8573828935623169e-01" nType="-99"/>
          <Node pos="r" depth="2" NCoef="0" IVar="-1" Cut="0.0000000000000000e+00" cType="1" res="3.8767061196267605e-03" rms="4.7920939326286316e-01" purity="5.5289530754089355e-01" nType="-99"/>
        </Node>
        <Node pos="r" depth="1" NCoef="0" IVar="13" Cut="1.1338235473632812e+02" cType="1" res="2.2065706551074982e-01" rms="2.8803595900535583e-01" purity="9.0437853336334229e-01" nType="0">
          <Node pos="l" depth="2" NCoef="0" IVar="-1" Cut="0.0000000000000000e+00" cType="1" res="3.4834511578083038e-02" rms="1.3779421150684357e-01" purity="9.8049563169479370e-01" nType="-99"/>
          <Node pos="r" depth="2" NCoef="0" IVar="-1" Cut="0.0000000000000000e+00" cType="1" res="1.9141461700201035e-02" rms="3.4529834985733032e-01" purity="8.5180044174194336e-01" nType="-99"/>
        </Node>
      </Node>
    </BinaryTree>
    <BinaryTree type="DecisionTree" boostWeight="1.0000000000000000e+00" itree="14">
      <Node pos="s" depth="0" NCoef="0" IVar="12" Cut="1.2528688049316406e+02" cType="1" res="-4.5604766346514225e-03" rms="4.4414266943931580e-01" purity="5.0150430202484131e-01" nType="0">
        <Node pos="l" depth="1" NCoef="0" IVar="10" Cut="1.6767338562011719e+02" cType="1" res="-7.8795768320560455e-02" rms="4.5793652534484863e-01" purity="3.5527670383453369e-01" nType="0">
          <Node pos="l" depth="2" NCoef="0" IVar="-1" Cut="0.0000000000000000e+00" cType="1" res="-1.3999459333717823e-02" rms="4.3299463391304016e-01" purity="2.6518815755844116e-01" nType="-99"/>
          <Node pos="r" depth="2" NCoef="0" IVar="-1" Cut="0.0000000000000000e+00" cType="1" res="3.0643953941762447e-03" rms="4.8627883195877075e-01" purity="5.3545659780502319e-01" nType="-99"/>
        </Node>
        <Node pos="r" depth="1" NCoef="0" IVar="4" Cut="7.9730484008789062e+01" cType="1" res="1.6852898895740509e-01" rms="3.5417580604553223e-01" purity="8.4245330095291138e-01" nType="0">
          <Node pos="l" depth="2" NCoef="0" IVar="-1" Cut="0.0000000000000000e+00" cType="1" res="7.2111203335225582e-03" rms="4.3028640747070312e-01" purity="7.3145020008087158e-01" nType="-99"/>
          <Node pos="r" depth="2" NCoef="0" IVar="-1" Cut="0.0000000000000000e+00" cType="1" res="2.7371808886528015e-02" rms="2.7453452348709106e-01" purity="9.1375267505645752e-01" nType="-99"/>
        </Node>
      </Node>
    </BinaryTree>
    <BinaryTree type="DecisionTree" boostWeight="1.0000000000000000e+00" itree="15">
      <Node pos="s" depth="0" NCoef="0" IVar="10" Cut="2.8514263916015625e+02" cType="1" res="-1.8143070861697197e-02" rms="4.3781149387359619e-01" purity="4.8375689983367920e-01" nType="0">
        <Node pos="l" depth="1" NCoef="0" IVar="4" Cut="1.1568331909179688e+02" cType="1" res="-8.7470315396785736e-02" rms="4.5223689079284668e-01" purity="3.4865742921829224e-01" nType="0">
          <Node pos="l" depth="2" NCoef="0" IVar="-1" Cut="0.0000000000000000e+00" cType="1" res="-1.1778494343161583e-02" rms="4.4821506738662720e-01" purity="3.0946451425552368e-01" nType="-99"/>
          <Node pos="r" depth="2" NCoef="0" IVar="-1" Cut="0.0000000000000000e+00" cType="1" res="2.2849334403872490e-02" rms="3.8622272014617920e-01" purity="8.2564377784729004e-01" nType="-99"/>
        </Node>
        <Node pos="r" depth="1" NCoef="0" IVar="14" Cut="3.6962284088134766e+01" cType="1" res="1.8658545613288879e-01" rms="3.1250035762786865e-01" purity="8.8271570205688477e-01" nType="0">
          <Node pos="l" depth="2" NCoef="0" IVar="-1" Cut="0.0000000000000000e+00" cType="1" res="9.2327240854501724e-03" rms="4.0686237812042236e-01" purity="7.6863938570022583e-01" nType="-99"/>
          <Node pos="r" depth="2" NCoef="0" IVar="-1" Cut="0.0000000000000000e+00" cType="1" res="2.9971865937113762e-02" rms="2.1559405326843262e-01" purity="9.5021748542785645e-01" nType="-99"/>
        </Node>
      </Node>
    </BinaryTree>
    <BinaryTree type="DecisionTree" boostWeight="1.0000000000000000e+00" itree="16">
      <Node pos="s" depth="0" NCoef="0" IVar="10" Cut="1.4144549560546875e+02" cType="1" res="1.1204686947166920e-02" rms="4.3406981229782104e-01" purity="5.0977826118469238e-01" nType="0">
        <Node pos="l" depth="1" NCoef="0" IVar="5" Cut="2.9229586124420166e+00" cType="1" res="-1.3817961513996124e-01" rms="4.1895613074302673e-01" purity="2.4096520245075226e-01" nType="0">
          <Node pos="l" depth="2" NCoef="0" IVar="-1" Cut="0.0000000000000000e+00" cType="1" res="-1.8834453076124191e-02" rms="3.9287239313125610e-01" purity="1.9763119518756866e-01" nType="-99"/>
          <Node pos="r" depth="2" NCoef="0" IVar="-1" Cut="0.0000000000000000e+00" cType="1" res="6.3439551740884781e-04" rms="4.8134660720825195e-01" purity="4.0938505530357361e-01" nType="-99"/>
        </Node>
        <Node pos="r" depth="1" NCoef="0" IVar="11" Cut="7.6528419494628906e+01" cType="1" res="1.1595661938190460e-01" rms="4.1332286596298218e-01" purity="6.9827651977539062e-01" nType="0">
          <Node pos="l" depth="2" NCoef="0" IVar="-1" Cut="0.0000000000000000e+00" cType="1" res="1.5213633887469769e-03" rms="4.6431258320808411e-01" purity="5.4171818494796753e-01" nType="-99"/>
          <Node pos="r" depth="2" NCoef="0" IVar="-1" Cut="0.0000000000000000e+00" cType="1" res="2.8814850375056267e-02" rms="2.8244453668594360e-01" purity="9.0547692775726318e-01" nType="-99"/>
        </Node>
      </Node>
    </BinaryTree>
    <BinaryTree type="DecisionTree" boostWeight="1.0000000000000000e+00" itree="17">
      <Node pos="s" depth="0" NCoef="0" IVar="10" Cut="2.6903631591796875e+02" cType="1" res="4.1201487183570862e-03" rms="4.2953965067863464e-01" purity="5.0589817762374878e-01" nType="0">
        <Node pos="l" depth="1" NCoef="0" IVar="10" Cut="1.3728530883789062e+02" cType="1" res="-7.8822493553161621e-02" rms="4.5571309328079224e-01" purity="3.4750881791114807e-01" nType="0">
          <Node pos="l" depth="2" NCoef="0" IVar="-1" Cut="0.0000000000000000e+00" cType="1" res="-1.6832569614052773e-02" rms="4.0413153171539307e-01" purity="2.1501044929027557e-01" nType="-99"/>
          <Node pos="r" depth="2" NCoef="0" IVar="-1" Cut="0.0000000000000000e+00" cType="1" res="-6.4547877991572022e-04" rms="4.8842009902000427e-01" purity="4.7222518920898438e-01" nType="-99"/>
        </Node>
        <Node pos="r" depth="1" NCoef="0" IVar="13" Cut="1.1488299560546875e+02" cType="1" res="2.3510889708995819e-01" rms="2.1785941720008850e-01" purity="9.4700020551681519e-01" nType="0">
          <Node pos="l" depth="2" NCoef="0" IVar="-1" Cut="0.0000000000000000e+00" cType="1" res="3.4133929759263992e-02" rms="1.1673877388238907e-01" purity="9.8491317033767700e-01" nType="-99"/>
          <Node pos="r" depth="2" NCoef="0" IVar="-1" Cut="0.0000000000000000e+00" cType="1" res="2.3387132212519646e-02" rms="2.7737346291542053e-01" purity="9.0880459547042847e-01" nType="-99"/>
        </Node>
      </Node>
    </BinaryTree>
    <BinaryTree type="DecisionTree" boostWeight="1.0000000000000000e+00" itree="18">
      <Node pos="s" depth="0" NCoef="0" IVar="2" Cut="6.6184806823730469e+01" cType="1" res="-1.8695008009672165e-02" rms="4.3959835171699524e-01" purity="4.8965221643447876e-01" nType="0">
        <Node pos="l" depth="1" NCoef="0" IVar="4" Cut="1.4574462890625000e+02" cType="1" res="-7.8041471540927887e-02" rms="4.5183384418487549e-01" purity="3.6461675167083740e-01" nType="0">
          <Node pos="l" depth="2" NCoef="0" IVar="-1" Cut="0.0000000000000000e+00" cType="1" res="-9.8574571311473846e-03" rms="4.5398479700088501e-01" purity="3.4108054637908936e-01" nType="-99"/>
          <Node pos="r" depth="2" NCoef="0" IVar="-1" Cut="0.0000000000000000e+00" cType="1" res="3.6194913089275360e-02" rms="4.9583811312913895e-02" purity="1.0000000000000000e+00" nType="-99"/>
        </Node>
        <Node pos="r" depth="1" NCoef="0" IVar="7" Cut="1.6737411022186279e+00" cType="1" res="1.2632317841053009e-01" rms="3.7007787823677063e-01" purity="7.9518717527389526e-01" nType="0">
          <Node pos="l" depth="2" NCoef="0" IVar="-1" Cut="0.0000000000000000e+00" cType="1" res="2.8347454965114594e-02" rms="2.5077158212661743e-01" purity="9.3074697256088257e-01" nType="-99"/>
          <Node pos="r" depth="2" NCoef="0" IVar="-1" Cut="0.0000000000000000e+00" cType="1" res="-1.0965152177959681e-03" rms="4.5146778225898743e-01" purity="6.1371403932571411e-01" nType="-99"/>
        </Node>
      </Node>
    </BinaryTree>
    <BinaryTree type="DecisionTree" boostWeight="1.0000000000000000e+00" itree="19">
      <Node pos="s" depth="0" NCoef="0" IVar="10" Cut="2.6426751708984375e+02" cType="1" res="-6.5083703957498074e-03" rms="4.3427747488021851e-01" purity="4.9840989708900452e-01" nType="0">
        <Node pos="l" depth="1" NCoef="0" IVar="4" Cut="1.2162134552001953e+02" cType="1" res="-6.4808584749698639e-02" rms="4.5578733086585999e-01" purity="3.5434496402740479e-01" nType="0">
          <Node pos="l" depth="2" NCoef="0" IVar="-1" Cut="0.0000000000000000e+00" cType="1" res="-8.9831585064530373e-03" rms="4.5571860671043396e-01" purity="3.2174292206764221e-01" nType="-99"/>
          <Node pos="r" depth="2" NCoef="0" IVar="-1" Cut="0.0000000000000000e+00" cType="1" res="2.6293573901057243e-02" rms="3.2695609331130981e-01" purity="8.6496251821517944e-01" nType="-99"/>
        </Node>
        <Node pos="r" depth="1" NCoef="0" IVar="7" Cut="1.6306025981903076e+00" cType="1" res="1.4111205935478210e-01" rms="3.3124291896820068e-01" purity="8.6319279670715332e-01" nType="0">
          <Node pos="l" depth="2" NCoef="0" IVar="-1" Cut="0.0000000000000000e+00" cType="1" res="2.8349535539746284e-02" rms="1.9512370228767395e-01" purity="9.6030426025390625e-01" nType="-99"/>
          <Node pos="r" depth="2" NCoef="0" IVar="-1" Cut="0.0000000000000000e+00" cType="1" res="7.6836231164634228e-03" rms="4.1844189167022705e-01" purity="7.5926208496093750e-01" nType="-99"/>
        </Node>
      </Node>
    </BinaryTree>
    <BinaryTree type="DecisionTree" boostWeight="1.0000000000000000e+00" itree="20">
      <Node pos="s" depth="0" NCoef="0" IVar="10" Cut="1.8378692626953125e+02" cType="1" res="-2.1512056700885296e-03" rms="4.2377910017967224e-01" purity="5.0272369384765625e-01" nType="0">
        <Node pos="l" depth="1" NCoef="0" IVar="12" Cut="1.1784118652343750e+02" cType="1" res="-1.0938197374343872e-01" rms="4.2772576212882996e-01" purity="2.7055767178535461e-01" nType="0">
          <Node pos="l" depth="2" NCoef="0" IVar="-1" Cut="0.0000000000000000e+00" cType="1" res="-1.3395999558269978e-02" rms="4.2532244324684143e-01" purity="2.4922351539134979e-01" nType="-99"/>
          <Node pos="r" depth="2" NCoef="0" IVar="-1" Cut="0.0000000000000000e+00" cType="1" res="4.1177749633789062e-02" rms="6.2752701342105865e-02" purity="1.0000000000000000e+00" nType="-99"/>
        </Node>
        <Node pos="r" depth="1" NCoef="0" IVar="10" Cut="4.6890893554687500e+02" cType="1" res="1.2513290345668793e-01" rms="3.8177171349525452e-01" purity="7.7830731868743896e-01" nType="0">
          <Node pos="l" depth="2" NCoef="0" IVar="-1" Cut="0.0000000000000000e+00" cType="1" res="9.9874604493379593e-03" rms="4.3181928992271423e-01" purity="7.0744770765304565e-01" nType="-99"/>
          <Node pos="r" depth="2" NCoef="0" IVar="-1" Cut="0.0000000000000000e+00" cType="1" res="3.3061489462852478e-02" rms="2.8781263157725334e-02" purity="1.0000000000000000e+00" nType="-99"/>
        </Node>
      </Node>
    </BinaryTree>
    <BinaryTree type="DecisionTree" boostWeight="1.0000000000000000e+00" itree="21">
      <Node pos="s" depth="0" NCoef="0" IVar="10" Cut="1.4115686035156250e+02" cType="1" res="1.0057561099529266e-02" rms="4.3150132894515991e-01" purity="5.1664972305297852e-01" nType="0">
        <Node pos="l" depth="1" NCoef="0" IVar="5" Cut="2.6811199188232422e+00" cType="1" res="-1.0128279030323029e-01" rms="4.2526212334632874e-01" purity="2.5045645236968994e-01" nType="0">
          <Node pos="l" depth="2" NCoef="0" IVar="-1" Cut="0.0000000000000000e+00" cType="1" res="-1.9568702206015587e-02" rms="3.6737042665481567e-01" purity="1.6239225864410400e-01" nType="-99"/>
          <Node pos="r" depth="2" NCoef="0" IVar="-1" Cut="0.0000000000000000e+00" cType="1" res="2.3057719226926565e-03" rms="4.8336535692214966e-01" purity="3.9771819114685059e-01" nType="-99"/>
        </Node>
        <Node pos="r" depth="1" NCoef="0" IVar="11" Cut="6.4705879211425781e+01" cType="1" res="7.5128600001335144e-02" rms="4.2170870304107666e-01" purity="6.7222201824188232e-01" nType="0">
          <Node pos="l" depth="2" NCoef="0" IVar="-1" Cut="0.0000000000000000e+00" cType="1" res="-1.2269046856090426e-03" rms="4.7078648209571838e-01" purity="5.1758688688278198e-01" nType="-99"/>
          <Node pos="r" depth="2" NCoef="0" IVar="-1" Cut="0.0000000000000000e+00" cType="1" res="1.7991971224546432e-02" rms="3.5771703720092773e-01" purity="8.0584514141082764e-01" nType="-99"/>
        </Node>
      </Node>
    </BinaryTree>
    <BinaryTree type="DecisionTree" boostWeight="1.0000000000000000e+00" itree="22">
      <Node pos="s" depth="0" NCoef="0" IVar="4" Cut="8.2977233886718750e+01" cType="1" res="-2.1429784595966339e-02" rms="4.3592974543571472e-01" purity="4.8524948954582214e-01" nType="0">
        <Node pos="l" depth="1" NCoef="0" IVar="10" Cut="3.4807717895507812e+02" cType="1" res="-7.7390812337398529e-02" rms="4.4730055332183838e-01" purity="3.7389963865280151e-01" nType="0">
          <Node pos="l" depth="2" NCoef="0" IVar="-1" Cut="0.0000000000000000e+00" cType="1" res="-1.0808518156409264e-02" rms="4.5149853825569153e-01" purity="3.1426420807838440e-01" nType="-99"/>
          <Node pos="r" depth="2" NCoef="0" IVar="-1" Cut="0.0000000000000000e+00" cType="1" res="1.0925751179456711e-02" rms="3.7695199251174927e-01" purity="8.1830608844757080e-01" nType="-99"/>
        </Node>
        <Node pos="r" depth="1" NCoef="0" IVar="1" Cut="2.4267972946166992e+01" cType="1" res="1.1700294911861420e-01" rms="3.7186086177825928e-01" purity="7.6069945096969604e-01" nType="0">
          <Node pos="l" depth="2" NCoef="0" IVar="-1" Cut="0.0000000000000000e+00" cType="1" res="-7.9864310100674629e-03" rms="4.4626504182815552e-01" purity="5.4817748069763184e-01" nType="-99"/>
          <Node pos="r" depth="2" NCoef="0" IVar="-1" Cut="0.0000000000000000e+00" cType="1" res="2.4460118263959885e-02" rms="2.9809197783470154e-01" purity="8.5571384429931641e-01" nType="-99"/>
        </Node>
      </Node>
    </BinaryTree>
    <BinaryTree type="DecisionTree" boostWeight="1.0000000000000000e+00" itree="23">
      <Node pos="s" depth="0" NCoef="0" IVar="12" Cut="7.0586990356445312e+01" cType="1" res="-2.2527144756168127e-03" rms="4.3042233586311340e-01" purity="5.0525939464569092e-01" nType="0">
        <Node pos="l" depth="1" NCoef="0" IVar="6" Cut="1.8858982324600220e+00" cType="1" res="-9.6732780337333679e-02" rms="4.2663061618804932e-01" purity="2.5060024857521057e-01" nType="0">
          <Node pos="l" depth="2" NCoef="0" IVar="-1" Cut="0.0000000000000000e+00" cType="1" res="3.1427072826772928e-03" rms="4.7477257251739502e-01" purity="3.7134498357772827e-01" nType="-99"/>
          <Node pos="r" depth="2" NCoef="0" IVar="-1" Cut="0.0000000000000000e+00" cType="1" res="-1.5857538208365440e-02" rms="3.9828833937644958e-01" purity="2.0689913630485535e-01" nType="-99"/>
        </Node>
        <Node pos="r" depth="1" NCoef="0" IVar="0" Cut="3.0985183715820312e+00" cType="1" res="6.3757680356502533e-02" rms="4.2064213752746582e-01" purity="6.8318217992782593e-01" nType="0">
          <Node pos="l" depth="2" NCoef="0" IVar="-1" Cut="0.0000000000000000e+00" cType="1" res="2.8257293161004782e-03" rms="4.3875107169151306e-01" purity="6.2711358070373535e-01" nType="-99"/>
          <Node pos="r" depth="2" NCoef="0" IVar="-1" Cut="0.0000000000000000e+00" cType="1" res="3.0027769505977631e-02" rms="2.6930418610572815e-01" purity="9.2833429574966431e-01" nType="-99"/>
        </Node>
      </Node>
    </BinaryTree>
    <BinaryTree type="DecisionTree" boostWeight="1.0000000000000000e+00" itree="24">
      <Node pos="s" depth="0" NCoef="0" IVar="4" Cut="7.3827026367187500e+01" cType="1" res="2.1467864513397217e-02" rms="4.2348179221153259e-01" purity="5.2459526062011719e-01" nType="0">
        <Node pos="l" depth="1" NCoef="0" IVar="10" Cut="3.2416482543945312e+02" cType="1" res="-4.7670744359493256e-02" rms="4.3812900781631470e-01" purity="3.8198655843734741e-01" nType="0">
          <Node pos="l" depth="2" NCoef="0" IVar="-1" Cut="0.0000000000000000e+00" cType="1" res="-8.8689522817730904e-03" rms="4.4816464185714722e-01" purity="3.0980211496353149e-01" nType="-99"/>
          <Node pos="r" depth="2" NCoef="0" IVar="-1" Cut="0.0000000000000000e+00" cType="1" res="2.7147751301527023e-02" rms="2.1875779330730438e-01" purity="9.4556832313537598e-01" nType="-99"/>
        </Node>
        <Node pos="r" depth="1" NCoef="0" IVar="12" Cut="5.2085395812988281e+01" cType="1" res="1.4352002739906311e-01" rms="3.6568129062652588e-01" purity="7.7634608745574951e-01" nType="0">
          <Node pos="l" depth="2" NCoef="0" IVar="-1" Cut="0.0000000000000000e+00" cType="1" res="-1.5794631093740463e-02" rms="4.1251978278160095e-01" purity="2.1801954507827759e-01" nType="-99"/>
          <Node pos="r" depth="2" NCoef="0" IVar="-1" Cut="0.0000000000000000e+00" cType="1" res="2.0902803167700768e-02" rms="3.4944510459899902e-01" purity="8.2735347747802734e-01" nType="-99"/>
        </Node>
      </Node>
    </BinaryTree>
    <BinaryTree type="DecisionTree" boostWeight="1.0000000000000000e+00" itree="25">
      <Node pos="s" depth="0" NCoef="0" IVar="10" Cut="1.8230914306640625e+02" cType="1" res="-1.9657768309116364e-02" rms="4.1618672013282776e-01" purity="4.7595471143722534e-01" nType="0">
        <Node pos="l" depth="1" NCoef="0" IVar="12" Cut="9.5506538391113281e+01" cType="1" res="-1.1141559481620789e-01" rms="4.1448691487312317e-01" purity="2.5122708082199097e-01" nType="0">
          <Node pos="l" depth="2" NCoef="0" IVar="-1" Cut="0.0000000000000000e+00" cType="1" res="-1.4477917924523354e-02" rms="4.0565189719200134e-01" purity="2.1801955997943878e-01" nType="-99"/>
          <Node pos="r" depth="2" NCoef="0" IVar="-1" Cut="0.0000000000000000e+00" cType="1" res="1.7283482477068901e-02" rms="4.4634890556335449e-01" purity="7.3896723985671997e-01" nType="-99"/>
        </Node>
        <Node pos="r" depth="1" NCoef="0" IVar="8" Cut="3.7082340240478516e+01" cType="1" res="9.7312681376934052e-02" rms="3.8806736469268799e-01" purity="7.6243156194686890e-01" nType="0">
          <Node pos="l" depth="2" NCoef="0" IVar="-1" Cut="0.0000000000000000e+00" cType="1" res="8.4166023880243301e-03" rms="4.0384787321090698e-01" purity="7.2960972785949707e-01" nType="-99"/>
          <Node pos="r" depth="2" NCoef="0" IVar="-1" Cut="0.0000000000000000e+00" cType="1" res="3.5147186368703842e-02" rms="1.8790607154369354e-01" purity="9.6905159950256348e-01" nType="-99"/>
        </Node>
      </Node>
    </BinaryTree>
    <BinaryTree type="DecisionTree" boostWeight="1.0000000000000000e+00" itree="26">
      <Node pos="s" depth="0" NCoef="0" IVar="3" Cut="4.3455871939659119e-01" cType="1" res="-1.8644031137228012e-02" rms="4.2209470272064209e-01" purity="4.8516747355461121e-01" nType="0">
        <Node pos="l" depth="1" NCoef="0" IVar="13" Cut="4.9696056365966797e+01" cType="1" res="1.6872191429138184e-01" rms="2.8504726290702820e-01" purity="8.5791444778442383e-01" nType="0">
          <Node pos="l" depth="2" NCoef="0" IVar="-1" Cut="0.0000000000000000e+00" cType="1" res="-1.4093714999035001e-03" rms="4.4372317194938660e-01" purity="4.2877614498138428e-01" nType="-99"/>
          <Node pos="r" depth="2" NCoef="0" IVar="-1" Cut="0.0000000000000000e+00" cType="1" res="2.7475204318761826e-02" rms="2.3089265823364258e-01" purity="9.3547481298446655e-01" nType="-99"/>
        </Node>
        <Node pos="r" depth="1" NCoef="0" IVar="7" Cut="7.8997945785522461e-01" cType="1" res="-5.8062877506017685e-02" rms="4.3544587492942810e-01" purity="4.0674740076065063e-01" nType="0">
          <Node pos="l" depth="2" NCoef="0" IVar="-1" Cut="0.0000000000000000e+00" cType="1" res="1.2609051540493965e-02" rms="3.7906065583229065e-01" purity="6.6220414638519287e-01" nType="-99"/>
          <Node pos="r" depth="2" NCoef="0" IVar="-1" Cut="0.0000000000000000e+00" cType="1" res="-1.0672978125512600e-02" rms="4.3900489807128906e-01" purity="3.4922376275062561e-01" nType="-99"/>
        </Node>
      </Node>
    </BinaryTree>
    <BinaryTree type="DecisionTree" boostWeight="1.0000000000000000e+00" itree="27">
      <Node pos="s" depth="0" NCoef="0" IVar="10" Cut="1.8239233398437500e+02" cType="1" res="1.9389441236853600e-02" rms="4.2096927762031555e-01" purity="5.3342968225479126e-01" nType="0">
        <Node pos="l" depth="1" NCoef="0" IVar="14" Cut="1.6024784088134766e+01" cType="1" res="-6.1897896230220795e-02" rms="4.4300428032875061e-01" purity="3.0091616511344910e-01" nType="0">
          <Node pos="l" depth="2" NCoef="0" IVar="-1" Cut="0.0000000000000000e+00" cType="1" res="2.6201913133263588e-02" rms="4.6698242425918579e-01" purity="5.8600157499313354e-01" nType="-99"/>
          <Node pos="r" depth="2" NCoef="0" IVar="-1" Cut="0.0000000000000000e+00" cType="1" res="-8.2954233512282372e-03" rms="4.3780425190925598e-01" purity="2.8912043571472168e-01" nType="-99"/>
        </Node>
        <Node pos="r" depth="1" NCoef="0" IVar="9" Cut="1.4485795593261719e+02" cType="1" res="1.0358335077762604e-01" rms="3.7889873981475830e-01" purity="7.7425718307495117e-01" nType="0">
          <Node pos="l" depth="2" NCoef="0" IVar="-1" Cut="0.0000000000000000e+00" cType="1" res="3.0388329178094864e-03" rms="4.6068713068962097e-01" purity="6.2516474723815918e-01" nType="-99"/>
          <Node pos="r" depth="2" NCoef="0" IVar="-1" Cut="0.0000000000000000e+00" cType="1" res="2.4185599759221077e-02" rms="2.5868237018585205e-01" purity="9.1671067476272583e-01" nType="-99"/>
        </Node>
      </Node>
    </BinaryTree>
    <BinaryTree type="DecisionTree" boostWeight="1.0000000000000000e+00" itree="28">
      <Node pos="s" depth="0" NCoef="0" IVar="10" Cut="2.8509503173828125e+02" cType="1" res="1.4140340499579906e-03" rms="4.1962969303131104e-01" purity="5.0876438617706299e-01" nType="0">
        <Node pos="l" depth="1" NCoef="0" IVar="9" Cut="2.1584194946289062e+02" cType="1" res="-4.5436561107635498e-02" rms="4.5034384727478027e-01" purity="3.7164321541786194e-01" nType="0">
          <Node pos="l" depth="2" NCoef="0" IVar="-1" Cut="0.0000000000000000e+00" cType="1" res="-7.9745184630155563e-03" rms="4.5451319217681885e-01" purity="3.1826812028884888e-01" nType="-99"/>
          <Node pos="r" depth="2" NCoef="0" IVar="-1" Cut="0.0000000000000000e+00" cType="1" res="2.4974599480628967e-02" rms="3.0553194880485535e-01" purity="8.8699817657470703e-01" nType="-99"/>
        </Node>
        <Node pos="r" depth="1" NCoef="0" IVar="13" Cut="1.1321594238281250e+02" cType="1" res="1.4206121861934662e-01" rms="2.6363262534141541e-01" purity="9.2040717601776123e-01" nType="0">
          <Node pos="l" depth="2" NCoef="0" IVar="-1" Cut="0.0000000000000000e+00" cType="1" res="3.2995648682117462e-02" rms="5.3187914192676544e-02" purity="1.0000000000000000e+00" nType="-99"/>
          <Node pos="r" depth="2" NCoef="0" IVar="-1" Cut="0.0000000000000000e+00" cType="1" res="1.0310167446732521e-02" rms="3.3655884861946106e-01" purity="8.5402739048004150e-01" nType="-99"/>
        </Node>
      </Node>
    </BinaryTree>
    <BinaryTree type="DecisionTree" boostWeight="1.0000000000000000e+00" itree="29">
      <Node pos="s" depth="0" NCoef="0" IVar="10" Cut="1.9116221618652344e+02" cType="1" res="4.4854655861854553e-03" rms="4.2377483844757080e-01" purity="5.1338881254196167e-01" nType="0">
        <Node pos="l" depth="1" NCoef="0" IVar="13" Cut="6.4093025207519531e+01" cType="1" res="-6.6700980067253113e-02" rms="4.4922935962677002e-01" purity="3.0306112766265869e-01" nType="0">
          <Node pos="l" depth="2" NCoef="0" IVar="-1" Cut="0.0000000000000000e+00" cType="1" res="-5.5652987211942673e-03" rms="4.4849771261215210e-01" purity="3.0865502357482910e-01" nType="-99"/>
          <Node pos="r" depth="2" NCoef="0" IVar="-1" Cut="0.0000000000000000e+00" cType="1" res="-3.0005758628249168e-02" rms="4.0151727199554443e-01" purity="2.3536889255046844e-01" nType="-99"/>
        </Node>
        <Node pos="r" depth="1" NCoef="0" IVar="5" Cut="1.8322949409484863e+00" cType="1" res="9.9436327815055847e-02" rms="3.6629214882850647e-01" purity="7.9393100738525391e-01" nType="0">
          <Node pos="l" depth="2" NCoef="0" IVar="-1" Cut="0.0000000000000000e+00" cType="1" res="-4.2906617745757103e-03" rms="4.5707899332046509e-01" purity="5.9322494268417358e-01" nType="-99"/>
          <Node pos="r" depth="2" NCoef="0" IVar="-1" Cut="0.0000000000000000e+00" cType="1" res="1.9610160961747169e-02" rms="3.1504777073860168e-01" purity="8.6405581235885620e-01" nType="-99"/>
        </Node>
      </Node>
    </BinaryTree>
    <BinaryTree type="DecisionTree" boostWeight="1.0000000000000000e+00" itree="30">
      <Node pos="s" depth="0" NCoef="0" IVar="10" Cut="5.2886541748046875e+02" cType="1" res="-1.1692069470882416e-02" rms="4.3156445026397705e-01" purity="5.1040238142013550e-01" nType="0">
        <Node pos="l" depth="1" NCoef="0" IVar="5" Cut="3.0910832881927490e+00" cType="1" res="-3.0621679499745369e-02" rms="4.4779071211814880e-01" purity="4.6215498447418213e-01" nType="0">
          <Node pos="l" depth="2" NCoef="0" IVar="-1" Cut="0.0000000000000000e+00" cType="1" res="-5.2817170508205891e-03" rms="4.4871118664741516e-01" purity="4.3964532017707825e-01" nType="-99"/>
          <Node pos="r" depth="2" NCoef="0" IVar="-1" Cut="0.0000000000000000e+00" cType="1" res="2.9273742809891701e-02" rms="3.3249366283416748e-01" purity="8.7235587835311890e-01" nType="-99"/>
        </Node>
        <Node pos="r" depth="1" NCoef="0" IVar="5" Cut="1.8455889225006104e+00" cType="1" res="1.8039903044700623e-01" rms="3.0319986864924431e-02" purity="1.0000000000000000e+00" nType="0">
          <Node pos="l" depth="2" NCoef="0" IVar="-1" Cut="0.0000000000000000e+00" cType="1" res="3.2530054450035095e-02" rms="2.1071201190352440e-02" purity="1.0000000000000000e+00" nType="-99"/>
          <Node pos="r" depth="2" NCoef="0" IVar="-1" Cut="0.0000000000000000e+00" cType="1" res="3.0190074816346169e-02" rms="1.9510138779878616e-02" purity="1.0000000000000000e+00" nType="-99"/>
        </Node>
      </Node>
    </BinaryTree>
    <BinaryTree type="DecisionTree" boostWeight="1.0000000000000000e+00" itree="31">
      <Node pos="s" depth="0" NCoef="0" IVar="10" Cut="2.9727218627929688e+02" cType="1" res="-1.9343342632055283e-02" rms="4.2130863666534424e-01" purity="4.8344522714614868e-01" nType="0">
        <Node pos="l" depth="1" NCoef="0" IVar="14" Cut="5.9140621185302734e+01" cType="1" res="-6.1822831630706787e-02" rms="4.4978958368301392e-01" purity="3.6080393195152283e-01" nType="0">
          <Node pos="l" depth="2" NCoef="0" IVar="-1" Cut="0.0000000000000000e+00" cType="1" res="-5.4742945358157158e-03" rms="4.4586870074272156e-01" purity="3.6509305238723755e-01" nType="-99"/>
          <Node pos="r" depth="2" NCoef="0" IVar="-1" Cut="0.0000000000000000e+00" cType="1" res="-3.9734009653329849e-02" rms="4.3483564257621765e-01" purity="2.6272264122962952e-01" nType="-99"/>
        </Node>
        <Node pos="r" depth="1" NCoef="0" IVar="6" Cut="2.7283601760864258e+00" cType="1" res="1.3556562364101410e-01" rms="2.3759354650974274e-01" purity="9.3067830801010132e-01" nType="0">
          <Node pos="l" depth="2" NCoef="0" IVar="-1" Cut="0.0000000000000000e+00" cType="1" res="2.6817070320248604e-02" rms="1.6008366644382477e-01" purity="9.6948379278182983e-01" nType="-99"/>
          <Node pos="r" depth="2" NCoef="0" IVar="-1" Cut="0.0000000000000000e+00" cType="1" res="-7.4012260884046555e-03" rms="4.3831574916839600e-01" purity="7.0753079652786255e-01" nType="-99"/>
        </Node>
      </Node>
    </BinaryTree>
    <BinaryTree type="DecisionTree" boostWeight="1.0000000000000000e+00" itree="32">
      <Node pos="s" depth="0" NCoef="0" IVar="10" Cut="3.7321960449218750e+02" cType="1" res="-8.9982775971293449e-03" rms="4.3359258770942688e-01" purity="5.1069837808609009e-01" nType="0">
        <Node pos="l" depth="1" NCoef="0" IVar="5" Cut="2.2454457283020020e+00" cType="1" res="-3.4236833453178406e-02" rms="4.5864856243133545e-01" purity="4.2383521795272827e-01" nType="0">
          <Node pos="l" depth="2" NCoef="0" IVar="-1" Cut="0.0000000000000000e+00" cType="1" res="-1.2326145544648170e-02" rms="4.4085451960563660e-01" purity="3.0543479323387146e-01" nType="-99"/>
          <Node pos="r" depth="2" NCoef="0" IVar="-1" Cut="0.0000000000000000e+00" cType="1" res="1.4864621916785836e-03" rms="4.6317753195762634e-01" purity="4.9753689765930176e-01" nType="-99"/>
        </Node>
        <Node pos="r" depth="1" NCoef="0" IVar="6" Cut="2.7148201465606689e+00" cType="1" res="1.1294897645711899e-01" rms="2.4906690418720245e-01" purity="9.3040239810943604e-01" nType="0">
          <Node pos="l" depth="2" NCoef="0" IVar="-1" Cut="0.0000000000000000e+00" cType="1" res="2.5767361745238304e-02" rms="1.5951238572597504e-01" purity="9.7192162275314331e-01" nType="-99"/>
          <Node pos="r" depth="2" NCoef="0" IVar="-1" Cut="0.0000000000000000e+00" cType="1" res="-8.7237628176808357e-03" rms="4.4840979576110840e-01" purity="7.3298799991607666e-01" nType="-99"/>
        </Node>
      </Node>
    </BinaryTree>
    <BinaryTree type="DecisionTree" boostWeight="1.0000000000000000e+00" itree="33">
      <Node pos="s" depth="0" NCoef="0" IVar="12" Cut="1.9224569702148438e+02" cType="1" res="-3.0433053150773048e-02" rms="4.2385506629943848e-01" purity="4.7918778657913208e-01" nType="0">
        <Node pos="l" depth="1" NCoef="0" IVar="10" Cut="3.8451055908203125e+02" cType="1" res="-5.8437868952751160e-02" rms="4.4635310769081116e-01" purity="3.9501240849494934e-01" nType="0">
          <Node pos="l" depth="2" NCoef="0" IVar="-1" Cut="0.0000000000000000e+00" cType="1" res="-7.7744699083268642e-03" rms="4.5089384913444519e-01" purity="3.7420207262039185e-01" nType="-99"/>
          <Node pos="r" depth="2" NCoef="0" IVar="-1" Cut="0.0000000000000000e+00" cType="1" res="3.2288543879985809e-02" rms="4.0644276887178421e-02" purity="1.0000000000000000e+00" nType="-99"/>
        </Node>
        <Node pos="r" depth="1" NCoef="0" IVar="8" Cut="1.1675535202026367e+01" cType="1" res="1.3002516329288483e-01" rms="1.9296970963478088e-01" purity="9.6148473024368286e-01" nType="0">
          <Node pos="l" depth="2" NCoef="0" IVar="-1" Cut="0.0000000000000000e+00" cType="1" res="2.2868190426379442e-03" rms="3.5857141017913818e-01" purity="8.4455418586730957e-01" nType="-99"/>
          <Node pos="r" depth="2" NCoef="0" IVar="-1" Cut="0.0000000000000000e+00" cType="1" res="3.0315510928630829e-02" rms="3.3538963645696640e-02" purity="1.0000000000000000e+00" nType="-99"/>
        </Node>
      </Node>
    </BinaryTree>
    <BinaryTree type="DecisionTree" boostWeight="1.0000000000000000e+00" itree="34">
      <Node pos="s" depth="0" NCoef="0" IVar="5" Cut="2.1827549934387207e+00" cType="1" res="-5.8924439363181591e-03" rms="4.2065531015396118e-01" purity="4.9919036030769348e-01" nType="0">
        <Node pos="l" depth="1" NCoef="0" IVar="10" Cut="2.8681985473632812e+02" cType="1" res="-9.9757291376590729e-02" rms="4.0551209449768066e-01" purity="3.3116039633750916e-01" nType="0">
          <Node pos="l" depth="2" NCoef="0" IVar="-1" Cut="0.0000000000000000e+00" cType="1" res="-1.5393526293337345e-02" rms="4.0050595998764038e-01" purity="2.1976421773433685e-01" nType="-99"/>
          <Node pos="r" depth="2" NCoef="0" IVar="-1" Cut="0.0000000000000000e+00" cType="1" res="7.2793043218553066e-03" rms="3.9076551795005798e-01" purity="8.0599439144134521e-01" nType="-99"/>
        </Node>
        <Node pos="r" depth="1" NCoef="0" IVar="8" Cut="5.4996891021728516e+00" cType="1" res="4.8235516995191574e-02" rms="4.1970801353454590e-01" purity="5.9608632326126099e-01" nType="0">
          <Node pos="l" depth="2" NCoef="0" IVar="-1" Cut="0.0000000000000000e+00" cType="1" res="4.0884554386138916e-02" rms="3.7720787525177002e-01" purity="8.9788687229156494e-01" nType="-99"/>
          <Node pos="r" depth="2" NCoef="0" IVar="-1" Cut="0.0000000000000000e+00" cType="1" res="3.8384702056646347e-03" rms="4.1613519191741943e-01" purity="5.7699930667877197e-01" nType="-99"/>
        </Node>
      </Node>
    </BinaryTree>
    <BinaryTree type="DecisionTree" boostWeight="1.0000000000000000e+00" itree="35">
      <Node pos="s" depth="0" NCoef="0" IVar="7" Cut="1.2917050123214722e+00" cType="1" res="-1.8787354230880737e-02" rms="4.1541630029678345e-01" purity="4.8186653852462769e-01" nType="0">
        <Node pos="l" depth="1" NCoef="0" IVar="5" Cut="2.9194738864898682e+00" cType="1" res="6.8290017545223236e-02" rms="3.7805718183517456e-01" purity="6.7129689455032349e-01" nType="0">
          <Node pos="l" depth="2" NCoef="0" IVar="-1" Cut="0.0000000000000000e+00" cType="1" res="1.9673749338835478e-03" rms="4.0736785531044006e-01" purity="5.4001766443252563e-01" nType="-99"/>
          <Node pos="r" depth="2" NCoef="0" IVar="-1" Cut="0.0000000000000000e+00" cType="1" res="2.3358205333352089e-02" rms="3.0485257506370544e-01" purity="8.8767868280410767e-01" nType="-99"/>
        </Node>
        <Node pos="r" depth="1" NCoef="0" IVar="6" Cut="1.0807873010635376e+00" cType="1" res="-6.4720965921878815e-02" rms="4.2672950029373169e-01" purity="3.8194131851196289e-01" nType="0">
          <Node pos="l" depth="2" NCoef="0" IVar="-1" Cut="0.0000000000000000e+00" cType="1" res="8.0541726201772690e-03" rms="4.5983412861824036e-01" purity="6.3401103019714355e-01" nType="-99"/>
          <Node pos="r" depth="2" NCoef="0" IVar="-1" Cut="0.0000000000000000e+00" cType="1" res="-1.2230881489813328e-02" rms="4.0754967927932739e-01" purity="3.0369576811790466e-01" nType="-99"/>
        </Node>
      </Node>
    </BinaryTree>
    <BinaryTree type="DecisionTree" boostWeight="1.0000000000000000e+00" itree="36">
      <Node pos="s" depth="0" NCoef="0" IVar="4" Cut="5.9439479827880859e+01" cType="1" res="1.4814287424087524e-02" rms="4.2542281746864319e-01" purity="5.3010237216949463e-01" nType="0">
        <Node pos="l" depth="1" NCoef="0" IVar="6" Cut="1.6099662780761719e+00" cType="1" res="-4.3520286679267883e-02" rms="4.3738520145416260e-01" purity="3.8168513774871826e-01" nType="0">
          <Node pos="l" depth="2" NCoef="0" IVar="-1" Cut="0.0000000000000000e+00" cType="1" res="4.5615029521286488e-03" rms="4.5426326990127563e-01" purity="5.0599819421768188e-01" nType="-99"/>
          <Node pos="r" depth="2" NCoef="0" IVar="-1" Cut="0.0000000000000000e+00" cType="1" res="-1.2799924239516258e-02" rms="4.1253721714019775e-01" purity="2.8494283556938171e-01" nType="-99"/>
        </Node>
        <Node pos="r" depth="1" NCoef="0" IVar="2" Cut="3.1950021743774414e+01" cType="1" res="6.8848013877868652e-02" rms="4.0663570165634155e-01" purity="6.6757726669311523e-01" nType="0">
          <Node pos="l" depth="2" NCoef="0" IVar="-1" Cut="0.0000000000000000e+00" cType="1" res="-5.3180544637143612e-03" rms="4.4937613606452942e-01" purity="4.0920767188072205e-01" nType="-99"/>
          <Node pos="r" depth="2" NCoef="0" IVar="-1" Cut="0.0000000000000000e+00" cType="1" res="1.2489239685237408e-02" rms="3.9191055297851562e-01" purity="7.2546428442001343e-01" nType="-99"/>
        </Node>
      </Node>
    </BinaryTree>
    <BinaryTree type="DecisionTree" boostWeight="1.0000000000000000e+00" itree="37">
      <Node pos="s" depth="0" NCoef="0" IVar="12" Cut="1.2614742279052734e+02" cType="1" res="1.6833700239658356e-02" rms="4.0912601351737976e-01" purity="5.2912855148315430e-01" nType="0">
        <Node pos="l" depth="1" NCoef="0" IVar="4" Cut="1.1548304748535156e+02" cType="1" res="-2.2812297567725182e-02" rms="4.5046371221542358e-01" purity="3.6415109038352966e-01" nType="0">
          <Node pos="l" depth="2" NCoef="0" IVar="-1" Cut="0.0000000000000000e+00" cType="1" res="-3.5894368775188923e-03" rms="4.5200246572494507e-01" purity="3.4720432758331299e-01" nType="-99"/>
          <Node pos="r" depth="2" NCoef="0" IVar="-1" Cut="0.0000000000000000e+00" cType="1" res="2.9019506648182869e-02" rms="2.7826020121574402e-01" purity="9.0338790416717529e-01" nType="-99"/>
        </Node>
        <Node pos="r" depth="1" NCoef="0" IVar="0" Cut="2.1428043842315674e+00" cType="1" res="1.0485894978046417e-01" rms="2.7794155478477478e-01" purity="8.9542496204376221e-01" nType="0">
          <Node pos="l" depth="2" NCoef="0" IVar="-1" Cut="0.0000000000000000e+00" cType="1" res="-2.6872456073760986e-02" rms="4.0994724631309509e-01" purity="4.3568933010101318e-01" nType="-99"/>
          <Node pos="r" depth="2" NCoef="0" IVar="-1" Cut="0.0000000000000000e+00" cType="1" res="2.0159240812063217e-02" rms="2.5412932038307190e-01" purity="9.2368519306182861e-01" nType="-99"/>
        </Node>
      </Node>
    </BinaryTree>
    <BinaryTree type="DecisionTree" boostWeight="1.0000000000000000e+00" itree="38">
      <Node pos="s" depth="0" NCoef="0" IVar="10" Cut="1.6684323120117188e+02" cType="1" res="1.0964706540107727e-02" rms="4.1604110598564148e-01" purity="5.2367013692855835e-01" nType="0">
        <Node pos="l" depth="1" NCoef="0" IVar="6" Cut="1.6291425228118896e+00" cType="1" res="-5.3475376218557358e-02" rms="4.3177998065948486e-01" purity="2.7581831812858582e-01" nType="0">
          <Node pos="l" depth="2" NCoef="0" IVar="-1" Cut="0.0000000000000000e+00" cType="1" res="9.8915956914424896e-03" rms="4.8962110280990601e-01" purity="4.3311658501625061e-01" nType="-99"/>
          <Node pos="r" depth="2" NCoef="0" IVar="-1" Cut="0.0000000000000000e+00" cType="1" res="-1.1855776421725750e-02" rms="4.0060719847679138e-01" purity="2.2442595660686493e-01" nType="-99"/>
        </Node>
        <Node pos="r" depth="1" NCoef="0" IVar="13" Cut="5.9510807037353516e+01" cType="1" res="6.7791856825351715e-02" rms="3.9297789335250854e-01" purity="7.4224090576171875e-01" nType="0">
          <Node pos="l" depth="2" NCoef="0" IVar="-1" Cut="0.0000000000000000e+00" cType="1" res="2.3738987743854523e-02" rms="4.1035211086273193e-01" purity="7.8865897655487061e-01" nType="-99"/>
          <Node pos="r" depth="2" NCoef="0" IVar="-1" Cut="0.0000000000000000e+00" cType="1" res="3.1450199894607067e-03" rms="3.7633064389228821e-01" purity="7.2636538743972778e-01" nType="-99"/>
        </Node>
      </Node>
    </BinaryTree>
    <BinaryTree type="DecisionTree" boostWeight="1.0000000000000000e+00" itree="39">
      <Node pos="s" depth="0" NCoef="0" IVar="4" Cut="7.1559906005859375e+01" cType="1" res="-1.5112169785425067e-03" rms="4.1988196969032288e-01" purity="5.1146394014358521e-01" nType="0">
        <Node pos="l" depth="1" NCoef="0" IVar="14" Cut="4.4184452056884766e+01" cType="1" res="-4.7359682619571686e-02" rms="4.3737149238586426e-01" purity="3.7414214015007019e-01" nType="0">
          <Node pos="l" depth="2" NCoef="0" IVar="-1" Cut="0.0000000000000000e+00" cType="1" res="-7.9666869714856148e-03" rms="4.4156819581985474e-01" purity="3.1917613744735718e-01" nType="-99"/>
          <Node pos="r" depth="2" NCoef="0" IVar="-1" Cut="0.0000000000000000e+00" cType="1" res="1.5882730484008789e-02" rms="3.5989159345626831e-01" purity="8.2063585519790649e-01" nType="-99"/>
        </Node>
        <Node pos="r" depth="1" NCoef="0" IVar="7" Cut="2.9469661712646484e+00" cType="1" res="6.6230058670043945e-02" rms="3.8269311189651489e-01" purity="7.1435743570327759e-01" nType="0">
          <Node pos="l" depth="2" NCoef="0" IVar="-1" Cut="0.0000000000000000e+00" cType="1" res="1.2388689443469048e-02" rms="3.6610227823257446e-01" purity="7.4148410558700562e-01" nType="-99"/>
          <Node pos="r" depth="2" NCoef="0" IVar="-1" Cut="0.0000000000000000e+00" cType="1" res="-1.1142841540277004e-02" rms="4.4369098544120789e-01" purity="5.4566174745559692e-01" nType="-99"/>
        </Node>
      </Node>
    </BinaryTree>
    <BinaryTree type="DecisionTree" boostWeight="1.0000000000000000e+00" itree="40">
      <Node pos="s" depth="0" NCoef="0" IVar="7" Cut="1.1349041461944580e+00" cType="1" res="-3.2548528164625168e-02" rms="4.0487232804298401e-01" purity="4.7103449702262878e-01" nType="0">
        <Node pos="l" depth="1" NCoef="0" IVar="8" Cut="1.5849040031433105e+01" cType="1" res="8.9518547058105469e-02" rms="3.4826251864433289e-01" purity="7.2989457845687866e-01" nType="0">
          <Node pos="l" depth="2" NCoef="0" IVar="-1" Cut="0.0000000000000000e+00" cType="1" res="3.0686521902680397e-02" rms="2.9454550147056580e-01" purity="8.6998301744461060e-01" nType="-99"/>
          <Node pos="r" depth="2" NCoef="0" IVar="-1" Cut="0.0000000000000000e+00" cType="1" res="3.6072572693228722e-03" rms="3.5744282603263855e-01" purity="6.5570050477981567e-01" nType="-99"/>
        </Node>
        <Node pos="r" depth="1" NCoef="0" IVar="7" Cut="2.5905199050903320e+00" cType="1" res="-8.2314364612102509e-02" rms="4.1563457250595093e-01" purity="3.6549916863441467e-01" nType="0">
          <Node pos="l" depth="2" NCoef="0" IVar="-1" Cut="0.0000000000000000e+00" cType="1" res="-1.4444574713706970e-02" rms="4.0325701236724854e-01" purity="3.0134716629981995e-01" nType="-99"/>
          <Node pos="r" depth="2" NCoef="0" IVar="-1" Cut="0.0000000000000000e+00" cType="1" res="-1.3404797937255353e-04" rms="4.2856949567794800e-01" purity="4.9678426980972290e-01" nType="-99"/>
        </Node>
      </Node>
    </BinaryTree>
    <BinaryTree type="DecisionTree" boostWeight="1.0000000000000000e+00" itree="41">
      <Node pos="s" depth="0" NCoef="0" IVar="10" Cut="1.2977462768554688e+02" cType="1" res="-1.9097201526165009e-02" rms="4.1581389307975769e-01" purity="4.8720464110374451e-01" nType="0">
        <Node pos="l" depth="1" NCoef="0" IVar="13" Cut="4.0719474792480469e+01" cType="1" res="-8.8824413716793060e-02" rms="3.9831322431564331e-01" purity="2.1349719166755676e-01" nType="0">
          <Node pos="l" depth="2" NCoef="0" IVar="-1" Cut="0.0000000000000000e+00" cType="1" res="-1.4044393785297871e-02" rms="3.8075095415115356e-01" purity="1.8104197084903717e-01" nType="-99"/>
          <Node pos="r" depth="2" NCoef="0" IVar="-1" Cut="0.0000000000000000e+00" cType="1" res="1.4318668283522129e-02" rms="4.6933227777481079e-01" purity="4.8092082142829895e-01" nType="-99"/>
        </Node>
        <Node pos="r" depth="1" NCoef="0" IVar="10" Cut="5.3035321044921875e+02" cType="1" res="1.7330316826701164e-02" rms="4.2009249329566956e-01" purity="6.3019728660583496e-01" nType="0">
          <Node pos="l" depth="2" NCoef="0" IVar="-1" Cut="0.0000000000000000e+00" cType="1" res="-1.1730568076018244e-04" rms="4.4802775979042053e-01" purity="5.7374662160873413e-01" nType="-99"/>
          <Node pos="r" depth="2" NCoef="0" IVar="-1" Cut="0.0000000000000000e+00" cType="1" res="2.9235620051622391e-02" rms="3.2524641603231430e-02" purity="1.0000000000000000e+00" nType="-99"/>
        </Node>
      </Node>
    </BinaryTree>
    <BinaryTree type="DecisionTree" boostWeight="1.0000000000000000e+00" itree="42">
      <Node pos="s" depth="0" NCoef="0" IVar="10" Cut="1.8644461059570312e+02" cType="1" res="1.6651945188641548e-02" rms="4.0506991744041443e-01" purity="5.2336925268173218e-01" nType="0">
        <Node pos="l" depth="1" NCoef="0" IVar="5" Cut="2.6145350933074951e+00" cType="1" res="-4.8171494156122208e-02" rms="4.3256223201751709e-01" purity="2.8894174098968506e-01" nType="0">
          <Node pos="l" depth="2" NCoef="0" IVar="-1" Cut="0.0000000000000000e+00" cType="1" res="-1.0920018889009953e-02" rms="3.9719605445861816e-01" purity="2.0556282997131348e-01" nType="-99"/>
          <Node pos="r" depth="2" NCoef="0" IVar="-1" Cut="0.0000000000000000e+00" cType="1" res="9.8030874505639076e-04" rms="4.7112420201301575e-01" purity="4.0381258726119995e-01" nType="-99"/>
        </Node>
        <Node pos="r" depth="1" NCoef="0" IVar="4" Cut="3.3484516143798828e+01" cType="1" res="9.3350253999233246e-02" rms="3.5493686795234680e-01" purity="8.0074107646942139e-01" nType="0">
          <Node pos="l" depth="2" NCoef="0" IVar="-1" Cut="0.0000000000000000e+00" cType="1" res="-7.0573878474533558e-03" rms="4.8140898346900940e-01" purity="5.3846627473831177e-01" nType="-99"/>
          <Node pos="r" depth="2" NCoef="0" IVar="-1" Cut="0.0000000000000000e+00" cType="1" res="1.9005704671144485e-02" rms="3.0642437934875488e-01" purity="8.6301594972610474e-01" nType="-99"/>
        </Node>
      </Node>
    </BinaryTree>
    <BinaryTree type="DecisionTree" boostWeight="1.0000000000000000e+00" itree="43">
      <Node pos="s" depth="0" NCoef="0" IVar="6" Cut="3.9598095417022705e-01" cType="1" res="-1.8508695065975189e-02" rms="4.1972070932388306e-01" purity="4.9171537160873413e-01" nType="0">
        <Node pos="l" depth="1" NCoef="0" IVar="8" Cut="2.4057107925415039e+01" cType="1" res="9.8677024245262146e-02" rms="3.2904016971588135e-01" purity="8.2862651348114014e-01" nType="0">
          <Node pos="l" depth="2" NCoef="0" IVar="-1" Cut="0.0000000000000000e+00" cType="1" res="2.9864056035876274e-02" rms="2.6120993494987488e-01" purity="9.1407060623168945e-01" nType="-99"/>
          <Node pos="r" depth="2" NCoef="0" IVar="-1" Cut="0.0000000000000000e+00" cType="1" res="-8.0505013465881348e-04" rms="3.6915692687034607e-01" purity="7.2672849893569946e-01" nType="-99"/>
        </Node>
        <Node pos="r" depth="1" NCoef="0" IVar="4" Cut="1.9080854797363281e+02" cType="1" res="-3.5323381423950195e-02" rms="4.2854967713356018e-01" purity="4.4337284564971924e-01" nType="0">
          <Node pos="l" depth="2" NCoef="0" IVar="-1" Cut="0.0000000000000000e+00" cType="1" res="-5.3807180374860764e-03" rms="4.3561550974845886e-01" purity="4.1885462403297424e-01" nType="-99"/>
          <Node pos="r" depth="2" NCoef="0" IVar="-1" Cut="0.0000000000000000e+00" cType="1" res="3.0605394393205643e-02" rms="5.4028384387493134e-02" purity="1.0000000000000000e+00" nType="-99"/>
        </Node>
      </Node>
    </BinaryTree>
    <BinaryTree type="DecisionTree" boostWeight="1.0000000000000000e+00" itree="44">
      <Node pos="s" depth="0" NCoef="0" IVar="10" Cut="2.8509503173828125e+02" cType="1" res="1.9994967151433229e-03" rms="4.0612024068832397e-01" purity="5.0683587789535522e-01" nType="0">
        <Node pos="l" depth="1" NCoef="0" IVar="13" Cut="9.5548690795898438e+01" cType="1" res="-3.1794600188732147e-02" rms="4.4187313318252563e-01" purity="3.6963421106338501e-01" nType="0">
          <Node pos="l" depth="2" NCoef="0" IVar="-1" Cut="0.0000000000000000e+00" cType="1" res="-2.1536480635404587e-03" rms="4.3742689490318298e-01" purity="3.7127396464347839e-01" nType="-99"/>
          <Node pos="r" depth="2" NCoef="0" IVar="-1" Cut="0.0000000000000000e+00" cType="1" res="-3.8361210376024246e-02" rms="4.3674430251121521e-01" purity="3.3294123411178589e-01" nType="-99"/>
        </Node>
        <Node pos="r" depth="1" NCoef="0" IVar="12" Cut="1.4092131042480469e+02" cType="1" res="1.0751115530729294e-01" rms="2.3574557900428772e-01" purity="9.3520581722259521e-01" nType="0">
          <Node pos="l" depth="2" NCoef="0" IVar="-1" Cut="0.0000000000000000e+00" cType="1" res="3.3926658332347870e-02" rms="6.1798606067895889e-02" purity="1.0000000000000000e+00" nType="-99"/>
          <Node pos="r" depth="2" NCoef="0" IVar="-1" Cut="0.0000000000000000e+00" cType="1" res="1.5318258665502071e-02" rms="2.4751223623752594e-01" purity="9.2210900783538818e-01" nType="-99"/>
        </Node>
      </Node>
    </BinaryTree>
    <BinaryTree type="DecisionTree" boostWeight="1.0000000000000000e+00" itree="45">
      <Node pos="s" depth="0" NCoef="0" IVar="10" Cut="1.2594528198242188e+02" cType="1" res="-9.3011083081364632e-03" rms="4.1367176175117493e-01" purity="5.0252377986907959e-01" nType="0">
        <Node pos="l" depth="1" NCoef="0" IVar="6" Cut="1.6494719982147217e+00" cType="1" res="-8.1739716231822968e-02" rms="4.0387362241744995e-01" purity="2.1376608312129974e-01" nType="0">
          <Node pos="l" depth="2" NCoef="0" IVar="-1" Cut="0.0000000000000000e+00" cType="1" res="1.0539202950894833e-02" rms="5.0359052419662476e-01" purity="4.0264004468917847e-01" nType="-99"/>
          <Node pos="r" depth="2" NCoef="0" IVar="-1" Cut="0.0000000000000000e+00" cType="1" res="-1.3833141885697842e-02" rms="3.7593105435371399e-01" purity="1.8080049753189087e-01" nType="-99"/>
        </Node>
        <Node pos="r" depth="1" NCoef="0" IVar="3" Cut="1.0468007326126099e+00" cType="1" res="2.2354342043399811e-02" rms="4.1391995549201965e-01" purity="6.2870997190475464e-01" nType="0">
          <Node pos="l" depth="2" NCoef="0" IVar="-1" Cut="0.0000000000000000e+00" cType="1" res="-1.6912579303607345e-03" rms="4.0650847554206848e-01" purity="6.3777232170104980e-01" nType="-99"/>
          <Node pos="r" depth="2" NCoef="0" IVar="-1" Cut="0.0000000000000000e+00" cType="1" res="1.8211057409644127e-02" rms="4.1550132632255554e-01" purity="5.9504830837249756e-01" nType="-99"/>
        </Node>
      </Node>
    </BinaryTree>
    <BinaryTree type="DecisionTree" boostWeight="1.0000000000000000e+00" itree="46">
      <Node pos="s" depth="0" NCoef="0" IVar="7" Cut="1.2665764093399048e+00" cType="1" res="-1.4809740707278252e-02" rms="4.1901800036430359e-01" purity="5.0564986467361450e-01" nType="0">
        <Node pos="l" depth="1" NCoef="0" IVar="14" Cut="2.0764657974243164e+01" cType="1" res="7.1167245507240295e-02" rms="3.7473514676094055e-01" purity="7.1328574419021606e-01" nType="0">
          <Node pos="l" depth="2" NCoef="0" IVar="-1" Cut="0.0000000000000000e+00" cType="1" res="3.1818639487028122e-02" rms="3.6020904779434204e-01" purity="8.1093895435333252e-01" nType="-99"/>
          <Node pos="r" depth="2" NCoef="0" IVar="-1" Cut="0.0000000000000000e+00" cType="1" res="4.8481347039341927e-03" rms="3.6698657274246216e-01" purity="6.9156104326248169e-01" nType="-99"/>
        </Node>
        <Node pos="r" depth="1" NCoef="0" IVar="3" Cut="4.1312775015830994e-01" cType="1" res="-5.7215008884668350e-02" rms="4.3297618627548218e-01" purity="4.0324047207832336e-01" nType="0">
          <Node pos="l" depth="2" NCoef="0" IVar="-1" Cut="0.0000000000000000e+00" cType="1" res="2.0072026178240776e-02" rms="3.1171771883964539e-01" purity="8.8622617721557617e-01" nType="-99"/>
          <Node pos="r" depth="2" NCoef="0" IVar="-1" Cut="0.0000000000000000e+00" cType="1" res="-1.0043957270681858e-02" rms="4.4079595804214478e-01" purity="3.3468857407569885e-01" nType="-99"/>
        </Node>
      </Node>
    </BinaryTree>
    <BinaryTree type="DecisionTree" boostWeight="1.0000000000000000e+00" itree="47">
      <Node pos="s" depth="0" NCoef="0" IVar="9" Cut="1.6077116394042969e+02" cType="1" res="-2.3918424267321825e-03" rms="4.1552129387855530e-01" purity="5.0758022069931030e-01" nType="0">
        <Node pos="l" depth="1" NCoef="0" IVar="6" Cut="2.2539071738719940e-01" cType="1" res="-3.6933157593011856e-02" rms="4.3648046255111694e-01" purity="3.8170009851455688e-01" nType="0">
          <Node pos="l" depth="2" NCoef="0" IVar="-1" Cut="0.0000000000000000e+00" cType="1" res="-2.4293642491102219e-02" rms="4.6113726496696472e-01" purity="3.5204246640205383e-01" nType="-99"/>
          <Node pos="r" depth="2" NCoef="0" IVar="-1" Cut="0.0000000000000000e+00" cType="1" res="-3.1130833085626364e-03" rms="4.3243017792701721e-01" purity="3.8382595777511597e-01" nType="-99"/>
        </Node>
        <Node pos="r" depth="1" NCoef="0" IVar="7" Cut="3.0962586402893066e+00" cType="1" res="6.8905770778656006e-02" rms="3.5812330245971680e-01" purity="7.6741266250610352e-01" nType="0">
          <Node pos="l" depth="2" NCoef="0" IVar="-1" Cut="0.0000000000000000e+00" cType="1" res="1.3713117688894272e-02" rms="3.3566465973854065e-01" purity="7.9067152738571167e-01" nType="-99"/>
          <Node pos="r" depth="2" NCoef="0" IVar="-1" Cut="0.0000000000000000e+00" cType="1" res="-4.3085116893053055e-02" rms="4.6118703484535217e-01" purity="4.0191027522087097e-01" nType="-99"/>
        </Node>
      </Node>
    </BinaryTree>
    <BinaryTree type="DecisionTree" boostWeight="1.0000000000000000e+00" itree="48">
      <Node pos="s" depth="0" NCoef="0" IVar="10" Cut="3.5782360839843750e+02" cType="1" res="-1.1658417992293835e-02" rms="4.0933176875114441e-01" purity="4.9733537435531616e-01" nType="0">
        <Node pos="l" depth="1" NCoef="0" IVar="3" Cut="1.8066632747650146e+00" cType="1" res="-3.5806577652692795e-02" rms="4.3795204162597656e-01" purity="4.0264001488685608e-01" nType="0">
          <Node pos="l" depth="2" NCoef="0" IVar="-1" Cut="0.0000000000000000e+00" cType="1" res="-2.3193862289190292e-03" rms="4.4384160637855530e-01" purity="4.3129470944404602e-01" nType="-99"/>
          <Node pos="r" depth="2" NCoef="0" IVar="-1" Cut="0.0000000000000000e+00" cType="1" res="-1.9483804702758789e-02" rms="3.6315396428108215e-01" purity="1.7584572732448578e-01" nType="-99"/>
        </Node>
        <Node pos="r" depth="1" NCoef="0" IVar="12" Cut="1.9241435241699219e+02" cType="1" res="1.0757163166999817e-01" rms="1.7529161274433136e-01" purity="9.6488779783248901e-01" nType="0">
          <Node pos="l" depth="2" NCoef="0" IVar="-1" Cut="0.0000000000000000e+00" cType="1" res="3.1193101778626442e-02" rms="4.5426450669765472e-02" purity="1.0000000000000000e+00" nType="-99"/>
          <Node pos="r" depth="2" NCoef="0" IVar="-1" Cut="0.0000000000000000e+00" cType="1" res="1.8783327192068100e-02" rms="1.9217556715011597e-01" purity="9.5416498184204102e-01" nType="-99"/>
        </Node>
      </Node>
    </BinaryTree>
    <BinaryTree type="DecisionTree" boostWeight="1.0000000000000000e+00" itree="49">
      <Node pos="s" depth="0" NCoef="0" IVar="4" Cut="8.2723266601562500e+01" cType="1" res="-1.7778113251551986e-03" rms="4.1529524326324463e-01" purity="5.1521104574203491e-01" nType="0">
        <Node pos="l" depth="1" NCoef="0" IVar="14" Cut="1.8785766601562500e+01" cType="1" res="-3.1473390758037567e-02" rms="4.3456920981407166e-01" purity="3.9433690905570984e-01" nType="0">
          <Node pos="l" depth="2" NCoef="0" IVar="-1" Cut="0.0000000000000000e+00" cType="1" res="7.4083772487938404e-03" rms="4.3519878387451172e-01" purity="4.0525239706039429e-01" nType="-99"/>
          <Node pos="r" depth="2" NCoef="0" IVar="-1" Cut="0.0000000000000000e+00" cType="1" res="-6.1073689721524715e-03" rms="4.3208467960357666e-01" purity="3.9213088154792786e-01" nType="-99"/>
        </Node>
        <Node pos="r" depth="1" NCoef="0" IVar="6" Cut="3.0351219177246094e+00" cType="1" res="6.7909516394138336e-02" rms="3.5651713609695435e-01" purity="7.9886919260025024e-01" nType="0">
          <Node pos="l" depth="2" NCoef="0" IVar="-1" Cut="0.0000000000000000e+00" cType="1" res="1.7323121428489685e-02" rms="3.1041273474693298e-01" purity="8.3998167514801025e-01" nType="-99"/>
          <Node pos="r" depth="2" NCoef="0" IVar="-1" Cut="0.0000000000000000e+00" cType="1" res="-3.6374244838953018e-02" rms="4.9136424064636230e-01" purity="4.9781659245491028e-01" nType="-99"/>
        </Node>
      </Node>
    </BinaryTree>
    <BinaryTree type="DecisionTree" boostWeight="1.0000000000000000e+00" itree="50">
      <Node pos="s" depth="0" NCoef="0" IVar="11" Cut="1.7182473754882812e+02" cType="1" res="-3.1482227146625519e-02" rms="4.1650494933128357e-01" purity="4.7697690129280090e-01" nType="0">
        <Node pos="l" depth="1" NCoef="0" IVar="7" Cut="3.0403347015380859e+00" cType="1" res="-4.4291377067565918e-02" rms="4.3004906177520752e-01" purity="4.3502226471900940e-01" nType="0">
          <Node pos="l" depth="2" NCoef="0" IVar="-1" Cut="0.0000000000000000e+00" cType="1" res="-4.2701778002083302e-03" rms="4.2981976270675659e-01" purity="4.4591259956359863e-01" nType="-99"/>
          <Node pos="r" depth="2" NCoef="0" IVar="-1" Cut="0.0000000000000000e+00" cType="1" res="-2.5574924424290657e-02" rms="3.9768514037132263e-01" purity="2.5977605581283569e-01" nType="-99"/>
        </Node>
        <Node pos="r" depth="1" NCoef="0" IVar="10" Cut="2.6848559570312500e+02" cType="1" res="1.2820164859294891e-01" rms="5.4721683263778687e-02" purity="1.0000000000000000e+00" nType="0">
          <Node pos="l" depth="2" NCoef="0" IVar="-1" Cut="0.0000000000000000e+00" cType="1" res="3.2369334250688553e-02" rms="5.6177988648414612e-02" purity="1.0000000000000000e+00" nType="-99"/>
          <Node pos="r" depth="2" NCoef="0" IVar="-1" Cut="0.0000000000000000e+00" cType="1" res="2.8150359168648720e-02" rms="2.4626713246107101e-02" purity="1.0000000000000000e+00" nType="-99"/>
        </Node>
      </Node>
    </BinaryTree>
    <BinaryTree type="DecisionTree" boostWeight="1.0000000000000000e+00" itree="51">
      <Node pos="s" depth="0" NCoef="0" IVar="7" Cut="3.0410640239715576e+00" cType="1" res="-9.1263754293322563e-03" rms="4.1233021020889282e-01" purity="4.9814796447753906e-01" nType="0">
        <Node pos="l" depth="1" NCoef="0" IVar="10" Cut="1.2977462768554688e+02" cType="1" res="7.5940624810755253e-03" rms="4.0384951233863831e-01" purity="5.1091492176055908e-01" nType="0">
          <Node pos="l" depth="2" NCoef="0" IVar="-1" Cut="0.0000000000000000e+00" cType="1" res="-8.9162345975637436e-03" rms="3.9458268880844116e-01" purity="2.1362350881099701e-01" nType="-99"/>
          <Node pos="r" depth="2" NCoef="0" IVar="-1" Cut="0.0000000000000000e+00" cType="1" res="6.1883372254669666e-03" rms="4.0281066298484802e-01" purity="6.5777677297592163e-01" nType="-99"/>
        </Node>
        <Node pos="r" depth="1" NCoef="0" IVar="11" Cut="1.1289102172851562e+02" cType="1" res="-2.3739199340343475e-01" rms="4.5671612024307251e-01" purity="3.2385447621345520e-01" nType="0">
          <Node pos="l" depth="2" NCoef="0" IVar="-1" Cut="0.0000000000000000e+00" cType="1" res="-1.0970308445394039e-02" rms="4.2320963740348816e-01" purity="3.2057037949562073e-01" nType="-99"/>
          <Node pos="r" depth="2" NCoef="0" IVar="-1" Cut="0.0000000000000000e+00" cType="1" res="-6.3367769122123718e-02" rms="4.2786818742752075e-01" purity="3.2839930057525635e-01" nType="-99"/>
        </Node>
      </Node>
    </BinaryTree>
    <BinaryTree type="DecisionTree" boostWeight="1.0000000000000000e+00" itree="52">
      <Node pos="s" depth="0" NCoef="0" IVar="10" Cut="1.8950932312011719e+02" cType="1" res="-3.7990772398188710e-04" rms="4.1050383448600769e-01" purity="5.0316524505615234e-01" nType="0">
        <Node pos="l" depth="1" NCoef="0" IVar="2" Cut="8.8118713378906250e+01" cType="1" res="-5.6928005069494247e-02" rms="4.3020802736282349e-01" purity="2.7661770582199097e-01" nType="0">
          <Node pos="l" depth="2" NCoef="0" IVar="-1" Cut="0.0000000000000000e+00" cType="1" res="-5.4046963341534138e-03" rms="4.2492768168449402e-01" purity="2.7219423651695251e-01" nType="-99"/>
          <Node pos="r" depth="2" NCoef="0" IVar="-1" Cut="0.0000000000000000e+00" cType="1" res="-3.5212159156799316e-02" rms="4.6353203058242798e-01" purity="3.6382979154586792e-01" nType="-99"/>
        </Node>
        <Node pos="r" depth="1" NCoef="0" IVar="12" Cut="1.0196851348876953e+02" cType="1" res="7.3535859584808350e-02" rms="3.7042778730392456e-01" purity="7.9929250478744507e-01" nType="0">
          <Node pos="l" depth="2" NCoef="0" IVar="-1" Cut="0.0000000000000000e+00" cType="1" res="3.1972356140613556e-02" rms="4.0157166123390198e-01" purity="8.1605333089828491e-01" nType="-99"/>
          <Node pos="r" depth="2" NCoef="0" IVar="-1" Cut="0.0000000000000000e+00" cType="1" res="4.4714002870023251e-03" rms="3.4683704376220703e-01" purity="7.9586613178253174e-01" nType="-99"/>
        </Node>
      </Node>
    </BinaryTree>
    <BinaryTree type="DecisionTree" boostWeight="1.0000000000000000e+00" itree="53">
      <Node pos="s" depth="0" NCoef="0" IVar="8" Cut="5.4535125732421875e+01" cType="1" res="-1.2279612943530083e-02" rms="4.0524429082870483e-01" purity="4.7802177071571350e-01" nType="0">
        <Node pos="l" depth="1" NCoef="0" IVar="8" Cut="4.6541683197021484e+01" cType="1" res="-1.4139962149783969e-03" rms="4.0443333983421326e-01" purity="4.8657768964767456e-01" nType="0">
          <Node pos="l" depth="2" NCoef="0" IVar="-1" Cut="0.0000000000000000e+00" cType="1" res="-1.0669426992535591e-03" rms="4.0434128046035767e-01" purity="4.7646093368530273e-01" nType="-99"/>
          <Node pos="r" depth="2" NCoef="0" IVar="-1" Cut="0.0000000000000000e+00" cType="1" res="4.8207975924015045e-02" rms="2.1890358626842499e-01" purity="1.0000000000000000e+00" nType="-99"/>
        </Node>
        <Node pos="r" depth="1" NCoef="0" IVar="3" Cut="5.3713887929916382e-01" cType="1" res="-2.1503888070583344e-01" rms="3.6491283774375916e-01" purity="3.1836315989494324e-01" nType="0">
          <Node pos="l" depth="2" NCoef="0" IVar="-1" Cut="0.0000000000000000e+00" cType="1" res="-5.4090551566332579e-04" rms="2.8921526670455933e-01" purity="7.3896718025207520e-01" nType="-99"/>
          <Node pos="r" depth="2" NCoef="0" IVar="-1" Cut="0.0000000000000000e+00" cType="1" res="-3.5232376307249069e-02" rms="3.5720860958099365e-01" purity="1.4644590020179749e-01" nType="-99"/>
        </Node>
      </Node>
    </BinaryTree>
    <BinaryTree type="DecisionTree" boostWeight="1.0000000000000000e+00" itree="54">
      <Node pos="s" depth="0" NCoef="0" IVar="14" Cut="3.7315795898437500e+01" cType="1" res="2.3653516545891762e-02" rms="4.0652504563331604e-01" purity="5.3978997468948364e-01" nType="0">
        <Node pos="l" depth="1" NCoef="0" IVar="7" Cut="1.2846215963363647e+00" cType="1" res="-7.5117838568985462e-03" rms="4.3277880549430847e-01" purity="4.2541259527206421e-01" nType="0">
          <Node pos="l" depth="2" NCoef="0" IVar="-1" Cut="0.0000000000000000e+00" cType="1" res="9.3232169747352600e-03" rms="4.2227700352668762e-01" purity="6.4516180753707886e-01" nType="-99"/>
          <Node pos="r" depth="2" NCoef="0" IVar="-1" Cut="0.0000000000000000e+00" cType="1" res="-4.8322211951017380e-03" rms="4.3293237686157227e-01" purity="3.3688664436340332e-01" nType="-99"/>
        </Node>
        <Node pos="r" depth="1" NCoef="0" IVar="5" Cut="3.0793237686157227e+00" cType="1" res="1.0753466188907623e-01" rms="3.1033155322074890e-01" purity="8.4763574600219727e-01" nType="0">
          <Node pos="l" depth="2" NCoef="0" IVar="-1" Cut="0.0000000000000000e+00" cType="1" res="2.1594509482383728e-02" rms="2.7684035897254944e-01" purity="8.6630481481552124e-01" nType="-99"/>
          <Node pos="r" depth="2" NCoef="0" IVar="-1" Cut="0.0000000000000000e+00" cType="1" res="-1.4704919420182705e-02" rms="4.1440829634666443e-01" purity="7.3779290914535522e-01" nType="-99"/>
        </Node>
      </Node>
    </BinaryTree>
    <BinaryTree type="DecisionTree" boostWeight="1.0000000000000000e+00" itree="55">
      <Node pos="s" depth="0" NCoef="0" IVar="4" Cut="8.2647224426269531e+01" cType="1" res="-8.2615353167057037e-03" rms="4.0539267659187317e-01" purity="4.9216651916503906e-01" nType="0">
        <Node pos="l" depth="1" NCoef="0" IVar="3" Cut="2.4533374309539795e+00" cType="1" res="-4.2764045298099518e-02" rms="4.2314076423645020e-01" purity="3.6801046133041382e-01" nType="0">
          <Node pos="l" depth="2" NCoef="0" IVar="-1" Cut="0.0000000000000000e+00" cType="1" res="-3.7423337344080210e-03" rms="4.2338326573371887e-01" purity="3.8249915838241577e-01" nType="-99"/>
          <Node pos="r" depth="2" NCoef="0" IVar="-1" Cut="0.0000000000000000e+00" cType="1" res="-3.0182760208845139e-02" rms="3.5764625668525696e-01" purity="1.2509144842624664e-01" nType="-99"/>
        </Node>
        <Node pos="r" depth="1" NCoef="0" IVar="10" Cut="1.1095172882080078e+02" cType="1" res="7.9014092683792114e-02" rms="3.4134778380393982e-01" purity="8.0622476339340210e-01" nType="0">
          <Node pos="l" depth="2" NCoef="0" IVar="-1" Cut="0.0000000000000000e+00" cType="1" res="3.9544880390167236e-02" rms="4.1310140490531921e-01" purity="7.8275084495544434e-01" nType="-99"/>
          <Node pos="r" depth="2" NCoef="0" IVar="-1" Cut="0.0000000000000000e+00" cType="1" res="9.5068505033850670e-03" rms="3.2683938741683960e-01" purity="8.0782204866409302e-01" nType="-99"/>
        </Node>
      </Node>
    </BinaryTree>
    <BinaryTree type="DecisionTree" boostWeight="1.0000000000000000e+00" itree="56">
      <Node pos="s" depth="0" NCoef="0" IVar="10" Cut="3.8196978759765625e+02" cType="1" res="-8.9313639327883720e-03" rms="4.1121858358383179e-01" purity="5.0950670242309570e-01" nType="0">
        <Node pos="l" depth="1" NCoef="0" IVar="0" Cut="3.0417957305908203e+00" cType="1" res="-3.2083258032798767e-02" rms="4.4199821352958679e-01" purity="4.1841819882392883e-01" nType="0">
          <Node pos="l" depth="2" NCoef="0" IVar="-1" Cut="0.0000000000000000e+00" cType="1" res="-8.4522766992449760e-03" rms="4.4476115703582764e-01" purity="3.5099682211875916e-01" nType="-99"/>
          <Node pos="r" depth="2" NCoef="0" IVar="-1" Cut="0.0000000000000000e+00" cType="1" res="6.9205290637910366e-03" rms="4.2310297489166260e-01" purity="5.7046401500701904e-01" nType="-99"/>
        </Node>
        <Node pos="r" depth="1" NCoef="0" IVar="5" Cut="2.3745615482330322e+00" cType="1" res="1.1247988045215607e-01" rms="1.1760004609823227e-01" purity="9.8718535900115967e-01" nType="0">
          <Node pos="l" depth="2" NCoef="0" IVar="-1" Cut="0.0000000000000000e+00" cType="1" res="3.0697563663125038e-02" rms="4.3687097728252411e-02" purity="1.0000000000000000e+00" nType="-99"/>
          <Node pos="r" depth="2" NCoef="0" IVar="-1" Cut="0.0000000000000000e+00" cType="1" res="2.3313079029321671e-02" rms="1.2839910387992859e-01" purity="9.8191761970520020e-01" nType="-99"/>
        </Node>
      </Node>
    </BinaryTree>
    <BinaryTree type="DecisionTree" boostWeight="1.0000000000000000e+00" itree="57">
      <Node pos="s" depth="0" NCoef="0" IVar="3" Cut="1.9685032367706299e+00" cType="1" res="-1.8219891935586929e-02" rms="4.1714933514595032e-01" purity="4.9184134602546692e-01" nType="0">
        <Node pos="l" depth="1" NCoef="0" IVar="7" Cut="1.1595388650894165e+00" cType="1" res="-3.8752672262489796e-03" rms="4.1913789510726929e-01" purity="5.2218717336654663e-01" nType="0">
          <Node pos="l" depth="2" NCoef="0" IVar="-1" Cut="0.0000000000000000e+00" cType="1" res="9.1761536896228790e-03" rms="3.8741657137870789e-01" purity="7.3939424753189087e-01" nType="-99"/>
          <Node pos="r" depth="2" NCoef="0" IVar="-1" Cut="0.0000000000000000e+00" cType="1" res="-4.1745435446500778e-03" rms="4.2983400821685791e-01" purity="4.2190977931022644e-01" nType="-99"/>
        </Node>
        <Node pos="r" depth="1" NCoef="0" IVar="12" Cut="6.3158317565917969e+01" cType="1" res="-1.7687845230102539e-01" rms="3.5801023244857788e-01" purity="1.5620149672031403e-01" nType="0">
          <Node pos="l" depth="2" NCoef="0" IVar="-1" Cut="0.0000000000000000e+00" cType="1" res="-1.3413093984127045e-02" rms="3.5710132122039795e-01" purity="1.6393704712390900e-01" nType="-99"/>
          <Node pos="r" depth="2" NCoef="0" IVar="-1" Cut="0.0000000000000000e+00" cType="1" res="-2.9801893979310989e-02" rms="3.3612662553787231e-01" purity="1.4644590020179749e-01" nType="-99"/>
        </Node>
      </Node>
    </BinaryTree>
    <BinaryTree type="DecisionTree" boostWeight="1.0000000000000000e+00" itree="58">
      <Node pos="s" depth="0" NCoef="0" IVar="12" Cut="5.0493751525878906e+01" cType="1" res="2.5675544515252113e-02" rms="3.9884912967681885e-01" purity="5.4310595989227295e-01" nType="0">
        <Node pos="l" depth="1" NCoef="0" IVar="14" Cut="2.5873159408569336e+01" cType="1" res="-7.9825736582279205e-02" rms="3.8203051686286926e-01" purity="1.8161883950233459e-01" nType="0">
          <Node pos="l" depth="2" NCoef="0" IVar="-1" Cut="0.0000000000000000e+00" cType="1" res="-1.4326605945825577e-02" rms="3.5497924685478210e-01" purity="1.4948382973670959e-01" nType="-99"/>
          <Node pos="r" depth="2" NCoef="0" IVar="-1" Cut="0.0000000000000000e+00" cType="1" res="1.1716899462044239e-02" rms="4.8062193393707275e-01" purity="3.7519592046737671e-01" nType="-99"/>
        </Node>
        <Node pos="r" depth="1" NCoef="0" IVar="2" Cut="7.6673751831054688e+01" cType="1" res="5.8589275926351547e-02" rms="3.9827391505241394e-01" purity="6.5588086843490601e-01" nType="0">
          <Node pos="l" depth="2" NCoef="0" IVar="-1" Cut="0.0000000000000000e+00" cType="1" res="1.2362338602542877e-02" rms="4.2466995120048523e-01" purity="5.8870077133178711e-01" nType="-99"/>
          <Node pos="r" depth="2" NCoef="0" IVar="-1" Cut="0.0000000000000000e+00" cType="1" res="-2.0883856341242790e-03" rms="3.3907502889633179e-01" purity="7.6584029197692871e-01" nType="-99"/>
        </Node>
      </Node>
    </BinaryTree>
    <BinaryTree type="DecisionTree" boostWeight="1.0000000000000000e+00" itree="59">
      <Node pos="s" depth="0" NCoef="0" IVar="6" Cut="3.1039714813232422e+00" cType="1" res="-2.3862591013312340e-02" rms="4.1503578424453735e-01" purity="4.9051791429519653e-01" nType="0">
        <Node pos="l" depth="1" NCoef="0" IVar="3" Cut="3.9758530259132385e-01" cType="1" res="-1.6145942732691765e-02" rms="4.1292950510978699e-01" purity="4.9669352173805237e-01" nType="0">
          <Node pos="l" depth="2" NCoef="0" IVar="-1" Cut="0.0000000000000000e+00" cType="1" res="1.7196586355566978e-02" rms="2.9464194178581238e-01" purity="8.9921122789382935e-01" nType="-99"/>
          <Node pos="r" depth="2" NCoef="0" IVar="-1" Cut="0.0000000000000000e+00" cType="1" res="-4.6196128241717815e-03" rms="4.2743563652038574e-01" purity="4.2555749416351318e-01" nType="-99"/>
        </Node>
        <Node pos="r" depth="1" NCoef="0" IVar="-1" Cut="0.0000000000000000e+00" cType="1" res="-3.3728178590536118e-02" rms="4.0939226746559143e-01" purity="3.0017554759979248e-01" nType="-99"/>
      </Node>
    </BinaryTree>
    <BinaryTree type="DecisionTree" boostWeight="1.0000000000000000e+00" itree="60">
      <Node pos="s" depth="0" NCoef="0" IVar="9" Cut="1.5809703063964844e+02" cType="1" res="-8.9284945279359818e-03" rms="4.1553798317909241e-01" purity="5.0826102495193481e-01" nType="0">
        <Node pos="l" depth="1" NCoef="0" IVar="4" Cut="1.3838440895080566e+01" cType="1" res="-3.6964982748031616e-02" rms="4.3328550457954407e-01" purity="3.7891274690628052e-01" nType="0">
          <Node pos="l" depth="2" NCoef="0" IVar="-1" Cut="0.0000000000000000e+00" cType="1" res="3.5856667906045914e-02" rms="3.8209769129753113e-01" purity="7.2672855854034424e-01" nType="-99"/>
          <Node pos="r" depth="2" NCoef="0" IVar="-1" Cut="0.0000000000000000e+00" cType="1" res="-5.9679825790226460e-03" rms="4.3054881691932678e-01" purity="3.6700636148452759e-01" nType="-99"/>
        </Node>
        <Node pos="r" depth="1" NCoef="0" IVar="5" Cut="2.7302436828613281e+00" cType="1" res="4.5572161674499512e-02" rms="3.7267851829528809e-01" purity="7.5970357656478882e-01" nType="0">
          <Node pos="l" depth="2" NCoef="0" IVar="-1" Cut="0.0000000000000000e+00" cType="1" res="2.3552855476737022e-02" rms="3.3535128831863403e-01" purity="7.8672564029693604e-01" nType="-99"/>
          <Node pos="r" depth="2" NCoef="0" IVar="-1" Cut="0.0000000000000000e+00" cType="1" res="1.5260396758094430e-03" rms="3.7462833523750305e-01" purity="7.5208884477615356e-01" nType="-99"/>
        </Node>
      </Node>
    </BinaryTree>
    <BinaryTree type="DecisionTree" boostWeight="1.0000000000000000e+00" itree="61">
      <Node pos="s" depth="0" NCoef="0" IVar="9" Cut="1.6460278320312500e+02" cType="1" res="-1.5005750581622124e-02" rms="4.1569149494171143e-01" purity="4.9224293231964111e-01" nType="0">
        <Node pos="l" depth="1" NCoef="0" IVar="3" Cut="8.0964392423629761e-01" cType="1" res="-4.1672486811876297e-02" rms="4.3455013632774353e-01" purity="3.7678655982017517e-01" nType="0">
          <Node pos="l" depth="2" NCoef="0" IVar="-1" Cut="0.0000000000000000e+00" cType="1" res="-1.2313616462051868e-02" rms="4.4367635250091553e-01" purity="4.3355655670166016e-01" nType="-99"/>
          <Node pos="r" depth="2" NCoef="0" IVar="-1" Cut="0.0000000000000000e+00" cType="1" res="3.9037378883222118e-05" rms="4.2273950576782227e-01" purity="3.3419403433799744e-01" nType="-99"/>
        </Node>
