<?xml version="1.0"?>
<MethodSetup Method="BDT::BDTG4F07">
  <GeneralInfo>
    <Info name="TMVA Release" value="4.2.1 [262657]"/>
    <Info name="ROOT Release" value="6.14/09 [396809]"/>
    <Info name="Creator" value="sharmaa"/>
    <Info name="Date" value="Wed Dec 16 04:07:51 2020"/>
    <Info name="Host" value="Linux cmsbuild20.cern.ch 3.10.0-957.5.1.el7.x86_64 #1 SMP Fri Feb 1 14:54:57 UTC 2019 x86_64 x86_64 x86_64 GNU/Linux"/>
    <Info name="Dir" value="/afs/cern.ch/user/s/sharmaa/CMSSW_10_6_4/src/PlotsConfigurations/Configurations/EFT/WH3l/BDT_analysis/BDT_config/v7/WH3left_Full2017"/>
    <Info name="Training events" value="19843"/>
    <Info name="TrainingTime" value="6.43371511e+00"/>
    <Info name="AnalysisType" value="Classification"/>
  </GeneralInfo>
  <Options>
    <Option name="V" modified="Yes">False</Option>
    <Option name="VerbosityLevel" modified="No">Default</Option>
    <Option name="VarTransform" modified="No">None</Option>
    <Option name="H" modified="Yes">False</Option>
    <Option name="CreateMVAPdfs" modified="No">False</Option>
    <Option name="IgnoreNegWeightsInTraining" modified="No">False</Option>
    <Option name="NTrees" modified="Yes">500</Option>
    <Option name="MaxDepth" modified="Yes">2</Option>
    <Option name="MinNodeSize" modified="Yes">1.5%</Option>
    <Option name="nCuts" modified="Yes">500</Option>
    <Option name="BoostType" modified="Yes">Grad</Option>
    <Option name="AdaBoostR2Loss" modified="No">quadratic</Option>
    <Option name="UseBaggedBoost" modified="Yes">True</Option>
    <Option name="Shrinkage" modified="Yes">5.000000e-02</Option>
    <Option name="AdaBoostBeta" modified="No">5.000000e-01</Option>
    <Option name="UseRandomisedTrees" modified="No">False</Option>
    <Option name="UseNvars" modified="No">4</Option>
    <Option name="UsePoissonNvars" modified="No">True</Option>
    <Option name="BaggedSampleFraction" modified="No">7.000000e-01</Option>
    <Option name="UseYesNoLeaf" modified="No">True</Option>
    <Option name="NegWeightTreatment" modified="No">pray</Option>
    <Option name="Css" modified="No">1.000000e+00</Option>
    <Option name="Cts_sb" modified="No">1.000000e+00</Option>
    <Option name="Ctb_ss" modified="No">1.000000e+00</Option>
    <Option name="Cbb" modified="No">1.000000e+00</Option>
    <Option name="NodePurityLimit" modified="No">5.000000e-01</Option>
    <Option name="SeparationType" modified="No">giniindex</Option>
    <Option name="RegressionLossFunctionBDTG" modified="No">huber</Option>
    <Option name="HuberQuantile" modified="No">7.000000e-01</Option>
    <Option name="DoBoostMonitor" modified="No">False</Option>
    <Option name="UseFisherCuts" modified="No">False</Option>
    <Option name="MinLinCorrForFisher" modified="No">8.000000e-01</Option>
    <Option name="UseExclusiveVars" modified="No">False</Option>
    <Option name="DoPreselection" modified="No">False</Option>
    <Option name="SigToBkgFraction" modified="No">1.000000e+00</Option>
    <Option name="PruneMethod" modified="No">nopruning</Option>
    <Option name="PruneStrength" modified="No">0.000000e+00</Option>
    <Option name="PruningValFraction" modified="No">5.000000e-01</Option>
    <Option name="SkipNormalization" modified="No">False</Option>
    <Option name="nEventsMin" modified="No">0</Option>
    <Option name="UseBaggedGrad" modified="No">False</Option>
    <Option name="GradBaggingFraction" modified="Yes">7.000000e-01</Option>
    <Option name="UseNTrainEvents" modified="No">0</Option>
    <Option name="NNodesMax" modified="No">0</Option>
  </Options>
  <Variables NVar="19">
    <Variable VarIndex="0" Expression="WH3l_dphilllmet" Label="WH3l_dphilllmet" Title="WH3l_dphilllmet" Unit="" Internal="WH3l_dphilllmet" Type="F" Min="1.17247216e-02" Max="3.14158702e+00"/>
    <Variable VarIndex="1" Expression="MinIf$(WH3l_mOSll[],WH3l_mOSll[Iteration$]&gt;0)" Label="MinIf$(WH3l_mOSll[],WH3l_mOSll[Iteration$]&gt;0)" Title="MinIf$(WH3l_mOSll[],WH3l_mOSll[Iteration$]&gt;0)" Unit="" Internal="MinIf__WH3l_mOSll__,WH3l_mOSll_Iteration___0_" Type="F" Min="1.20005207e+01" Max="7.11150269e+02"/>
    <Variable VarIndex="2" Expression="MinIf$(WH3l_ptOSll[],WH3l_ptOSll[Iteration$]&gt;0)" Label="MinIf$(WH3l_ptOSll[],WH3l_ptOSll[Iteration$]&gt;0)" Title="MinIf$(WH3l_ptOSll[],WH3l_ptOSll[Iteration$]&gt;0)" Unit="" Internal="MinIf__WH3l_ptOSll__,WH3l_ptOSll_Iteration___0_" Type="F" Min="6.16709948e-01" Max="1.14792993e+03"/>
    <Variable VarIndex="3" Expression="MinIf$(WH3l_drOSll[],WH3l_drOSll[Iteration$]&gt;0)" Label="MinIf$(WH3l_drOSll[],WH3l_drOSll[Iteration$]&gt;0)" Title="MinIf$(WH3l_drOSll[],WH3l_drOSll[Iteration$]&gt;0)" Unit="" Internal="MinIf__WH3l_drOSll__,WH3l_drOSll_Iteration___0_" Type="F" Min="2.64186356e-02" Max="3.95869136e+00"/>
    <Variable VarIndex="4" Expression="WH3l_ZVeto" Label="WH3l_ZVeto" Title="WH3l_ZVeto" Unit="" Internal="WH3l_ZVeto" Type="F" Min="5.52709773e-03" Max="9.99900000e+03"/>
    <Variable VarIndex="5" Expression="WH3l_ptlll" Label="WH3l_ptlll" Title="WH3l_ptlll" Unit="" Internal="WH3l_ptlll" Type="F" Min="3.31345737e-01" Max="2.27228418e+03"/>
    <Variable VarIndex="6" Expression="WH3l_mtlmet[0]" Label="WH3l_mtlmet[0]" Title="WH3l_mtlmet[0]" Unit="" Internal="WH3l_mtlmet_0_" Type="F" Min="3.58561128e-02" Max="5.07126904e+03"/>
    <Variable VarIndex="7" Expression="WH3l_mtlmet[1]" Label="WH3l_mtlmet[1]" Title="WH3l_mtlmet[1]" Unit="" Internal="WH3l_mtlmet_1_" Type="F" Min="1.36991860e-02" Max="1.39690283e+03"/>
    <Variable VarIndex="8" Expression="WH3l_mtlmet[2]" Label="WH3l_mtlmet[2]" Title="WH3l_mtlmet[2]" Unit="" Internal="WH3l_mtlmet_2_" Type="F" Min="1.37073663e-03" Max="1.43396558e+03"/>
    <Variable VarIndex="9" Expression="WH3l_dphilmet[0]" Label="WH3l_dphilmet[0]" Title="WH3l_dphilmet[0]" Unit="" Internal="WH3l_dphilmet_0_" Type="F" Min="4.21425124e-04" Max="3.14153838e+00"/>
    <Variable VarIndex="10" Expression="WH3l_dphilmet[1]" Label="WH3l_dphilmet[1]" Title="WH3l_dphilmet[1]" Unit="" Internal="WH3l_dphilmet_1_" Type="F" Min="2.68665084e-04" Max="3.14158368e+00"/>
    <Variable VarIndex="11" Expression="WH3l_dphilmet[2]" Label="WH3l_dphilmet[2]" Title="WH3l_dphilmet[2]" Unit="" Internal="WH3l_dphilmet_2_" Type="F" Min="1.40691518e-05" Max="3.14158368e+00"/>
    <Variable VarIndex="12" Expression="WH3l_ptWWW" Label="WH3l_ptWWW" Title="WH3l_ptWWW" Unit="" Internal="WH3l_ptWWW" Type="F" Min="7.23992810e-02" Max="8.94668030e+02"/>
    <Variable VarIndex="13" Expression="WH3l_mtWWW" Label="WH3l_mtWWW" Title="WH3l_mtWWW" Unit="" Internal="WH3l_mtWWW" Type="F" Min="1.34923041e-01" Max="4.55656348e+03"/>
    <Variable VarIndex="14" Expression="WH3l_mlll" Label="WH3l_mlll" Title="WH3l_mlll" Unit="" Internal="WH3l_mlll" Type="F" Min="2.34341106e+01" Max="3.00643115e+03"/>
    <Variable VarIndex="15" Expression="PuppiMET_pt" Label="PuppiMET_pt" Title="PuppiMET_pt" Unit="" Internal="PuppiMET_pt" Type="F" Min="7.42923021e-01" Max="2.28429541e+03"/>
    <Variable VarIndex="16" Expression="Alt$(Lepton_pt[0],0)" Label="Alt$(Lepton_pt[0],0)" Title="Alt$(Lepton_pt[0],0)" Unit="" Internal="Alt__Lepton_pt_0_,0_" Type="F" Min="2.50208931e+01" Max="2.81464209e+03"/>
    <Variable VarIndex="17" Expression="Alt$(Lepton_pt[1],0)" Label="Alt$(Lepton_pt[1],0)" Title="Alt$(Lepton_pt[1],0)" Unit="" Internal="Alt__Lepton_pt_1_,0_" Type="F" Min="2.00130501e+01" Max="1.26134314e+03"/>
    <Variable VarIndex="18" Expression="Alt$(Lepton_pt[2],0)" Label="Alt$(Lepton_pt[2],0)" Title="Alt$(Lepton_pt[2],0)" Unit="" Internal="Alt__Lepton_pt_2_,0_" Type="F" Min="1.50030222e+01" Max="4.34853455e+02"/>
  </Variables>
  <Spectators NSpec="0"/>
  <Classes NClass="2">
    <Class Name="Background" Index="0"/>
    <Class Name="Signal" Index="1"/>
  </Classes>
  <Transformations NTransformations="0"/>
  <MVAPdfs/>
  <Weights NTrees="500" AnalysisType="1">
    <BinaryTree type="DecisionTree" boostWeight="1.0000000000000000e+00" itree="0">
      <Node pos="s" depth="0" NCoef="0" IVar="16" Cut="1.0529753112792969e+02" cType="1" res="-5.3954403847455978e-03" rms="4.9997088313102722e-01" purity="4.9460452795028687e-01" nType="0">
        <Node pos="l" depth="1" NCoef="0" IVar="14" Cut="1.8302667236328125e+02" cType="1" res="-1.8761533498764038e-01" rms="4.6346572041511536e-01" purity="3.1238466501235962e-01" nType="0">
          <Node pos="l" depth="2" NCoef="0" IVar="-1" Cut="0.0000000000000000e+00" cType="1" res="-2.3693343624472618e-02" rms="4.4029825925827026e-01" purity="2.6306656002998352e-01" nType="-99"/>
          <Node pos="r" depth="2" NCoef="0" IVar="-1" Cut="0.0000000000000000e+00" cType="1" res="1.9061818020418286e-03" rms="4.9963650107383728e-01" purity="5.1906180381774902e-01" nType="-99"/>
        </Node>
        <Node pos="r" depth="1" NCoef="0" IVar="14" Cut="3.4903729248046875e+02" cType="1" res="2.6703459024429321e-01" rms="4.2272037267684937e-01" purity="7.6703459024429321e-01" nType="0">
          <Node pos="l" depth="2" NCoef="0" IVar="-1" Cut="0.0000000000000000e+00" cType="1" res="1.5548128634691238e-02" rms="4.7521108388900757e-01" purity="6.5548127889633179e-01" nType="-99"/>
          <Node pos="r" depth="2" NCoef="0" IVar="-1" Cut="0.0000000000000000e+00" cType="1" res="3.9558164775371552e-02" rms="3.0580249428749084e-01" purity="8.9558160305023193e-01" nType="-99"/>
        </Node>
      </Node>
    </BinaryTree>
    <BinaryTree type="DecisionTree" boostWeight="1.0000000000000000e+00" itree="1">
      <Node pos="s" depth="0" NCoef="0" IVar="14" Cut="2.2648855590820312e+02" cType="1" res="1.9801835878752172e-04" rms="4.9393248558044434e-01" purity="4.9983340501785278e-01" nType="0">
        <Node pos="l" depth="1" NCoef="0" IVar="5" Cut="1.0154978942871094e+02" cType="1" res="-1.5950269997119904e-01" rms="4.6935120224952698e-01" purity="3.3232608437538147e-01" nType="0">
          <Node pos="l" depth="2" NCoef="0" IVar="-1" Cut="0.0000000000000000e+00" cType="1" res="-1.9869519397616386e-02" rms="4.5383408665657043e-01" purity="2.9221916198730469e-01" nType="-99"/>
          <Node pos="r" depth="2" NCoef="0" IVar="-1" Cut="0.0000000000000000e+00" cType="1" res="1.8136436119675636e-02" rms="4.6441975235939026e-01" purity="6.8192809820175171e-01" nType="-99"/>
        </Node>
        <Node pos="r" depth="1" NCoef="0" IVar="14" Cut="3.5969912719726562e+02" cType="1" res="2.7911674976348877e-01" rms="4.0371432900428772e-01" purity="7.9238641262054443e-01" nType="0">
          <Node pos="l" depth="2" NCoef="0" IVar="-1" Cut="0.0000000000000000e+00" cType="1" res="1.5905436128377914e-02" rms="4.7165274620056152e-01" purity="6.6574323177337646e-01" nType="-99"/>
          <Node pos="r" depth="2" NCoef="0" IVar="-1" Cut="0.0000000000000000e+00" cType="1" res="3.9119984954595566e-02" rms="2.8629013895988464e-01" purity="9.0994441509246826e-01" nType="-99"/>
        </Node>
      </Node>
    </BinaryTree>
    <BinaryTree type="DecisionTree" boostWeight="1.0000000000000000e+00" itree="2">
      <Node pos="s" depth="0" NCoef="0" IVar="14" Cut="2.3916192626953125e+02" cType="1" res="8.7117048678919673e-04" rms="4.8808842897415161e-01" purity="5.0070893764495850e-01" nType="0">
        <Node pos="l" depth="1" NCoef="0" IVar="6" Cut="1.7861352539062500e+02" cType="1" res="-1.4770682156085968e-01" rms="4.6923831105232239e-01" purity="3.3738729357719421e-01" nType="0">
          <Node pos="l" depth="2" NCoef="0" IVar="-1" Cut="0.0000000000000000e+00" cType="1" res="-1.9655896350741386e-02" rms="4.5024403929710388e-01" purity="2.8529798984527588e-01" nType="-99"/>
          <Node pos="r" depth="2" NCoef="0" IVar="-1" Cut="0.0000000000000000e+00" cType="1" res="1.2068717740476131e-02" rms="4.8136347532272339e-01" purity="6.2531095743179321e-01" nType="-99"/>
        </Node>
        <Node pos="r" depth="1" NCoef="0" IVar="14" Cut="3.5647396850585938e+02" cType="1" res="2.8388750553131104e-01" rms="3.8788673281669617e-01" purity="8.1180948019027710e-01" nType="0">
          <Node pos="l" depth="2" NCoef="0" IVar="-1" Cut="0.0000000000000000e+00" cType="1" res="1.7941137775778770e-02" rms="4.6082553267478943e-01" purity="6.9406658411026001e-01" nType="-99"/>
          <Node pos="r" depth="2" NCoef="0" IVar="-1" Cut="0.0000000000000000e+00" cType="1" res="3.7080507725477219e-02" rms="2.9036965966224670e-01" purity="9.0711003541946411e-01" nType="-99"/>
        </Node>
      </Node>
    </BinaryTree>
    <BinaryTree type="DecisionTree" boostWeight="1.0000000000000000e+00" itree="3">
      <Node pos="s" depth="0" NCoef="0" IVar="14" Cut="2.1694839477539062e+02" cType="1" res="-5.6189340539276600e-03" rms="4.8277449607849121e-01" purity="4.9422678351402283e-01" nType="0">
        <Node pos="l" depth="1" NCoef="0" IVar="6" Cut="1.6825866699218750e+02" cType="1" res="-1.6013011336326599e-01" rms="4.6057528257369995e-01" purity="3.1565445661544800e-01" nType="0">
          <Node pos="l" depth="2" NCoef="0" IVar="-1" Cut="0.0000000000000000e+00" cType="1" res="-2.0816190168261528e-02" rms="4.3947535753250122e-01" purity="2.6306465268135071e-01" nType="-99"/>
          <Node pos="r" depth="2" NCoef="0" IVar="-1" Cut="0.0000000000000000e+00" cType="1" res="8.7951216846704483e-03" rms="4.8837420344352722e-01" purity="5.9145504236221313e-01" nType="-99"/>
        </Node>
        <Node pos="r" depth="1" NCoef="0" IVar="14" Cut="3.8151794433593750e+02" cType="1" res="2.3747225105762482e-01" rms="4.1153961420059204e-01" purity="7.7517312765121460e-01" nType="0">
          <Node pos="l" depth="2" NCoef="0" IVar="-1" Cut="0.0000000000000000e+00" cType="1" res="1.4443921856582165e-02" rms="4.6971690654754639e-01" purity="6.6653388738632202e-01" nType="-99"/>
          <Node pos="r" depth="2" NCoef="0" IVar="-1" Cut="0.0000000000000000e+00" cType="1" res="3.6371197551488876e-02" rms="2.7686342597007751e-01" purity="9.1632896661758423e-01" nType="-99"/>
        </Node>
      </Node>
    </BinaryTree>
    <BinaryTree type="DecisionTree" boostWeight="1.0000000000000000e+00" itree="4">
      <Node pos="s" depth="0" NCoef="0" IVar="14" Cut="1.8419442749023438e+02" cType="1" res="6.1935237608850002e-03" rms="4.7861376404762268e-01" purity="5.0542908906936646e-01" nType="0">
        <Node pos="l" depth="1" NCoef="0" IVar="13" Cut="2.0229150390625000e+02" cType="1" res="-1.6437752544879913e-01" rms="4.5407095551490784e-01" purity="3.0065748095512390e-01" nType="0">
          <Node pos="l" depth="2" NCoef="0" IVar="-1" Cut="0.0000000000000000e+00" cType="1" res="-1.9975515082478523e-02" rms="4.3866014480590820e-01" purity="2.6141482591629028e-01" nType="-99"/>
          <Node pos="r" depth="2" NCoef="0" IVar="-1" Cut="0.0000000000000000e+00" cType="1" res="1.2860698625445366e-02" rms="4.7836685180664062e-01" purity="6.3816481828689575e-01" nType="-99"/>
        </Node>
        <Node pos="r" depth="1" NCoef="0" IVar="14" Cut="2.9122811889648438e+02" cType="1" res="1.9552576541900635e-01" rms="4.3166920542716980e-01" purity="7.3272365331649780e-01" nType="0">
          <Node pos="l" depth="2" NCoef="0" IVar="-1" Cut="0.0000000000000000e+00" cType="1" res="6.9659571163356304e-03" rms="4.9098953604698181e-01" purity="5.7718694210052490e-01" nType="-99"/>
          <Node pos="r" depth="2" NCoef="0" IVar="-1" Cut="0.0000000000000000e+00" cType="1" res="3.0712641775608063e-02" rms="3.3970507979393005e-01" purity="8.6401641368865967e-01" nType="-99"/>
        </Node>
      </Node>
    </BinaryTree>
    <BinaryTree type="DecisionTree" boostWeight="1.0000000000000000e+00" itree="5">
      <Node pos="s" depth="0" NCoef="0" IVar="14" Cut="2.6159753417968750e+02" cType="1" res="-6.9410013966262341e-03" rms="4.7242853045463562e-01" purity="4.9385836720466614e-01" nType="0">
        <Node pos="l" depth="1" NCoef="0" IVar="6" Cut="1.7443376159667969e+02" cType="1" res="-1.2939731776714325e-01" rms="4.6422430872917175e-01" purity="3.3965516090393066e-01" nType="0">
          <Node pos="l" depth="2" NCoef="0" IVar="-1" Cut="0.0000000000000000e+00" cType="1" res="-1.8036054447293282e-02" rms="4.4487962126731873e-01" purity="2.7956381440162659e-01" nType="-99"/>
          <Node pos="r" depth="2" NCoef="0" IVar="-1" Cut="0.0000000000000000e+00" cType="1" res="9.8877372220158577e-03" rms="4.8317721486091614e-01" purity="6.1711359024047852e-01" nType="-99"/>
        </Node>
        <Node pos="r" depth="1" NCoef="0" IVar="14" Cut="4.9720880126953125e+02" cType="1" res="2.6586154103279114e-01" rms="3.6397844552993774e-01" purity="8.3738517761230469e-01" nType="0">
          <Node pos="l" depth="2" NCoef="0" IVar="-1" Cut="0.0000000000000000e+00" cType="1" res="2.1450296044349670e-02" rms="4.1660213470458984e-01" purity="7.7241975069046021e-01" nType="-99"/>
          <Node pos="r" depth="2" NCoef="0" IVar="-1" Cut="0.0000000000000000e+00" cType="1" res="3.8234006613492966e-02" rms="1.9582441449165344e-01" purity="9.6008169651031494e-01" nType="-99"/>
        </Node>
      </Node>
    </BinaryTree>
    <BinaryTree type="DecisionTree" boostWeight="1.0000000000000000e+00" itree="6">
      <Node pos="s" depth="0" NCoef="0" IVar="14" Cut="1.9024844360351562e+02" cType="1" res="-2.1264548413455486e-03" rms="4.6993371844291687e-01" purity="4.9677899479866028e-01" nType="0">
        <Node pos="l" depth="1" NCoef="0" IVar="7" Cut="1.1896349334716797e+02" cType="1" res="-1.5946875512599945e-01" rms="4.4782432913780212e-01" purity="2.9075795412063599e-01" nType="0">
          <Node pos="l" depth="2" NCoef="0" IVar="-1" Cut="0.0000000000000000e+00" cType="1" res="-1.9411249086260796e-02" rms="4.3285766243934631e-01" purity="2.5383511185646057e-01" nType="-99"/>
          <Node pos="r" depth="2" NCoef="0" IVar="-1" Cut="0.0000000000000000e+00" cType="1" res="1.1172632686793804e-02" rms="4.7960460186004639e-01" purity="6.0245901346206665e-01" nType="-99"/>
        </Node>
        <Node pos="r" depth="1" NCoef="0" IVar="16" Cut="1.7505981445312500e+02" cType="1" res="1.7931608855724335e-01" rms="4.2751234769821167e-01" purity="7.3435646295547485e-01" nType="0">
          <Node pos="l" depth="2" NCoef="0" IVar="-1" Cut="0.0000000000000000e+00" cType="1" res="9.7227720543742180e-03" rms="4.7604516148567200e-01" purity="6.2459409236907959e-01" nType="-99"/>
          <Node pos="r" depth="2" NCoef="0" IVar="-1" Cut="0.0000000000000000e+00" cType="1" res="3.0758114531636238e-02" rms="3.1236916780471802e-01" purity="8.8899511098861694e-01" nType="-99"/>
        </Node>
      </Node>
    </BinaryTree>
    <BinaryTree type="DecisionTree" boostWeight="1.0000000000000000e+00" itree="7">
      <Node pos="s" depth="0" NCoef="0" IVar="16" Cut="9.7406272888183594e+01" cType="1" res="5.6962948292493820e-03" rms="4.6522921323776245e-01" purity="5.0520622730255127e-01" nType="0">
        <Node pos="l" depth="1" NCoef="0" IVar="14" Cut="1.2958692932128906e+02" cType="1" res="-1.4052167534828186e-01" rms="4.5313781499862671e-01" purity="3.0325981974601746e-01" nType="0">
          <Node pos="l" depth="2" NCoef="0" IVar="-1" Cut="0.0000000000000000e+00" cType="1" res="-2.1922247484326363e-02" rms="4.1179880499839783e-01" purity="2.1890115737915039e-01" nType="-99"/>
          <Node pos="r" depth="2" NCoef="0" IVar="-1" Cut="0.0000000000000000e+00" cType="1" res="-5.7540177367627621e-03" rms="4.8185315728187561e-01" purity="3.9790916442871094e-01" nType="-99"/>
        </Node>
        <Node pos="r" depth="1" NCoef="0" IVar="16" Cut="1.7339088439941406e+02" cType="1" res="1.9245325028896332e-01" rms="4.1040942072868347e-01" purity="7.6314222812652588e-01" nType="0">
          <Node pos="l" depth="2" NCoef="0" IVar="-1" Cut="0.0000000000000000e+00" cType="1" res="1.0424821637570858e-02" rms="4.7051292657852173e-01" purity="6.4236658811569214e-01" nType="-99"/>
          <Node pos="r" depth="2" NCoef="0" IVar="-1" Cut="0.0000000000000000e+00" cType="1" res="3.0808556824922562e-02" rms="2.9906037449836731e-01" purity="8.9945244789123535e-01" nType="-99"/>
        </Node>
      </Node>
    </BinaryTree>
    <BinaryTree type="DecisionTree" boostWeight="1.0000000000000000e+00" itree="8">
      <Node pos="s" depth="0" NCoef="0" IVar="14" Cut="2.4930511474609375e+02" cType="1" res="2.1917331032454967e-03" rms="4.6147814393043518e-01" purity="5.0202655792236328e-01" nType="0">
        <Node pos="l" depth="1" NCoef="0" IVar="6" Cut="1.7236038208007812e+02" cType="1" res="-1.0717080533504486e-01" rms="4.6254509687423706e-01" purity="3.4280547499656677e-01" nType="0">
          <Node pos="l" depth="2" NCoef="0" IVar="-1" Cut="0.0000000000000000e+00" cType="1" res="-1.5172502025961876e-02" rms="4.4733357429504395e-01" purity="2.8552410006523132e-01" nType="-99"/>
          <Node pos="r" depth="2" NCoef="0" IVar="-1" Cut="0.0000000000000000e+00" cType="1" res="9.0975975617766380e-03" rms="4.8222059011459351e-01" purity="6.1536508798599243e-01" nType="-99"/>
        </Node>
        <Node pos="r" depth="1" NCoef="0" IVar="16" Cut="2.2598481750488281e+02" cType="1" res="2.2515943646430969e-01" rms="3.6993661522865295e-01" purity="8.2664567232131958e-01" nType="0">
          <Node pos="l" depth="2" NCoef="0" IVar="-1" Cut="0.0000000000000000e+00" cType="1" res="1.7289891839027405e-02" rms="4.2887198925018311e-01" purity="7.4877321720123291e-01" nType="-99"/>
          <Node pos="r" depth="2" NCoef="0" IVar="-1" Cut="0.0000000000000000e+00" cType="1" res="3.3106599003076553e-02" rms="2.3936589062213898e-01" purity="9.3898421525955200e-01" nType="-99"/>
        </Node>
      </Node>
    </BinaryTree>
    <BinaryTree type="DecisionTree" boostWeight="1.0000000000000000e+00" itree="9">
      <Node pos="s" depth="0" NCoef="0" IVar="14" Cut="1.8329624938964844e+02" cType="1" res="6.8435305729508400e-03" rms="4.5763254165649414e-01" purity="5.0630986690521240e-01" nType="0">
        <Node pos="l" depth="1" NCoef="0" IVar="6" Cut="1.4541743469238281e+02" cType="1" res="-1.4132420718669891e-01" rms="4.4403174519538879e-01" purity="2.8609177470207214e-01" nType="0">
          <Node pos="l" depth="2" NCoef="0" IVar="-1" Cut="0.0000000000000000e+00" cType="1" res="-1.8691943958401680e-02" rms="4.2263120412826538e-01" purity="2.3364563286304474e-01" nType="-99"/>
          <Node pos="r" depth="2" NCoef="0" IVar="-1" Cut="0.0000000000000000e+00" cType="1" res="2.0149848423898220e-03" rms="4.8896616697311401e-01" purity="4.9646487832069397e-01" nType="-99"/>
        </Node>
        <Node pos="r" depth="1" NCoef="0" IVar="14" Cut="3.4421170043945312e+02" cType="1" res="1.6417673230171204e-01" rms="4.1759315133094788e-01" purity="7.4015039205551147e-01" nType="0">
          <Node pos="l" depth="2" NCoef="0" IVar="-1" Cut="0.0000000000000000e+00" cType="1" res="9.0409917756915092e-03" rms="4.7568702697753906e-01" purity="6.2005025148391724e-01" nType="-99"/>
          <Node pos="r" depth="2" NCoef="0" IVar="-1" Cut="0.0000000000000000e+00" cType="1" res="2.9076881706714630e-02" rms="2.8967496752738953e-01" purity="9.0657120943069458e-01" nType="-99"/>
        </Node>
      </Node>
    </BinaryTree>
    <BinaryTree type="DecisionTree" boostWeight="1.0000000000000000e+00" itree="10">
      <Node pos="s" depth="0" NCoef="0" IVar="16" Cut="1.1411059570312500e+02" cType="1" res="6.7800716497004032e-03" rms="4.5609366893768311e-01" purity="5.0567436218261719e-01" nType="0">
        <Node pos="l" depth="1" NCoef="0" IVar="14" Cut="1.2768200683593750e+02" cType="1" res="-9.7185060381889343e-02" rms="4.6007910370826721e-01" purity="3.3932533860206604e-01" nType="0">
          <Node pos="l" depth="2" NCoef="0" IVar="-1" Cut="0.0000000000000000e+00" cType="1" res="-1.9569803029298782e-02" rms="4.1142806410789490e-01" purity="2.2052709758281708e-01" nType="-99"/>
          <Node pos="r" depth="2" NCoef="0" IVar="-1" Cut="0.0000000000000000e+00" cType="1" res="-2.4848137982189655e-03" rms="4.8308631777763367e-01" purity="4.3369117379188538e-01" nType="-99"/>
        </Node>
        <Node pos="r" depth="1" NCoef="0" IVar="6" Cut="3.1382473754882812e+02" cType="1" res="1.9450145959854126e-01" rms="3.8297867774963379e-01" purity="8.0603718757629395e-01" nType="0">
          <Node pos="l" depth="2" NCoef="0" IVar="-1" Cut="0.0000000000000000e+00" cType="1" res="1.4104485511779785e-02" rms="4.3170145153999329e-01" purity="7.3210024833679199e-01" nType="-99"/>
          <Node pos="r" depth="2" NCoef="0" IVar="-1" Cut="0.0000000000000000e+00" cType="1" res="3.2043494284152985e-02" rms="2.5329446792602539e-01" purity="9.2953819036483765e-01" nType="-99"/>
        </Node>
      </Node>
    </BinaryTree>
    <BinaryTree type="DecisionTree" boostWeight="1.0000000000000000e+00" itree="11">
      <Node pos="s" depth="0" NCoef="0" IVar="16" Cut="1.0195853424072266e+02" cType="1" res="-4.4531184248626232e-03" rms="4.5282435417175293e-01" purity="4.9456614255905151e-01" nType="0">
        <Node pos="l" depth="1" NCoef="0" IVar="14" Cut="1.8742021179199219e+02" cType="1" res="-1.1617449671030045e-01" rms="4.4946238398551941e-01" purity="3.0708792805671692e-01" nType="0">
          <Node pos="l" depth="2" NCoef="0" IVar="-1" Cut="0.0000000000000000e+00" cType="1" res="-1.5146181918680668e-02" rms="4.3453183770179749e-01" purity="2.6269561052322388e-01" nType="-99"/>
          <Node pos="r" depth="2" NCoef="0" IVar="-1" Cut="0.0000000000000000e+00" cType="1" res="3.0596212018281221e-03" rms="4.9101105332374573e-01" purity="5.2544999122619629e-01" nType="-99"/>
        </Node>
        <Node pos="r" depth="1" NCoef="0" IVar="16" Cut="1.8203764343261719e+02" cType="1" res="1.5710744261741638e-01" rms="4.0655261278152466e-01" purity="7.6567876338958740e-01" nType="0">
          <Node pos="l" depth="2" NCoef="0" IVar="-1" Cut="0.0000000000000000e+00" cType="1" res="8.5323881357908249e-03" rms="4.6813905239105225e-01" purity="6.5076774358749390e-01" nType="-99"/>
          <Node pos="r" depth="2" NCoef="0" IVar="-1" Cut="0.0000000000000000e+00" cType="1" res="2.7278145775198936e-02" rms="2.9527923464775085e-01" purity="9.0193611383438110e-01" nType="-99"/>
        </Node>
      </Node>
    </BinaryTree>
    <BinaryTree type="DecisionTree" boostWeight="1.0000000000000000e+00" itree="12">
      <Node pos="s" depth="0" NCoef="0" IVar="14" Cut="1.7824034118652344e+02" cType="1" res="7.3845540173351765e-03" rms="4.5195412635803223e-01" purity="5.0566464662551880e-01" nType="0">
        <Node pos="l" depth="1" NCoef="0" IVar="7" Cut="1.1311727142333984e+02" cType="1" res="-1.1684355884790421e-01" rms="4.4526413083076477e-01" purity="2.9034817218780518e-01" nType="0">
          <Node pos="l" depth="2" NCoef="0" IVar="-1" Cut="0.0000000000000000e+00" cType="1" res="-1.4935671351850033e-02" rms="4.3315833806991577e-01" purity="2.5680807232856750e-01" nType="-99"/>
          <Node pos="r" depth="2" NCoef="0" IVar="-1" Cut="0.0000000000000000e+00" cType="1" res="7.5166490860283375e-03" rms="4.8469039797782898e-01" purity="5.3588777780532837e-01" nType="-99"/>
        </Node>
        <Node pos="r" depth="1" NCoef="0" IVar="14" Cut="2.8552749633789062e+02" cType="1" res="1.3110011816024780e-01" rms="4.2375186085700989e-01" purity="7.2009271383285522e-01" nType="0">
          <Node pos="l" depth="2" NCoef="0" IVar="-1" Cut="0.0000000000000000e+00" cType="1" res="4.4753751717507839e-03" rms="4.8840355873107910e-01" purity="5.6103318929672241e-01" nType="-99"/>
          <Node pos="r" depth="2" NCoef="0" IVar="-1" Cut="0.0000000000000000e+00" cType="1" res="2.3473834618926048e-02" rms="3.3507877588272095e-01" purity="8.6578524112701416e-01" nType="-99"/>
        </Node>
      </Node>
    </BinaryTree>
    <BinaryTree type="DecisionTree" boostWeight="1.0000000000000000e+00" itree="13">
      <Node pos="s" depth="0" NCoef="0" IVar="14" Cut="2.3353533935546875e+02" cType="1" res="9.4172526150941849e-03" rms="4.4796475768089294e-01" purity="5.1091080904006958e-01" nType="0">
        <Node pos="l" depth="1" NCoef="0" IVar="5" Cut="9.3740501403808594e+01" cType="1" res="-8.4386624395847321e-02" rms="4.5812493562698364e-01" purity="3.3901539444923401e-01" nType="0">
          <Node pos="l" depth="2" NCoef="0" IVar="-1" Cut="0.0000000000000000e+00" cType="1" res="-1.2281676754355431e-02" rms="4.4678252935409546e-01" purity="2.8977110981941223e-01" nType="-99"/>
          <Node pos="r" depth="2" NCoef="0" IVar="-1" Cut="0.0000000000000000e+00" cType="1" res="1.0672306641936302e-02" rms="4.7538849711418152e-01" purity="6.1869281530380249e-01" nType="-99"/>
        </Node>
        <Node pos="r" depth="1" NCoef="0" IVar="14" Cut="4.6347134399414062e+02" cType="1" res="1.7502690851688385e-01" rms="3.7610891461372375e-01" purity="8.1439024209976196e-01" nType="0">
          <Node pos="l" depth="2" NCoef="0" IVar="-1" Cut="0.0000000000000000e+00" cType="1" res="1.3963398523628712e-02" rms="4.3157553672790527e-01" purity="7.4188548326492310e-01" nType="-99"/>
          <Node pos="r" depth="2" NCoef="0" IVar="-1" Cut="0.0000000000000000e+00" cType="1" res="3.0174117535352707e-02" rms="2.1813637018203735e-01" purity="9.4992542266845703e-01" nType="-99"/>
        </Node>
      </Node>
    </BinaryTree>
    <BinaryTree type="DecisionTree" boostWeight="1.0000000000000000e+00" itree="14">
      <Node pos="s" depth="0" NCoef="0" IVar="14" Cut="1.8232516479492188e+02" cType="1" res="2.8686302248388529e-03" rms="4.4759243726730347e-01" purity="5.0278997421264648e-01" nType="0">
        <Node pos="l" depth="1" NCoef="0" IVar="6" Cut="1.4505535888671875e+02" cType="1" res="-1.0743978619575500e-01" rms="4.4157391786575317e-01" purity="2.9336044192314148e-01" nType="0">
          <Node pos="l" depth="2" NCoef="0" IVar="-1" Cut="0.0000000000000000e+00" cType="1" res="-1.6339400783181190e-02" rms="4.1764029860496521e-01" purity="2.2652402520179749e-01" nType="-99"/>
          <Node pos="r" depth="2" NCoef="0" IVar="-1" Cut="0.0000000000000000e+00" cType="1" res="5.9060147032141685e-03" rms="4.8267731070518494e-01" purity="5.3063094615936279e-01" nType="-99"/>
        </Node>
        <Node pos="r" depth="1" NCoef="0" IVar="14" Cut="2.9590158081054688e+02" cType="1" res="1.1854347586631775e-01" rms="4.2404037714004517e-01" purity="7.2240817546844482e-01" nType="0">
          <Node pos="l" depth="2" NCoef="0" IVar="-1" Cut="0.0000000000000000e+00" cType="1" res="4.4936924241483212e-03" rms="4.8782199621200562e-01" purity="5.7439446449279785e-01" nType="-99"/>
          <Node pos="r" depth="2" NCoef="0" IVar="-1" Cut="0.0000000000000000e+00" cType="1" res="2.1827824413776398e-02" rms="3.3655378222465515e-01" purity="8.6508911848068237e-01" nType="-99"/>
        </Node>
      </Node>
    </BinaryTree>
    <BinaryTree type="DecisionTree" boostWeight="1.0000000000000000e+00" itree="15">
      <Node pos="s" depth="0" NCoef="0" IVar="14" Cut="2.6235211181640625e+02" cType="1" res="-3.4774849191308022e-03" rms="4.4284939765930176e-01" purity="4.9669668078422546e-01" nType="0">
        <Node pos="l" depth="1" NCoef="0" IVar="7" Cut="1.2154267883300781e+02" cType="1" res="-7.8260198235511780e-02" rms="4.5595619082450867e-01" purity="3.4746375679969788e-01" nType="0">
          <Node pos="l" depth="2" NCoef="0" IVar="-1" Cut="0.0000000000000000e+00" cType="1" res="-1.1040802113711834e-02" rms="4.4770640134811401e-01" purity="3.0968081951141357e-01" nType="-99"/>
          <Node pos="r" depth="2" NCoef="0" IVar="-1" Cut="0.0000000000000000e+00" cType="1" res="1.3433789834380150e-02" rms="4.6524977684020996e-01" purity="6.4311653375625610e-01" nType="-99"/>
        </Node>
        <Node pos="r" depth="1" NCoef="0" IVar="14" Cut="5.2012445068359375e+02" cType="1" res="1.6886493563652039e-01" rms="3.5549470782279968e-01" purity="8.4061521291732788e-01" nType="0">
          <Node pos="l" depth="2" NCoef="0" IVar="-1" Cut="0.0000000000000000e+00" cType="1" res="1.4282808639109135e-02" rms="4.1038510203361511e-01" purity="7.7771729230880737e-01" nType="-99"/>
          <Node pos="r" depth="2" NCoef="0" IVar="-1" Cut="0.0000000000000000e+00" cType="1" res="3.0571635812520981e-02" rms="1.8367478251457214e-01" purity="9.6521127223968506e-01" nType="-99"/>
        </Node>
      </Node>
    </BinaryTree>
    <BinaryTree type="DecisionTree" boostWeight="1.0000000000000000e+00" itree="16">
      <Node pos="s" depth="0" NCoef="0" IVar="16" Cut="1.1413246154785156e+02" cType="1" res="2.2116182371973991e-03" rms="4.4280448555946350e-01" purity="5.0251388549804688e-01" nType="0">
        <Node pos="l" depth="1" NCoef="0" IVar="14" Cut="1.7966682434082031e+02" cType="1" res="-7.7278196811676025e-02" rms="4.5339050889015198e-01" purity="3.3519008755683899e-01" nType="0">
          <Node pos="l" depth="2" NCoef="0" IVar="-1" Cut="0.0000000000000000e+00" cType="1" res="-1.2104570865631104e-02" rms="4.3604633212089539e-01" purity="2.6931324601173401e-01" nType="-99"/>
          <Node pos="r" depth="2" NCoef="0" IVar="-1" Cut="0.0000000000000000e+00" cType="1" res="3.7178774364292622e-03" rms="4.8667192459106445e-01" purity="5.4173952341079712e-01" nType="-99"/>
        </Node>
        <Node pos="r" depth="1" NCoef="0" IVar="5" Cut="9.6247451782226562e+01" cType="1" res="1.4342077076435089e-01" rms="3.8478270173072815e-01" purity="7.9975521564483643e-01" nType="0">
          <Node pos="l" depth="2" NCoef="0" IVar="-1" Cut="0.0000000000000000e+00" cType="1" res="8.5296155884861946e-03" rms="4.3251904845237732e-01" purity="7.2001576423645020e-01" nType="-99"/>
          <Node pos="r" depth="2" NCoef="0" IVar="-1" Cut="0.0000000000000000e+00" cType="1" res="2.3150540888309479e-02" rms="3.2688021659851074e-01" purity="8.6915630102157593e-01" nType="-99"/>
        </Node>
      </Node>
    </BinaryTree>
    <BinaryTree type="DecisionTree" boostWeight="1.0000000000000000e+00" itree="17">
      <Node pos="s" depth="0" NCoef="0" IVar="14" Cut="2.0811007690429688e+02" cType="1" res="-3.6960118450224400e-03" rms="4.3849927186965942e-01" purity="4.9687618017196655e-01" nType="0">
        <Node pos="l" depth="1" NCoef="0" IVar="5" Cut="1.0488565063476562e+02" cType="1" res="-9.8093882203102112e-02" rms="4.4194054603576660e-01" purity="2.9853612184524536e-01" nType="0">
          <Node pos="l" depth="2" NCoef="0" IVar="-1" Cut="0.0000000000000000e+00" cType="1" res="-1.2778979726135731e-02" rms="4.3425902724266052e-01" purity="2.6282292604446411e-01" nType="-99"/>
          <Node pos="r" depth="2" NCoef="0" IVar="-1" Cut="0.0000000000000000e+00" cType="1" res="1.3717785477638245e-02" rms="4.5652562379837036e-01" purity="6.8176102638244629e-01" nType="-99"/>
        </Node>
        <Node pos="r" depth="1" NCoef="0" IVar="5" Cut="1.3861869812011719e+02" cType="1" res="1.2712028622627258e-01" rms="3.9827278256416321e-01" purity="7.7173531055450439e-01" nType="0">
          <Node pos="l" depth="2" NCoef="0" IVar="-1" Cut="0.0000000000000000e+00" cType="1" res="1.0211441665887833e-02" rms="4.3305751681327820e-01" purity="7.1650731563568115e-01" nType="-99"/>
          <Node pos="r" depth="2" NCoef="0" IVar="-1" Cut="0.0000000000000000e+00" cType="1" res="2.7287274599075317e-02" rms="2.5155985355377197e-01" purity="9.2952829599380493e-01" nType="-99"/>
        </Node>
      </Node>
    </BinaryTree>
    <BinaryTree type="DecisionTree" boostWeight="1.0000000000000000e+00" itree="18">
      <Node pos="s" depth="0" NCoef="0" IVar="16" Cut="9.8145927429199219e+01" cType="1" res="8.0429548397660255e-03" rms="4.3792599439620972e-01" purity="5.0814145803451538e-01" nType="0">
        <Node pos="l" depth="1" NCoef="0" IVar="14" Cut="1.3542196655273438e+02" cType="1" res="-7.8990459442138672e-02" rms="4.4659158587455750e-01" purity="3.0865833163261414e-01" nType="0">
          <Node pos="l" depth="2" NCoef="0" IVar="-1" Cut="0.0000000000000000e+00" cType="1" res="-1.4778658747673035e-02" rms="4.1177302598953247e-01" purity="2.2534263134002686e-01" nType="-99"/>
          <Node pos="r" depth="2" NCoef="0" IVar="-1" Cut="0.0000000000000000e+00" cType="1" res="-4.5906979357823730e-04" rms="4.7845259308815002e-01" purity="4.1814061999320984e-01" nType="-99"/>
        </Node>
        <Node pos="r" depth="1" NCoef="0" IVar="6" Cut="2.4857106018066406e+02" cType="1" res="1.2098224461078644e-01" rms="3.9905893802642822e-01" purity="7.6700174808502197e-01" nType="0">
          <Node pos="l" depth="2" NCoef="0" IVar="-1" Cut="0.0000000000000000e+00" cType="1" res="6.9891070015728474e-03" rms="4.4936305284500122e-01" purity="6.7334938049316406e-01" nType="-99"/>
          <Node pos="r" depth="2" NCoef="0" IVar="-1" Cut="0.0000000000000000e+00" cType="1" res="2.3225253447890282e-02" rms="3.0782353878021240e-01" purity="8.8776415586471558e-01" nType="-99"/>
        </Node>
      </Node>
    </BinaryTree>
    <BinaryTree type="DecisionTree" boostWeight="1.0000000000000000e+00" itree="19">
      <Node pos="s" depth="0" NCoef="0" IVar="16" Cut="8.4380027770996094e+01" cType="1" res="-2.5846317876130342e-03" rms="4.3491846323013306e-01" purity="5.0088059902191162e-01" nType="0">
        <Node pos="l" depth="1" NCoef="0" IVar="14" Cut="1.3598886108398438e+02" cType="1" res="-1.0721533745527267e-01" rms="4.2903789877891541e-01" purity="2.6464882493019104e-01" nType="0">
          <Node pos="l" depth="2" NCoef="0" IVar="-1" Cut="0.0000000000000000e+00" cType="1" res="-1.6342004761099815e-02" rms="3.9773291349411011e-01" purity="2.0288556814193726e-01" nType="-99"/>
          <Node pos="r" depth="2" NCoef="0" IVar="-1" Cut="0.0000000000000000e+00" cType="1" res="-3.3958198036998510e-03" rms="4.7150570154190063e-01" purity="3.7672722339630127e-01" nType="-99"/>
        </Node>
        <Node pos="r" depth="1" NCoef="0" IVar="6" Cut="2.1308818054199219e+02" cType="1" res="9.3333624303340912e-02" rms="4.1782209277153015e-01" purity="7.1744173765182495e-01" nType="0">
          <Node pos="l" depth="2" NCoef="0" IVar="-1" Cut="0.0000000000000000e+00" cType="1" res="3.5332858096808195e-03" rms="4.6225878596305847e-01" purity="6.0380387306213379e-01" nType="-99"/>
          <Node pos="r" depth="2" NCoef="0" IVar="-1" Cut="0.0000000000000000e+00" cType="1" res="1.9256079569458961e-02" rms="3.4808802604675293e-01" purity="8.4681826829910278e-01" nType="-99"/>
        </Node>
      </Node>
    </BinaryTree>
    <BinaryTree type="DecisionTree" boostWeight="1.0000000000000000e+00" itree="20">
      <Node pos="s" depth="0" NCoef="0" IVar="14" Cut="2.8329614257812500e+02" cType="1" res="-7.4303476139903069e-03" rms="4.3315646052360535e-01" purity="4.9230703711509705e-01" nType="0">
        <Node pos="l" depth="1" NCoef="0" IVar="5" Cut="1.0179126739501953e+02" cType="1" res="-6.6510684788227081e-02" rms="4.5077702403068542e-01" purity="3.5375675559043884e-01" nType="0">
          <Node pos="l" depth="2" NCoef="0" IVar="-1" Cut="0.0000000000000000e+00" cType="1" res="-9.7902370616793633e-03" rms="4.4531679153442383e-01" purity="3.0591943860054016e-01" nType="-99"/>
          <Node pos="r" depth="2" NCoef="0" IVar="-1" Cut="0.0000000000000000e+00" cType="1" res="1.1188877746462822e-02" rms="4.5097360014915466e-01" purity="6.9053876399993896e-01" nType="-99"/>
        </Node>
        <Node pos="r" depth="1" NCoef="0" IVar="14" Cut="4.5886923217773438e+02" cType="1" res="1.5156795084476471e-01" rms="3.3321684598922729e-01" purity="8.6517673730850220e-01" nType="0">
          <Node pos="l" depth="2" NCoef="0" IVar="-1" Cut="0.0000000000000000e+00" cType="1" res="1.3023845851421356e-02" rms="4.0090665221214294e-01" purity="7.9420822858810425e-01" nType="-99"/>
          <Node pos="r" depth="2" NCoef="0" IVar="-1" Cut="0.0000000000000000e+00" cType="1" res="2.6746731251478195e-02" rms="2.1655401587486267e-01" purity="9.5081663131713867e-01" nType="-99"/>
        </Node>
      </Node>
    </BinaryTree>
    <BinaryTree type="DecisionTree" boostWeight="1.0000000000000000e+00" itree="21">
      <Node pos="s" depth="0" NCoef="0" IVar="14" Cut="2.8339205932617188e+02" cType="1" res="-8.0444442573934793e-04" rms="4.3287503719329834e-01" purity="4.9864831566810608e-01" nType="0">
        <Node pos="l" depth="1" NCoef="0" IVar="5" Cut="1.0165793609619141e+02" cType="1" res="-5.6187596172094345e-02" rms="4.5336222648620605e-01" purity="3.6222785711288452e-01" nType="0">
          <Node pos="l" depth="2" NCoef="0" IVar="-1" Cut="0.0000000000000000e+00" cType="1" res="-8.9731458574533463e-03" rms="4.4861912727355957e-01" purity="3.0934789776802063e-01" nType="-99"/>
          <Node pos="r" depth="2" NCoef="0" IVar="-1" Cut="0.0000000000000000e+00" cType="1" res="1.2881676666438580e-02" rms="4.4401487708091736e-01" purity="7.1118140220642090e-01" nType="-99"/>
        </Node>
        <Node pos="r" depth="1" NCoef="0" IVar="6" Cut="5.1897510528564453e+01" cType="1" res="1.5093597769737244e-01" rms="3.2589268684387207e-01" purity="8.7241709232330322e-01" nType="0">
          <Node pos="l" depth="2" NCoef="0" IVar="-1" Cut="0.0000000000000000e+00" cType="1" res="1.9598049111664295e-03" rms="4.4012942910194397e-01" purity="7.1261072158813477e-01" nType="-99"/>
          <Node pos="r" depth="2" NCoef="0" IVar="-1" Cut="0.0000000000000000e+00" cType="1" res="2.0487545058131218e-02" rms="3.1225430965423584e-01" purity="8.8540565967559814e-01" nType="-99"/>
        </Node>
      </Node>
    </BinaryTree>
    <BinaryTree type="DecisionTree" boostWeight="1.0000000000000000e+00" itree="22">
      <Node pos="s" depth="0" NCoef="0" IVar="14" Cut="1.7824034118652344e+02" cType="1" res="1.2370258336886764e-03" rms="4.3356570601463318e-01" purity="5.0228881835937500e-01" nType="0">
        <Node pos="l" depth="1" NCoef="0" IVar="5" Cut="8.9621925354003906e+01" cType="1" res="-8.8697008788585663e-02" rms="4.3256568908691406e-01" purity="2.7544391155242920e-01" nType="0">
          <Node pos="l" depth="2" NCoef="0" IVar="-1" Cut="0.0000000000000000e+00" cType="1" res="-1.2763085775077343e-02" rms="4.1675579547882080e-01" purity="2.2700649499893188e-01" nType="-99"/>
          <Node pos="r" depth="2" NCoef="0" IVar="-1" Cut="0.0000000000000000e+00" cType="1" res="5.1898960955440998e-03" rms="4.8612436652183533e-01" purity="5.3503942489624023e-01" nType="-99"/>
        </Node>
        <Node pos="r" depth="1" NCoef="0" IVar="5" Cut="6.9046989440917969e+01" cType="1" res="8.8845655322074890e-02" rms="4.1625559329986572e-01" purity="7.2326827049255371e-01" nType="0">
          <Node pos="l" depth="2" NCoef="0" IVar="-1" Cut="0.0000000000000000e+00" cType="1" res="2.7835047803819180e-03" rms="4.6504202485084534e-01" purity="6.0196930170059204e-01" nType="-99"/>
          <Node pos="r" depth="2" NCoef="0" IVar="-1" Cut="0.0000000000000000e+00" cType="1" res="1.7015563324093819e-02" rms="3.6316615343093872e-01" purity="8.2306641340255737e-01" nType="-99"/>
        </Node>
      </Node>
    </BinaryTree>
    <BinaryTree type="DecisionTree" boostWeight="1.0000000000000000e+00" itree="23">
      <Node pos="s" depth="0" NCoef="0" IVar="16" Cut="1.3640470886230469e+02" cType="1" res="4.0725492872297764e-03" rms="4.3174019455909729e-01" purity="5.0410306453704834e-01" nType="0">
        <Node pos="l" depth="1" NCoef="0" IVar="14" Cut="1.3137364196777344e+02" cType="1" res="-4.6467524021863937e-02" rms="4.5302024483680725e-01" purity="3.6214664578437805e-01" nType="0">
          <Node pos="l" depth="2" NCoef="0" IVar="-1" Cut="0.0000000000000000e+00" cType="1" res="-1.2542950920760632e-02" rms="4.1057434678077698e-01" purity="2.2543106973171234e-01" nType="-99"/>
          <Node pos="r" depth="2" NCoef="0" IVar="-1" Cut="0.0000000000000000e+00" cType="1" res="3.2174462103284895e-04" rms="4.7717943787574768e-01" purity="4.6702617406845093e-01" nType="-99"/>
        </Node>
        <Node pos="r" depth="1" NCoef="0" IVar="5" Cut="1.8008648681640625e+02" cType="1" res="1.2665307521820068e-01" rms="3.4570702910423279e-01" purity="8.4840601682662964e-01" nType="0">
          <Node pos="l" depth="2" NCoef="0" IVar="-1" Cut="0.0000000000000000e+00" cType="1" res="1.2200792320072651e-02" rms="3.8102486729621887e-01" purity="8.0821871757507324e-01" nType="-99"/>
          <Node pos="r" depth="2" NCoef="0" IVar="-1" Cut="0.0000000000000000e+00" cType="1" res="2.6955546811223030e-02" rms="2.1670435369014740e-01" purity="9.5094722509384155e-01" nType="-99"/>
        </Node>
      </Node>
    </BinaryTree>
    <BinaryTree type="DecisionTree" boostWeight="1.0000000000000000e+00" itree="24">
      <Node pos="s" depth="0" NCoef="0" IVar="14" Cut="1.7824034118652344e+02" cType="1" res="3.1365191098302603e-03" rms="4.3136307597160339e-01" purity="5.0131922960281372e-01" nType="0">
        <Node pos="l" depth="1" NCoef="0" IVar="14" Cut="1.0499669647216797e+02" cType="1" res="-7.3730960488319397e-02" rms="4.3551036715507507e-01" purity="2.7990505099296570e-01" nType="0">
          <Node pos="l" depth="2" NCoef="0" IVar="-1" Cut="0.0000000000000000e+00" cType="1" res="-1.6359154134988785e-02" rms="3.8257533311843872e-01" purity="1.8407070636749268e-01" nType="-99"/>
          <Node pos="r" depth="2" NCoef="0" IVar="-1" Cut="0.0000000000000000e+00" cType="1" res="-3.9330115541815758e-03" rms="4.5754942297935486e-01" purity="3.3252099156379700e-01" nType="-99"/>
        </Node>
        <Node pos="r" depth="1" NCoef="0" IVar="6" Cut="2.2689523315429688e+02" cType="1" res="8.0219127237796783e-02" rms="4.1303989291191101e-01" purity="7.2335308790206909e-01" nType="0">
          <Node pos="l" depth="2" NCoef="0" IVar="-1" Cut="0.0000000000000000e+00" cType="1" res="3.7850427906960249e-03" rms="4.6210500597953796e-01" purity="6.1697852611541748e-01" nType="-99"/>
          <Node pos="r" depth="2" NCoef="0" IVar="-1" Cut="0.0000000000000000e+00" cType="1" res="1.9323732703924179e-02" rms="3.1471443176269531e-01" purity="8.8170927762985229e-01" nType="-99"/>
        </Node>
      </Node>
    </BinaryTree>
    <BinaryTree type="DecisionTree" boostWeight="1.0000000000000000e+00" itree="25">
      <Node pos="s" depth="0" NCoef="0" IVar="14" Cut="2.0801077270507812e+02" cType="1" res="-4.4780173338949680e-03" rms="4.2980828881263733e-01" purity="4.9342951178550720e-01" nType="0">
        <Node pos="l" depth="1" NCoef="0" IVar="5" Cut="9.0404464721679688e+01" cType="1" res="-6.5613985061645508e-02" rms="4.4098597764968872e-01" purity="3.0430302023887634e-01" nType="0">
          <Node pos="l" depth="2" NCoef="0" IVar="-1" Cut="0.0000000000000000e+00" cType="1" res="-9.6516069024801254e-03" rms="4.3131798505783081e-01" purity="2.5792163610458374e-01" nType="-99"/>
          <Node pos="r" depth="2" NCoef="0" IVar="-1" Cut="0.0000000000000000e+00" cType="1" res="4.8244632780551910e-03" rms="4.7466999292373657e-01" purity="5.5497479438781738e-01" nType="-99"/>
        </Node>
        <Node pos="r" depth="1" NCoef="0" IVar="14" Cut="5.3199597167968750e+02" cType="1" res="8.5304155945777893e-02" rms="3.9609488844871521e-01" purity="7.7117413282394409e-01" nType="0">
          <Node pos="l" depth="2" NCoef="0" IVar="-1" Cut="0.0000000000000000e+00" cType="1" res="6.7086936905980110e-03" rms="4.3583416938781738e-01" purity="7.1385991573333740e-01" nType="-99"/>
          <Node pos="r" depth="2" NCoef="0" IVar="-1" Cut="0.0000000000000000e+00" cType="1" res="2.6348507031798363e-02" rms="1.8805760145187378e-01" purity="9.6338242292404175e-01" nType="-99"/>
        </Node>
      </Node>
    </BinaryTree>
    <BinaryTree type="DecisionTree" boostWeight="1.0000000000000000e+00" itree="26">
      <Node pos="s" depth="0" NCoef="0" IVar="6" Cut="1.7216471862792969e+02" cType="1" res="7.7332435175776482e-03" rms="4.2871555685997009e-01" purity="5.0867402553558350e-01" nType="0">
        <Node pos="l" depth="1" NCoef="0" IVar="14" Cut="2.3192556762695312e+02" cType="1" res="-4.1911765933036804e-02" rms="4.4163644313812256e-01" purity="3.6786493659019470e-01" nType="0">
          <Node pos="l" depth="2" NCoef="0" IVar="-1" Cut="0.0000000000000000e+00" cType="1" res="-8.0055715516209602e-03" rms="4.3969228863716125e-01" purity="2.7530914545059204e-01" nType="-99"/>
          <Node pos="r" depth="2" NCoef="0" IVar="-1" Cut="0.0000000000000000e+00" cType="1" res="8.6265727877616882e-03" rms="4.2960575222969055e-01" purity="7.3422408103942871e-01" nType="-99"/>
        </Node>
        <Node pos="r" depth="1" NCoef="0" IVar="7" Cut="1.0897587585449219e+02" cType="1" res="1.0786826908588409e-01" rms="3.8225114345550537e-01" purity="7.9268884658813477e-01" nType="0">
          <Node pos="l" depth="2" NCoef="0" IVar="-1" Cut="0.0000000000000000e+00" cType="1" res="1.1078000999987125e-02" rms="3.8541254401206970e-01" purity="7.8189414739608765e-01" nType="-99"/>
          <Node pos="r" depth="2" NCoef="0" IVar="-1" Cut="0.0000000000000000e+00" cType="1" res="1.8903203308582306e-02" rms="3.6834102869033813e-01" purity="8.2214730978012085e-01" nType="-99"/>
        </Node>
      </Node>
    </BinaryTree>
    <BinaryTree type="DecisionTree" boostWeight="1.0000000000000000e+00" itree="27">
      <Node pos="s" depth="0" NCoef="0" IVar="14" Cut="1.7824034118652344e+02" cType="1" res="-1.7163552111014724e-03" rms="4.3076610565185547e-01" purity="4.9563506245613098e-01" nType="0">
        <Node pos="l" depth="1" NCoef="0" IVar="16" Cut="9.4836738586425781e+01" cType="1" res="-6.9624409079551697e-02" rms="4.3217942118644714e-01" purity="2.7558305859565735e-01" nType="0">
          <Node pos="l" depth="2" NCoef="0" IVar="-1" Cut="0.0000000000000000e+00" cType="1" res="-9.5956819131970406e-03" rms="4.2417725920677185e-01" purity="2.4404454231262207e-01" nType="-99"/>
          <Node pos="r" depth="2" NCoef="0" IVar="-1" Cut="0.0000000000000000e+00" cType="1" res="8.3963563665747643e-03" rms="4.8392355442047119e-01" purity="6.0673624277114868e-01" nType="-99"/>
        </Node>
        <Node pos="r" depth="1" NCoef="0" IVar="11" Cut="1.7870852947235107e+00" cType="1" res="6.5404854714870453e-02" rms="4.1867724061012268e-01" purity="7.1313744783401489e-01" nType="0">
          <Node pos="l" depth="2" NCoef="0" IVar="-1" Cut="0.0000000000000000e+00" cType="1" res="1.3057546690106392e-02" rms="3.8842228055000305e-01" purity="7.7639365196228027e-01" nType="-99"/>
          <Node pos="r" depth="2" NCoef="0" IVar="-1" Cut="0.0000000000000000e+00" cType="1" res="1.1767642572522163e-03" rms="4.4971281290054321e-01" purity="6.2949436902999878e-01" nType="-99"/>
        </Node>
      </Node>
    </BinaryTree>
    <BinaryTree type="DecisionTree" boostWeight="1.0000000000000000e+00" itree="28">
      <Node pos="s" depth="0" NCoef="0" IVar="14" Cut="1.7746958923339844e+02" cType="1" res="7.9544577747583389e-03" rms="4.3033272027969360e-01" purity="5.0755709409713745e-01" nType="0">
        <Node pos="l" depth="1" NCoef="0" IVar="7" Cut="1.2035413360595703e+02" cType="1" res="-5.2992127835750580e-02" rms="4.3737700581550598e-01" purity="2.8929382562637329e-01" nType="0">
          <Node pos="l" depth="2" NCoef="0" IVar="-1" Cut="0.0000000000000000e+00" cType="1" res="-8.3589656278491020e-03" rms="4.2909222841262817e-01" purity="2.5366330146789551e-01" nType="-99"/>
          <Node pos="r" depth="2" NCoef="0" IVar="-1" Cut="0.0000000000000000e+00" cType="1" res="1.3710398226976395e-02" rms="4.7043508291244507e-01" purity="6.2267297506332397e-01" nType="-99"/>
        </Node>
        <Node pos="r" depth="1" NCoef="0" IVar="14" Cut="4.3088403320312500e+02" cType="1" res="6.7419297993183136e-02" rms="4.1480380296707153e-01" purity="7.2051382064819336e-01" nType="0">
          <Node pos="l" depth="2" NCoef="0" IVar="-1" Cut="0.0000000000000000e+00" cType="1" res="4.2073074728250504e-03" rms="4.6122375130653381e-01" purity="6.3764238357543945e-01" nType="-99"/>
          <Node pos="r" depth="2" NCoef="0" IVar="-1" Cut="0.0000000000000000e+00" cType="1" res="2.2028177976608276e-02" rms="2.4030676484107971e-01" purity="9.3702745437622070e-01" nType="-99"/>
        </Node>
      </Node>
    </BinaryTree>
    <BinaryTree type="DecisionTree" boostWeight="1.0000000000000000e+00" itree="29">
      <Node pos="s" depth="0" NCoef="0" IVar="14" Cut="2.8541387939453125e+02" cType="1" res="4.3179877102375031e-03" rms="4.2726260423660278e-01" purity="5.0660592317581177e-01" nType="0">
        <Node pos="l" depth="1" NCoef="0" IVar="13" Cut="2.2913589477539062e+02" cType="1" res="-3.4469835460186005e-02" rms="4.5197671651840210e-01" purity="3.7306684255599976e-01" nType="0">
          <Node pos="l" depth="2" NCoef="0" IVar="-1" Cut="0.0000000000000000e+00" cType="1" res="-5.6549711152911186e-03" rms="4.5273646712303162e-01" purity="3.3080857992172241e-01" nType="-99"/>
          <Node pos="r" depth="2" NCoef="0" IVar="-1" Cut="0.0000000000000000e+00" cType="1" res="1.3096946291625500e-02" rms="4.1511359810829163e-01" purity="7.6576250791549683e-01" nType="-99"/>
        </Node>
        <Node pos="r" depth="1" NCoef="0" IVar="3" Cut="1.0125862360000610e+00" cType="1" res="1.0939847677946091e-01" rms="3.2949608564376831e-01" purity="8.6837792396545410e-01" nType="0">
          <Node pos="l" depth="2" NCoef="0" IVar="-1" Cut="0.0000000000000000e+00" cType="1" res="1.3791408389806747e-02" rms="3.3515891432762146e-01" purity="8.6117786169052124e-01" nType="-99"/>
          <Node pos="r" depth="2" NCoef="0" IVar="-1" Cut="0.0000000000000000e+00" cType="1" res="2.7392920106649399e-02" rms="2.4451805651187897e-01" purity="9.3709266185760498e-01" nType="-99"/>
        </Node>
      </Node>
    </BinaryTree>
    <BinaryTree type="DecisionTree" boostWeight="1.0000000000000000e+00" itree="30">
      <Node pos="s" depth="0" NCoef="0" IVar="6" Cut="1.3162474060058594e+02" cType="1" res="2.3689742665737867e-03" rms="4.2590621113777161e-01" purity="5.0044274330139160e-01" nType="0">
        <Node pos="l" depth="1" NCoef="0" IVar="14" Cut="1.2725273895263672e+02" cType="1" res="-5.7588092982769012e-02" rms="4.3347135186195374e-01" purity="3.2877230644226074e-01" nType="0">
          <Node pos="l" depth="2" NCoef="0" IVar="-1" Cut="0.0000000000000000e+00" cType="1" res="-1.3229114003479481e-02" rms="3.8768824934959412e-01" purity="1.8452706933021545e-01" nType="-99"/>
          <Node pos="r" depth="2" NCoef="0" IVar="-1" Cut="0.0000000000000000e+00" cType="1" res="-1.7268105875700712e-03" rms="4.6277818083763123e-01" purity="4.4478818774223328e-01" nType="-99"/>
        </Node>
        <Node pos="r" depth="1" NCoef="0" IVar="11" Cut="8.9670956134796143e-01" cType="1" res="6.8557880818843842e-02" rms="4.0727087855339050e-01" purity="6.8995636701583862e-01" nType="0">
          <Node pos="l" depth="2" NCoef="0" IVar="-1" Cut="0.0000000000000000e+00" cType="1" res="1.5772758051753044e-02" rms="3.5644513368606567e-01" purity="8.1342172622680664e-01" nType="-99"/>
          <Node pos="r" depth="2" NCoef="0" IVar="-1" Cut="0.0000000000000000e+00" cType="1" res="3.0931585934013128e-03" rms="4.3942841887474060e-01" purity="5.9089452028274536e-01" nType="-99"/>
        </Node>
      </Node>
    </BinaryTree>
    <BinaryTree type="DecisionTree" boostWeight="1.0000000000000000e+00" itree="31">
      <Node pos="s" depth="0" NCoef="0" IVar="14" Cut="1.7778741455078125e+02" cType="1" res="-1.6025794902816415e-03" rms="4.2584988474845886e-01" purity="4.9766877293586731e-01" nType="0">
        <Node pos="l" depth="1" NCoef="0" IVar="13" Cut="1.5885148620605469e+02" cType="1" res="-6.2807612121105194e-02" rms="4.2962300777435303e-01" purity="2.7078905701637268e-01" nType="0">
          <Node pos="l" depth="2" NCoef="0" IVar="-1" Cut="0.0000000000000000e+00" cType="1" res="-1.0252598673105240e-02" rms="4.1096603870391846e-01" purity="2.1900266408920288e-01" nType="-99"/>
          <Node pos="r" depth="2" NCoef="0" IVar="-1" Cut="0.0000000000000000e+00" cType="1" res="1.9783021416515112e-03" rms="4.7849854826927185e-01" purity="4.4541317224502563e-01" nType="-99"/>
        </Node>
        <Node pos="r" depth="1" NCoef="0" IVar="14" Cut="4.9506713867187500e+02" cType="1" res="5.8918483555316925e-02" rms="4.1326671838760376e-01" purity="7.2201311588287354e-01" nType="0">
          <Node pos="l" depth="2" NCoef="0" IVar="-1" Cut="0.0000000000000000e+00" cType="1" res="4.0350453928112984e-03" rms="4.5230203866958618e-01" purity="6.5649783611297607e-01" nType="-99"/>
          <Node pos="r" depth="2" NCoef="0" IVar="-1" Cut="0.0000000000000000e+00" cType="1" res="2.3794198408722878e-02" rms="2.0033350586891174e-01" purity="9.5768624544143677e-01" nType="-99"/>
        </Node>
      </Node>
    </BinaryTree>
    <BinaryTree type="DecisionTree" boostWeight="1.0000000000000000e+00" itree="32">
      <Node pos="s" depth="0" NCoef="0" IVar="14" Cut="1.5452520751953125e+02" cType="1" res="2.7037847321480513e-03" rms="4.2861205339431763e-01" purity="5.0405377149581909e-01" nType="0">
        <Node pos="l" depth="1" NCoef="0" IVar="9" Cut="2.5414898395538330e+00" cType="1" res="-5.9980314224958420e-02" rms="4.2673015594482422e-01" purity="2.6095259189605713e-01" nType="0">
          <Node pos="l" depth="2" NCoef="0" IVar="-1" Cut="0.0000000000000000e+00" cType="1" res="-1.3167297467589378e-02" rms="3.9125934243202209e-01" purity="1.8973642587661743e-01" nType="-99"/>
          <Node pos="r" depth="2" NCoef="0" IVar="-1" Cut="0.0000000000000000e+00" cType="1" res="-2.1924211177974939e-03" rms="4.4958657026290894e-01" purity="3.1932756304740906e-01" nType="-99"/>
        </Node>
        <Node pos="r" depth="1" NCoef="0" IVar="11" Cut="1.6180887222290039e+00" cType="1" res="4.6343933790922165e-02" rms="4.2448663711547852e-01" purity="6.7329877614974976e-01" nType="0">
          <Node pos="l" depth="2" NCoef="0" IVar="-1" Cut="0.0000000000000000e+00" cType="1" res="1.1329664848744869e-02" rms="3.9346680045127869e-01" purity="7.5656789541244507e-01" nType="-99"/>
          <Node pos="r" depth="2" NCoef="0" IVar="-1" Cut="0.0000000000000000e+00" cType="1" res="-5.3310519433580339e-05" rms="4.5079931616783142e-01" purity="5.8383387327194214e-01" nType="-99"/>
        </Node>
      </Node>
    </BinaryTree>
    <BinaryTree type="DecisionTree" boostWeight="1.0000000000000000e+00" itree="33">
      <Node pos="s" depth="0" NCoef="0" IVar="5" Cut="9.5562904357910156e+01" cType="1" res="-3.5239455755800009e-03" rms="4.2880544066429138e-01" purity="4.9495548009872437e-01" nType="0">
        <Node pos="l" depth="1" NCoef="0" IVar="14" Cut="1.0205707550048828e+02" cType="1" res="-3.3711660653352737e-02" rms="4.4232496619224548e-01" purity="3.9706623554229736e-01" nType="0">
          <Node pos="l" depth="2" NCoef="0" IVar="-1" Cut="0.0000000000000000e+00" cType="1" res="-1.4667956158518791e-02" rms="3.7014079093933105e-01" purity="1.6461683809757233e-01" nType="-99"/>
          <Node pos="r" depth="2" NCoef="0" IVar="-1" Cut="0.0000000000000000e+00" cType="1" res="-1.4955910155549645e-03" rms="4.5568209886550903e-01" purity="4.5328882336616516e-01" nType="-99"/>
        </Node>
        <Node pos="r" depth="1" NCoef="0" IVar="5" Cut="1.5206201171875000e+02" cType="1" res="8.9855074882507324e-02" rms="3.6865323781967163e-01" purity="7.9775428771972656e-01" nType="0">
          <Node pos="l" depth="2" NCoef="0" IVar="-1" Cut="0.0000000000000000e+00" cType="1" res="6.5987622365355492e-03" rms="4.2768472433090210e-01" purity="7.0246273279190063e-01" nType="-99"/>
          <Node pos="r" depth="2" NCoef="0" IVar="-1" Cut="0.0000000000000000e+00" cType="1" res="2.0823610946536064e-02" rms="2.6497226953506470e-01" purity="9.2335319519042969e-01" nType="-99"/>
        </Node>
      </Node>
    </BinaryTree>
    <BinaryTree type="DecisionTree" boostWeight="1.0000000000000000e+00" itree="34">
      <Node pos="s" depth="0" NCoef="0" IVar="14" Cut="2.8601623535156250e+02" cType="1" res="-2.3933458141982555e-03" rms="4.2342808842658997e-01" purity="4.9817663431167603e-01" nType="0">
        <Node pos="l" depth="1" NCoef="0" IVar="15" Cut="1.0692780303955078e+02" cType="1" res="-3.6367021501064301e-02" rms="4.4726553559303284e-01" purity="3.6410227417945862e-01" nType="0">
          <Node pos="l" depth="2" NCoef="0" IVar="-1" Cut="0.0000000000000000e+00" cType="1" res="-6.1810943298041821e-03" rms="4.4605609774589539e-01" purity="3.1202632188796997e-01" nType="-99"/>
          <Node pos="r" depth="2" NCoef="0" IVar="-1" Cut="0.0000000000000000e+00" cType="1" res="8.8567854836583138e-03" rms="4.3769904971122742e-01" purity="6.9919854402542114e-01" nType="-99"/>
        </Node>
        <Node pos="r" depth="1" NCoef="0" IVar="17" Cut="7.9660324096679688e+01" cType="1" res="9.1023482382297516e-02" rms="3.3214589953422546e-01" purity="8.6683851480484009e-01" nType="0">
          <Node pos="l" depth="2" NCoef="0" IVar="-1" Cut="0.0000000000000000e+00" cType="1" res="2.0504850894212723e-02" rms="2.9815921187400818e-01" purity="8.9793229103088379e-01" nType="-99"/>
          <Node pos="r" depth="2" NCoef="0" IVar="-1" Cut="0.0000000000000000e+00" cType="1" res="1.1082055978477001e-02" rms="3.3909520506858826e-01" purity="8.5805863142013550e-01" nType="-99"/>
        </Node>
      </Node>
    </BinaryTree>
    <BinaryTree type="DecisionTree" boostWeight="1.0000000000000000e+00" itree="35">
      <Node pos="s" depth="0" NCoef="0" IVar="14" Cut="2.8339205932617188e+02" cType="1" res="2.5691736955195665e-03" rms="4.2328968644142151e-01" purity="5.0410461425781250e-01" nType="0">
        <Node pos="l" depth="1" NCoef="0" IVar="5" Cut="8.0198722839355469e+01" cType="1" res="-2.8602516278624535e-02" rms="4.4891491532325745e-01" purity="3.6934220790863037e-01" nType="0">
          <Node pos="l" depth="2" NCoef="0" IVar="-1" Cut="0.0000000000000000e+00" cType="1" res="-6.2564066611230373e-03" rms="4.4078409671783447e-01" purity="2.9905393719673157e-01" nType="-99"/>
          <Node pos="r" depth="2" NCoef="0" IVar="-1" Cut="0.0000000000000000e+00" cType="1" res="4.8925741575658321e-03" rms="4.6335792541503906e-01" purity="5.6713086366653442e-01" nType="-99"/>
        </Node>
        <Node pos="r" depth="1" NCoef="0" IVar="11" Cut="1.9609307050704956e+00" cType="1" res="8.6029559373855591e-02" rms="3.3130785822868347e-01" purity="8.6492317914962769e-01" nType="0">
          <Node pos="l" depth="2" NCoef="0" IVar="-1" Cut="0.0000000000000000e+00" cType="1" res="1.7082843929529190e-02" rms="2.8954377770423889e-01" purity="9.0108954906463623e-01" nType="-99"/>
          <Node pos="r" depth="2" NCoef="0" IVar="-1" Cut="0.0000000000000000e+00" cType="1" res="4.8625171184539795e-03" rms="3.9797243475914001e-01" purity="7.9170495271682739e-01" nType="-99"/>
        </Node>
      </Node>
    </BinaryTree>
    <BinaryTree type="DecisionTree" boostWeight="1.0000000000000000e+00" itree="36">
      <Node pos="s" depth="0" NCoef="0" IVar="14" Cut="1.7824034118652344e+02" cType="1" res="7.9858966637402773e-04" rms="4.2280578613281250e-01" purity="5.0671678781509399e-01" nType="0">
        <Node pos="l" depth="1" NCoef="0" IVar="7" Cut="1.0206897735595703e+02" cType="1" res="-5.0818715244531631e-02" rms="4.2805010080337524e-01" purity="2.7431696653366089e-01" nType="0">
          <Node pos="l" depth="2" NCoef="0" IVar="-1" Cut="0.0000000000000000e+00" cType="1" res="-8.6482083424925804e-03" rms="4.1371002793312073e-01" purity="2.3233748972415924e-01" nType="-99"/>
          <Node pos="r" depth="2" NCoef="0" IVar="-1" Cut="0.0000000000000000e+00" cType="1" res="4.8626838251948357e-03" rms="4.7577238082885742e-01" purity="4.6234568953514099e-01" nType="-99"/>
        </Node>
        <Node pos="r" depth="1" NCoef="0" IVar="14" Cut="5.1697369384765625e+02" cType="1" res="4.9559287726879120e-02" rms="4.1189202666282654e-01" purity="7.2625511884689331e-01" nType="0">
          <Node pos="l" depth="2" NCoef="0" IVar="-1" Cut="0.0000000000000000e+00" cType="1" res="3.6547996569424868e-03" rms="4.4832509756088257e-01" purity="6.6676777601242065e-01" nType="-99"/>
          <Node pos="r" depth="2" NCoef="0" IVar="-1" Cut="0.0000000000000000e+00" cType="1" res="2.1647272631525993e-02" rms="2.0939910411834717e-01" purity="9.5342147350311279e-01" nType="-99"/>
        </Node>
      </Node>
    </BinaryTree>
    <BinaryTree type="DecisionTree" boostWeight="1.0000000000000000e+00" itree="37">
      <Node pos="s" depth="0" NCoef="0" IVar="14" Cut="1.9024844360351562e+02" cType="1" res="7.9433165956288576e-04" rms="4.2072609066963196e-01" purity="4.9766552448272705e-01" nType="0">
        <Node pos="l" depth="1" NCoef="0" IVar="6" Cut="1.4364843750000000e+02" cType="1" res="-4.6621937304735184e-02" rms="4.3072146177291870e-01" purity="2.8698351979255676e-01" nType="0">
          <Node pos="l" depth="2" NCoef="0" IVar="-1" Cut="0.0000000000000000e+00" cType="1" res="-8.5825249552726746e-03" rms="4.1309311985969543e-01" purity="2.2263503074645996e-01" nType="-99"/>
          <Node pos="r" depth="2" NCoef="0" IVar="-1" Cut="0.0000000000000000e+00" cType="1" res="3.8575078360736370e-03" rms="4.7709727287292480e-01" purity="5.0718086957931519e-01" nType="-99"/>
        </Node>
        <Node pos="r" depth="1" NCoef="0" IVar="17" Cut="5.4773426055908203e+01" cType="1" res="5.7516749948263168e-02" rms="4.0115159749984741e-01" purity="7.4969696998596191e-01" nType="0">
          <Node pos="l" depth="2" NCoef="0" IVar="-1" Cut="0.0000000000000000e+00" cType="1" res="1.5184993855655193e-02" rms="4.2341828346252441e-01" purity="7.4032419919967651e-01" nType="-99"/>
          <Node pos="r" depth="2" NCoef="0" IVar="-1" Cut="0.0000000000000000e+00" cType="1" res="5.3694746457040310e-03" rms="3.9416155219078064e-01" purity="7.5170850753784180e-01" nType="-99"/>
        </Node>
      </Node>
    </BinaryTree>
    <BinaryTree type="DecisionTree" boostWeight="1.0000000000000000e+00" itree="38">
      <Node pos="s" depth="0" NCoef="0" IVar="14" Cut="3.4295892333984375e+02" cType="1" res="2.0235921256244183e-03" rms="4.2523717880249023e-01" purity="4.9860674142837524e-01" nType="0">
        <Node pos="l" depth="1" NCoef="0" IVar="6" Cut="1.1907824707031250e+02" cType="1" res="-1.9794080406427383e-02" rms="4.4926553964614868e-01" purity="4.0040388703346252e-01" nType="0">
          <Node pos="l" depth="2" NCoef="0" IVar="-1" Cut="0.0000000000000000e+00" cType="1" res="-6.2257465906441212e-03" rms="4.3479418754577637e-01" purity="2.8379687666893005e-01" nType="-99"/>
          <Node pos="r" depth="2" NCoef="0" IVar="-1" Cut="0.0000000000000000e+00" cType="1" res="1.9488778198137879e-03" rms="4.6239787340164185e-01" purity="5.3309893608093262e-01" nType="-99"/>
        </Node>
        <Node pos="r" depth="1" NCoef="0" IVar="14" Cut="6.9406494140625000e+02" cType="1" res="9.2001236975193024e-02" rms="2.9001554846763611e-01" purity="9.0360230207443237e-01" nType="0">
          <Node pos="l" depth="2" NCoef="0" IVar="-1" Cut="0.0000000000000000e+00" cType="1" res="1.1717018671333790e-02" rms="3.2883235812187195e-01" purity="8.7392055988311768e-01" nType="-99"/>
          <Node pos="r" depth="2" NCoef="0" IVar="-1" Cut="0.0000000000000000e+00" cType="1" res="2.7018584311008453e-02" rms="1.1942646652460098e-01" purity="9.8573994636535645e-01" nType="-99"/>
        </Node>
      </Node>
    </BinaryTree>
    <BinaryTree type="DecisionTree" boostWeight="1.0000000000000000e+00" itree="39">
      <Node pos="s" depth="0" NCoef="0" IVar="6" Cut="1.3188546752929688e+02" cType="1" res="1.8629181431606412e-03" rms="4.1994297504425049e-01" purity="5.0457209348678589e-01" nType="0">
        <Node pos="l" depth="1" NCoef="0" IVar="14" Cut="3.3900067138671875e+02" cType="1" res="-4.5736428350210190e-02" rms="4.2345619201660156e-01" purity="3.3023443818092346e-01" nType="0">
          <Node pos="l" depth="2" NCoef="0" IVar="-1" Cut="0.0000000000000000e+00" cType="1" res="-7.2566829621791840e-03" rms="4.2909765243530273e-01" purity="2.7468696236610413e-01" nType="-99"/>
          <Node pos="r" depth="2" NCoef="0" IVar="-1" Cut="0.0000000000000000e+00" cType="1" res="1.5162010677158833e-02" rms="3.2635241746902466e-01" purity="8.7605166435241699e-01" nType="-99"/>
        </Node>
        <Node pos="r" depth="1" NCoef="0" IVar="11" Cut="1.3359833955764771e+00" cType="1" res="5.4141517728567123e-02" rms="4.0972712635993958e-01" purity="6.9604808092117310e-01" nType="0">
          <Node pos="l" depth="2" NCoef="0" IVar="-1" Cut="0.0000000000000000e+00" cType="1" res="1.1898517608642578e-02" rms="3.7935498356819153e-01" purity="7.8184884786605835e-01" nType="-99"/>
          <Node pos="r" depth="2" NCoef="0" IVar="-1" Cut="0.0000000000000000e+00" cType="1" res="1.5723321121186018e-03" rms="4.3979018926620483e-01" purity="5.9357231855392456e-01" nType="-99"/>
        </Node>
      </Node>
    </BinaryTree>
    <BinaryTree type="DecisionTree" boostWeight="1.0000000000000000e+00" itree="40">
      <Node pos="s" depth="0" NCoef="0" IVar="11" Cut="1.1664453744888306e+00" cType="1" res="2.8291926719248295e-03" rms="4.2790091037750244e-01" purity="5.0059950351715088e-01" nType="0">
        <Node pos="l" depth="1" NCoef="0" IVar="15" Cut="3.6191268920898438e+01" cType="1" res="5.7335808873176575e-02" rms="4.0794610977172852e-01" purity="6.5191370248794556e-01" nType="0">
          <Node pos="l" depth="2" NCoef="0" IVar="-1" Cut="0.0000000000000000e+00" cType="1" res="-3.4639430232346058e-03" rms="4.3886017799377441e-01" purity="3.9289247989654541e-01" nType="-99"/>
          <Node pos="r" depth="2" NCoef="0" IVar="-1" Cut="0.0000000000000000e+00" cType="1" res="1.0188356041908264e-02" rms="3.9886713027954102e-01" purity="7.0597702264785767e-01" nType="-99"/>
        </Node>
        <Node pos="r" depth="1" NCoef="0" IVar="14" Cut="4.3110372924804688e+02" cType="1" res="-2.6126736775040627e-02" rms="4.3536540865898132e-01" purity="4.2021584510803223e-01" nType="0">
          <Node pos="l" depth="2" NCoef="0" IVar="-1" Cut="0.0000000000000000e+00" cType="1" res="-4.2021558620035648e-03" rms="4.4421431422233582e-01" purity="3.7664663791656494e-01" nType="-99"/>
          <Node pos="r" depth="2" NCoef="0" IVar="-1" Cut="0.0000000000000000e+00" cType="1" res="1.3516827486455441e-02" rms="3.0324354767799377e-01" purity="8.9704245328903198e-01" nType="-99"/>
        </Node>
      </Node>
    </BinaryTree>
    <BinaryTree type="DecisionTree" boostWeight="1.0000000000000000e+00" itree="41">
      <Node pos="s" depth="0" NCoef="0" IVar="14" Cut="1.2753514862060547e+02" cType="1" res="4.9124546349048615e-03" rms="4.2443117499351501e-01" purity="5.0518745183944702e-01" nType="0">
        <Node pos="l" depth="1" NCoef="0" IVar="9" Cut="2.8407220840454102e+00" cType="1" res="-6.6128239035606384e-02" rms="4.0292829275131226e-01" purity="2.2043186426162720e-01" nType="0">
          <Node pos="l" depth="2" NCoef="0" IVar="-1" Cut="0.0000000000000000e+00" cType="1" res="-1.1728092096745968e-02" rms="3.8100883364677429e-01" purity="1.7926533520221710e-01" nType="-99"/>
          <Node pos="r" depth="2" NCoef="0" IVar="-1" Cut="0.0000000000000000e+00" cType="1" res="-1.5214176382869482e-03" rms="4.4021189212799072e-01" purity="3.0592924356460571e-01" nType="-99"/>
        </Node>
        <Node pos="r" depth="1" NCoef="0" IVar="13" Cut="3.6408578491210938e+02" cType="1" res="3.2902814447879791e-02" rms="4.2939433455467224e-01" purity="6.1738246679306030e-01" nType="0">
          <Node pos="l" depth="2" NCoef="0" IVar="-1" Cut="0.0000000000000000e+00" cType="1" res="2.5466850493103266e-03" rms="4.4685748219490051e-01" purity="5.7749795913696289e-01" nType="-99"/>
          <Node pos="r" depth="2" NCoef="0" IVar="-1" Cut="0.0000000000000000e+00" cType="1" res="2.2759815678000450e-02" rms="2.1253886818885803e-01" purity="9.5275253057479858e-01" nType="-99"/>
        </Node>
      </Node>
    </BinaryTree>
    <BinaryTree type="DecisionTree" boostWeight="1.0000000000000000e+00" itree="42">
      <Node pos="s" depth="0" NCoef="0" IVar="14" Cut="2.8541387939453125e+02" cType="1" res="3.8730042433599010e-05" rms="4.2283365130424500e-01" purity="5.0342136621475220e-01" nType="0">
        <Node pos="l" depth="1" NCoef="0" IVar="7" Cut="1.4366397094726562e+02" cType="1" res="-2.3229910060763359e-02" rms="4.4809967279434204e-01" purity="3.7090146541595459e-01" nType="0">
          <Node pos="l" depth="2" NCoef="0" IVar="-1" Cut="0.0000000000000000e+00" cType="1" res="-3.8073668256402016e-03" rms="4.4860351085662842e-01" purity="3.4257435798645020e-01" nType="-99"/>
          <Node pos="r" depth="2" NCoef="0" IVar="-1" Cut="0.0000000000000000e+00" cType="1" res="1.1602620594203472e-02" rms="4.2179411649703979e-01" purity="7.4419599771499634e-01" nType="-99"/>
        </Node>
        <Node pos="r" depth="1" NCoef="0" IVar="14" Cut="4.9727661132812500e+02" cType="1" res="6.2561310827732086e-02" rms="3.3807870745658875e-01" purity="8.5950082540512085e-01" nType="0">
          <Node pos="l" depth="2" NCoef="0" IVar="-1" Cut="0.0000000000000000e+00" cType="1" res="4.7720368020236492e-03" rms="4.0042731165885925e-01" purity="7.9576945304870605e-01" nType="-99"/>
          <Node pos="r" depth="2" NCoef="0" IVar="-1" Cut="0.0000000000000000e+00" cType="1" res="2.1124087274074554e-02" rms="2.0044283568859100e-01" purity="9.5770078897476196e-01" nType="-99"/>
        </Node>
      </Node>
    </BinaryTree>
    <BinaryTree type="DecisionTree" boostWeight="1.0000000000000000e+00" itree="43">
      <Node pos="s" depth="0" NCoef="0" IVar="14" Cut="1.7768746948242188e+02" cType="1" res="-9.2514315620064735e-03" rms="4.1928151249885559e-01" purity="4.9329766631126404e-01" nType="0">
        <Node pos="l" depth="1" NCoef="0" IVar="7" Cut="9.5867576599121094e+01" cType="1" res="-5.2352275699377060e-02" rms="4.2083448171615601e-01" purity="2.6175728440284729e-01" nType="0">
          <Node pos="l" depth="2" NCoef="0" IVar="-1" Cut="0.0000000000000000e+00" cType="1" res="-8.9456839486956596e-03" rms="4.0446892380714417e-01" purity="2.1849314868450165e-01" nType="-99"/>
          <Node pos="r" depth="2" NCoef="0" IVar="-1" Cut="0.0000000000000000e+00" cType="1" res="1.7335510347038507e-03" rms="4.6606889367103577e-01" purity="4.0917927026748657e-01" nType="-99"/>
        </Node>
        <Node pos="r" depth="1" NCoef="0" IVar="11" Cut="1.0673481225967407e+00" cType="1" res="3.1748577952384949e-02" rms="4.1365173459053040e-01" purity="7.1355223655700684e-01" nType="0">
          <Node pos="l" depth="2" NCoef="0" IVar="-1" Cut="0.0000000000000000e+00" cType="1" res="1.1078463867306709e-02" rms="3.6038872599601746e-01" purity="8.1772857904434204e-01" nType="-99"/>
          <Node pos="r" depth="2" NCoef="0" IVar="-1" Cut="0.0000000000000000e+00" cType="1" res="4.0397757402388379e-05" rms="4.4459220767021179e-01" purity="6.4040797948837280e-01" nType="-99"/>
        </Node>
      </Node>
    </BinaryTree>
    <BinaryTree type="DecisionTree" boostWeight="1.0000000000000000e+00" itree="44">
      <Node pos="s" depth="0" NCoef="0" IVar="14" Cut="1.0606983947753906e+02" cType="1" res="-2.0319176837801933e-03" rms="4.2351129651069641e-01" purity="4.9429544806480408e-01" nType="0">
        <Node pos="l" depth="1" NCoef="0" IVar="14" Cut="8.5436576843261719e+01" cType="1" res="-8.7839126586914062e-02" rms="3.7953647971153259e-01" purity="1.8073369562625885e-01" nType="0">
          <Node pos="l" depth="2" NCoef="0" IVar="-1" Cut="0.0000000000000000e+00" cType="1" res="-1.7219986766576767e-02" rms="3.3883401751518250e-01" purity="1.3095027208328247e-01" nType="-99"/>
          <Node pos="r" depth="2" NCoef="0" IVar="-1" Cut="0.0000000000000000e+00" cType="1" res="-6.6220401786267757e-03" rms="4.0608808398246765e-01" purity="2.2129662334918976e-01" nType="-99"/>
        </Node>
        <Node pos="r" depth="1" NCoef="0" IVar="11" Cut="1.1476346254348755e+00" cType="1" res="1.7413893714547157e-02" rms="4.3048575520515442e-01" purity="5.6535547971725464e-01" nType="0">
          <Node pos="l" depth="2" NCoef="0" IVar="-1" Cut="0.0000000000000000e+00" cType="1" res="8.0279801040887833e-03" rms="4.0352970361709595e-01" purity="6.9095408916473389e-01" nType="-99"/>
          <Node pos="r" depth="2" NCoef="0" IVar="-1" Cut="0.0000000000000000e+00" cType="1" res="-1.0753762908279896e-03" rms="4.4451874494552612e-01" purity="4.8666667938232422e-01" nType="-99"/>
        </Node>
      </Node>
    </BinaryTree>
    <BinaryTree type="DecisionTree" boostWeight="1.0000000000000000e+00" itree="45">
      <Node pos="s" depth="0" NCoef="0" IVar="14" Cut="1.1869948577880859e+02" cType="1" res="4.3414435349404812e-03" rms="4.1649767756462097e-01" purity="5.0815159082412720e-01" nType="0">
        <Node pos="l" depth="1" NCoef="0" IVar="12" Cut="1.9391393661499023e+01" cType="1" res="-6.7939385771751404e-02" rms="3.9482694864273071e-01" purity="2.0373542606830597e-01" nType="0">
          <Node pos="l" depth="2" NCoef="0" IVar="-1" Cut="0.0000000000000000e+00" cType="1" res="-5.1337326876819134e-03" rms="4.1233032941818237e-01" purity="2.2986313700675964e-01" nType="-99"/>
          <Node pos="r" depth="2" NCoef="0" IVar="-1" Cut="0.0000000000000000e+00" cType="1" res="-1.3326606713235378e-02" rms="3.6861687898635864e-01" purity="1.7093873023986816e-01" nType="-99"/>
        </Node>
        <Node pos="r" depth="1" NCoef="0" IVar="5" Cut="8.6522842407226562e+01" cType="1" res="2.7481717988848686e-02" rms="4.2058414220809937e-01" purity="6.0560858249664307e-01" nType="0">
          <Node pos="l" depth="2" NCoef="0" IVar="-1" Cut="0.0000000000000000e+00" cType="1" res="2.9278045985847712e-04" rms="4.4790896773338318e-01" purity="4.8998618125915527e-01" nType="-99"/>
          <Node pos="r" depth="2" NCoef="0" IVar="-1" Cut="0.0000000000000000e+00" cType="1" res="1.0283132083714008e-02" rms="3.6359363794326782e-01" purity="8.0861687660217285e-01" nType="-99"/>
        </Node>
      </Node>
    </BinaryTree>
    <BinaryTree type="DecisionTree" boostWeight="1.0000000000000000e+00" itree="46">
      <Node pos="s" depth="0" NCoef="0" IVar="6" Cut="1.2159919738769531e+02" cType="1" res="2.4729291908442974e-03" rms="4.2189496755599976e-01" purity="5.0400978326797485e-01" nType="0">
        <Node pos="l" depth="1" NCoef="0" IVar="15" Cut="7.9038475036621094e+01" cType="1" res="-3.4342747181653976e-02" rms="4.3173313140869141e-01" purity="3.2868209481239319e-01" nType="0">
          <Node pos="l" depth="2" NCoef="0" IVar="-1" Cut="0.0000000000000000e+00" cType="1" res="-5.1199011504650116e-03" rms="4.2943978309631348e-01" purity="3.1481719017028809e-01" nType="-99"/>
          <Node pos="r" depth="2" NCoef="0" IVar="-1" Cut="0.0000000000000000e+00" cType="1" res="8.0649228766560555e-03" rms="4.4993022084236145e-01" purity="5.0933331251144409e-01" nType="-99"/>
        </Node>
        <Node pos="r" depth="1" NCoef="0" IVar="14" Cut="1.2320388031005859e+02" cType="1" res="3.5827551037073135e-02" rms="4.0993443131446838e-01" purity="6.6285490989685059e-01" nType="0">
          <Node pos="l" depth="2" NCoef="0" IVar="-1" Cut="0.0000000000000000e+00" cType="1" res="-5.3511527366936207e-03" rms="4.3985658884048462e-01" purity="2.9981881380081177e-01" nType="-99"/>
          <Node pos="r" depth="2" NCoef="0" IVar="-1" Cut="0.0000000000000000e+00" cType="1" res="6.4658741466701031e-03" rms="4.0358442068099976e-01" purity="7.1943056583404541e-01" nType="-99"/>
        </Node>
      </Node>
    </BinaryTree>
    <BinaryTree type="DecisionTree" boostWeight="1.0000000000000000e+00" itree="47">
      <Node pos="s" depth="0" NCoef="0" IVar="14" Cut="1.1752902221679688e+02" cType="1" res="4.8380997031927109e-03" rms="4.2283269762992859e-01" purity="5.0509715080261230e-01" nType="0">
        <Node pos="l" depth="1" NCoef="0" IVar="5" Cut="9.5169837951660156e+01" cType="1" res="-5.8017674833536148e-02" rms="3.9548739790916443e-01" purity="2.0974786579608917e-01" nType="0">
          <Node pos="l" depth="2" NCoef="0" IVar="-1" Cut="0.0000000000000000e+00" cType="1" res="-9.5386318862438202e-03" rms="3.8259163498878479e-01" purity="1.7902407050132751e-01" nType="-99"/>
          <Node pos="r" depth="2" NCoef="0" IVar="-1" Cut="0.0000000000000000e+00" cType="1" res="7.7743162401020527e-03" rms="4.8538786172866821e-01" purity="5.0995129346847534e-01" nType="-99"/>
        </Node>
        <Node pos="r" depth="1" NCoef="0" IVar="15" Cut="1.5577206420898438e+02" cType="1" res="2.4645593017339706e-02" rms="4.2918735742568970e-01" purity="5.9816938638687134e-01" nType="0">
          <Node pos="l" depth="2" NCoef="0" IVar="-1" Cut="0.0000000000000000e+00" cType="1" res="1.4798677293583751e-03" rms="4.4909092783927917e-01" purity="5.4462838172912598e-01" nType="-99"/>
          <Node pos="r" depth="2" NCoef="0" IVar="-1" Cut="0.0000000000000000e+00" cType="1" res="1.7034089192748070e-02" rms="2.7219933271408081e-01" purity="9.1618949174880981e-01" nType="-99"/>
        </Node>
      </Node>
    </BinaryTree>
    <BinaryTree type="DecisionTree" boostWeight="1.0000000000000000e+00" itree="48">
      <Node pos="s" depth="0" NCoef="0" IVar="15" Cut="1.2542095947265625e+02" cType="1" res="9.7174932307098061e-05" rms="4.1998642683029175e-01" purity="4.9975964426994324e-01" nType="0">
        <Node pos="l" depth="1" NCoef="0" IVar="14" Cut="3.9254037475585938e+02" cType="1" res="-1.5109445899724960e-02" rms="4.3534043431282043e-01" purity="4.2876657843589783e-01" nType="0">
          <Node pos="l" depth="2" NCoef="0" IVar="-1" Cut="0.0000000000000000e+00" cType="1" res="-2.9885184485465288e-03" rms="4.4710358977317810e-01" purity="3.7640842795372009e-01" nType="-99"/>
          <Node pos="r" depth="2" NCoef="0" IVar="-1" Cut="0.0000000000000000e+00" cType="1" res="1.3218524865806103e-02" rms="2.9475468397140503e-01" purity="9.0016919374465942e-01" nType="-99"/>
        </Node>
        <Node pos="r" depth="1" NCoef="0" IVar="5" Cut="1.7548945617675781e+02" cType="1" res="8.0335892736911774e-02" rms="3.1533271074295044e-01" purity="8.7435907125473022e-01" nType="0">
          <Node pos="l" depth="2" NCoef="0" IVar="-1" Cut="0.0000000000000000e+00" cType="1" res="7.8314989805221558e-03" rms="3.8848650455474854e-01" purity="7.9826378822326660e-01" nType="-99"/>
          <Node pos="r" depth="2" NCoef="0" IVar="-1" Cut="0.0000000000000000e+00" cType="1" res="2.0945215597748756e-02" rms="2.1119031310081482e-01" purity="9.5350950956344604e-01" nType="-99"/>
        </Node>
      </Node>
    </BinaryTree>
    <BinaryTree type="DecisionTree" boostWeight="1.0000000000000000e+00" itree="49">
      <Node pos="s" depth="0" NCoef="0" IVar="13" Cut="1.3176425170898438e+02" cType="1" res="-4.7217891551554203e-03" rms="4.1768831014633179e-01" purity="4.9956846237182617e-01" nType="0">
        <Node pos="l" depth="1" NCoef="0" IVar="14" Cut="3.4959890747070312e+02" cType="1" res="-4.2552869766950607e-02" rms="4.2701634764671326e-01" purity="3.6023682355880737e-01" nType="0">
          <Node pos="l" depth="2" NCoef="0" IVar="-1" Cut="0.0000000000000000e+00" cType="1" res="-6.7077055573463440e-03" rms="4.3431526422500610e-01" purity="2.9332262277603149e-01" nType="-99"/>
          <Node pos="r" depth="2" NCoef="0" IVar="-1" Cut="0.0000000000000000e+00" cType="1" res="8.3893472328782082e-03" rms="3.5464060306549072e-01" purity="8.4987938404083252e-01" nType="-99"/>
        </Node>
        <Node pos="r" depth="1" NCoef="0" IVar="14" Cut="9.4883140563964844e+01" cType="1" res="3.4629825502634048e-02" rms="4.0401744842529297e-01" purity="6.4450025558471680e-01" nType="0">
          <Node pos="l" depth="2" NCoef="0" IVar="-1" Cut="0.0000000000000000e+00" cType="1" res="-8.9892391115427017e-03" rms="3.9978551864624023e-01" purity="2.0838417112827301e-01" nType="-99"/>
          <Node pos="r" depth="2" NCoef="0" IVar="-1" Cut="0.0000000000000000e+00" cType="1" res="6.5624373964965343e-03" rms="4.0257024765014648e-01" purity="7.0089334249496460e-01" nType="-99"/>
        </Node>
      </Node>
    </BinaryTree>
    <BinaryTree type="DecisionTree" boostWeight="1.0000000000000000e+00" itree="50">
      <Node pos="s" depth="0" NCoef="0" IVar="14" Cut="4.5212829589843750e+02" cType="1" res="2.0546080486383289e-04" rms="4.2220854759216309e-01" purity="5.0378274917602539e-01" nType="0">
        <Node pos="l" depth="1" NCoef="0" IVar="9" Cut="2.5589540004730225e+00" cType="1" res="-1.1845655739307404e-02" rms="4.4261437654495239e-01" purity="4.3801018595695496e-01" nType="0">
          <Node pos="l" depth="2" NCoef="0" IVar="-1" Cut="0.0000000000000000e+00" cType="1" res="-5.1120566204190254e-03" rms="4.4130149483680725e-01" purity="3.5019007325172424e-01" nType="-99"/>
          <Node pos="r" depth="2" NCoef="0" IVar="-1" Cut="0.0000000000000000e+00" cType="1" res="1.6790974186733365e-03" rms="4.4208630919456482e-01" purity="5.1057648658752441e-01" nType="-99"/>
        </Node>
        <Node pos="r" depth="1" NCoef="0" IVar="14" Cut="6.6180535888671875e+02" cType="1" res="8.0737642943859100e-02" rms="2.2994443774223328e-01" purity="9.4331139326095581e-01" nType="0">
          <Node pos="l" depth="2" NCoef="0" IVar="-1" Cut="0.0000000000000000e+00" cType="1" res="1.0332701727747917e-02" rms="2.9589849710464478e-01" purity="9.0270328521728516e-01" nType="-99"/>
          <Node pos="r" depth="2" NCoef="0" IVar="-1" Cut="0.0000000000000000e+00" cType="1" res="2.5359911844134331e-02" rms="1.2359253317117691e-01" purity="9.8529726266860962e-01" nType="-99"/>
        </Node>
      </Node>
    </BinaryTree>
    <BinaryTree type="DecisionTree" boostWeight="1.0000000000000000e+00" itree="51">
      <Node pos="s" depth="0" NCoef="0" IVar="14" Cut="1.2848472595214844e+02" cType="1" res="-2.5205370038747787e-03" rms="4.1848772764205933e-01" purity="4.9856108427047729e-01" nType="0">
        <Node pos="l" depth="1" NCoef="0" IVar="16" Cut="5.3524494171142578e+01" cType="1" res="-5.9442125260829926e-02" rms="3.9367079734802246e-01" purity="2.0434330403804779e-01" nType="0">
          <Node pos="l" depth="2" NCoef="0" IVar="-1" Cut="0.0000000000000000e+00" cType="1" res="-1.1552389711141586e-02" rms="3.6174690723419189e-01" purity="1.5591846406459808e-01" nType="-99"/>
          <Node pos="r" depth="2" NCoef="0" IVar="-1" Cut="0.0000000000000000e+00" cType="1" res="-1.3167983852326870e-03" rms="4.4619035720825195e-01" purity="3.0010187625885010e-01" nType="-99"/>
        </Node>
        <Node pos="r" depth="1" NCoef="0" IVar="17" Cut="4.5960968017578125e+01" cType="1" res="2.0733071491122246e-02" rms="4.2602986097335815e-01" purity="6.1875492334365845e-01" nType="0">
          <Node pos="l" depth="2" NCoef="0" IVar="-1" Cut="0.0000000000000000e+00" cType="1" res="8.2555608823895454e-03" rms="4.7165057063102722e-01" purity="5.0633203983306885e-01" nType="-99"/>
          <Node pos="r" depth="2" NCoef="0" IVar="-1" Cut="0.0000000000000000e+00" cType="1" res="6.0525216395035386e-04" rms="4.0909975767135620e-01" purity="6.5459501743316650e-01" nType="-99"/>
        </Node>
      </Node>
    </BinaryTree>
    <BinaryTree type="DecisionTree" boostWeight="1.0000000000000000e+00" itree="52">
      <Node pos="s" depth="0" NCoef="0" IVar="14" Cut="3.5397702026367188e+02" cType="1" res="-2.9381655622273684e-03" rms="4.1798013448715210e-01" purity="4.9809673428535461e-01" nType="0">
        <Node pos="l" depth="1" NCoef="0" IVar="9" Cut="2.5526542663574219e+00" cType="1" res="-1.9290791824460030e-02" rms="4.4340348243713379e-01" purity="3.9896512031555176e-01" nType="0">
          <Node pos="l" depth="2" NCoef="0" IVar="-1" Cut="0.0000000000000000e+00" cType="1" res="-5.9593319892883301e-03" rms="4.3459427356719971e-01" purity="3.1737127900123596e-01" nType="-99"/>
          <Node pos="r" depth="2" NCoef="0" IVar="-1" Cut="0.0000000000000000e+00" cType="1" res="7.3762383544817567e-04" rms="4.4902396202087402e-01" purity="4.6687602996826172e-01" nType="-99"/>
        </Node>
        <Node pos="r" depth="1" NCoef="0" IVar="16" Cut="1.5968136596679688e+02" cType="1" res="6.5124645829200745e-02" rms="2.7894976735115051e-01" purity="9.1070193052291870e-01" nType="0">
          <Node pos="l" depth="2" NCoef="0" IVar="-1" Cut="0.0000000000000000e+00" cType="1" res="2.0856866613030434e-02" rms="2.6727259159088135e-01" purity="9.1996538639068604e-01" nType="-99"/>
          <Node pos="r" depth="2" NCoef="0" IVar="-1" Cut="0.0000000000000000e+00" cType="1" res="1.0849171318113804e-02" rms="2.7874910831451416e-01" purity="9.0922558307647705e-01" nType="-99"/>
        </Node>
      </Node>
    </BinaryTree>
    <BinaryTree type="DecisionTree" boostWeight="1.0000000000000000e+00" itree="53">
      <Node pos="s" depth="0" NCoef="0" IVar="11" Cut="1.1600747108459473e+00" cType="1" res="6.9445231929421425e-04" rms="4.1614961624145508e-01" purity="5.0301527976989746e-01" nType="0">
        <Node pos="l" depth="1" NCoef="0" IVar="0" Cut="2.8609528541564941e+00" cType="1" res="4.5634392648935318e-02" rms="3.9594727754592896e-01" purity="6.5773242712020874e-01" nType="0">
          <Node pos="l" depth="2" NCoef="0" IVar="-1" Cut="0.0000000000000000e+00" cType="1" res="-3.3097835257649422e-03" rms="4.2677694559097290e-01" purity="4.5764690637588501e-01" nType="-99"/>
          <Node pos="r" depth="2" NCoef="0" IVar="-1" Cut="0.0000000000000000e+00" cType="1" res="1.0619298554956913e-02" rms="3.8008084893226624e-01" purity="7.3359471559524536e-01" nType="-99"/>
        </Node>
        <Node pos="r" depth="1" NCoef="0" IVar="14" Cut="3.2643179321289062e+02" cType="1" res="-2.4393737316131592e-02" rms="4.2495009303092957e-01" purity="4.1664281487464905e-01" nType="0">
          <Node pos="l" depth="2" NCoef="0" IVar="-1" Cut="0.0000000000000000e+00" cType="1" res="-4.6767527237534523e-03" rms="4.3755769729614258e-01" purity="3.3143872022628784e-01" nType="-99"/>
          <Node pos="r" depth="2" NCoef="0" IVar="-1" Cut="0.0000000000000000e+00" cType="1" res="8.5620358586311340e-03" rms="3.4207147359848022e-01" purity="8.6027872562408447e-01" nType="-99"/>
        </Node>
      </Node>
    </BinaryTree>
    <BinaryTree type="DecisionTree" boostWeight="1.0000000000000000e+00" itree="54">
      <Node pos="s" depth="0" NCoef="0" IVar="14" Cut="1.7834069824218750e+02" cType="1" res="3.4248998854309320e-03" rms="4.1742357611656189e-01" purity="5.0469380617141724e-01" nType="0">
        <Node pos="l" depth="1" NCoef="0" IVar="7" Cut="1.0214008331298828e+02" cType="1" res="-2.7843393385410309e-02" rms="4.2715615034103394e-01" purity="2.7435067296028137e-01" nType="0">
          <Node pos="l" depth="2" NCoef="0" IVar="-1" Cut="0.0000000000000000e+00" cType="1" res="-5.5990205146372318e-03" rms="4.1326412558555603e-01" purity="2.3274390399456024e-01" nType="-99"/>
          <Node pos="r" depth="2" NCoef="0" IVar="-1" Cut="0.0000000000000000e+00" cType="1" res="4.8206471838057041e-03" rms="4.7793760895729065e-01" purity="4.5949098467826843e-01" nType="-99"/>
        </Node>
        <Node pos="r" depth="1" NCoef="0" IVar="17" Cut="4.7340759277343750e+01" cType="1" res="3.4035868942737579e-02" rms="4.0534076094627380e-01" purity="7.3019450902938843e-01" nType="0">
          <Node pos="l" depth="2" NCoef="0" IVar="-1" Cut="0.0000000000000000e+00" cType="1" res="1.4073588885366917e-02" rms="4.3467777967453003e-01" purity="7.2277879714965820e-01" nType="-99"/>
          <Node pos="r" depth="2" NCoef="0" IVar="-1" Cut="0.0000000000000000e+00" cType="1" res="2.9142289422452450e-03" rms="3.9913609623908997e-01" purity="7.3130214214324951e-01" nType="-99"/>
        </Node>
      </Node>
    </BinaryTree>
    <BinaryTree type="DecisionTree" boostWeight="1.0000000000000000e+00" itree="55">
      <Node pos="s" depth="0" NCoef="0" IVar="15" Cut="1.1421125030517578e+02" cType="1" res="2.6310815010219812e-03" rms="4.2264211177825928e-01" purity="4.9982643127441406e-01" nType="0">
        <Node pos="l" depth="1" NCoef="0" IVar="14" Cut="5.7984802246093750e+02" cType="1" res="-1.0752668604254723e-02" rms="4.3841844797134399e-01" purity="4.2080831527709961e-01" nType="0">
          <Node pos="l" depth="2" NCoef="0" IVar="-1" Cut="0.0000000000000000e+00" cType="1" res="-1.9430753309279680e-03" rms="4.4555670022964478e-01" purity="3.9741554856300354e-01" nType="-99"/>
          <Node pos="r" depth="2" NCoef="0" IVar="-1" Cut="0.0000000000000000e+00" cType="1" res="2.2935252636671066e-02" rms="1.6976857185363770e-01" purity="9.7015231847763062e-01" nType="-99"/>
        </Node>
        <Node pos="r" depth="1" NCoef="0" IVar="8" Cut="1.7161962890625000e+02" cType="1" res="6.1380393803119659e-02" rms="3.3876031637191772e-01" purity="8.4668421745300293e-01" nType="0">
          <Node pos="l" depth="2" NCoef="0" IVar="-1" Cut="0.0000000000000000e+00" cType="1" res="1.1538028717041016e-02" rms="3.3325931429862976e-01" purity="8.4984725713729858e-01" nType="-99"/>
          <Node pos="r" depth="2" NCoef="0" IVar="-1" Cut="0.0000000000000000e+00" cType="1" res="-1.3635130599141121e-03" rms="3.6497217416763306e-01" purity="8.2623636722564697e-01" nType="-99"/>
        </Node>
      </Node>
    </BinaryTree>
    <BinaryTree type="DecisionTree" boostWeight="1.0000000000000000e+00" itree="56">
      <Node pos="s" depth="0" NCoef="0" IVar="14" Cut="2.5355218505859375e+02" cType="1" res="1.0259374539600685e-04" rms="4.1574567556381226e-01" purity="4.9884936213493347e-01" nType="0">
        <Node pos="l" depth="1" NCoef="0" IVar="9" Cut="2.2409515380859375e+00" cType="1" res="-2.2231059148907661e-02" rms="4.4176009297370911e-01" purity="3.4070801734924316e-01" nType="0">
          <Node pos="l" depth="2" NCoef="0" IVar="-1" Cut="0.0000000000000000e+00" cType="1" res="-7.2806240059435368e-03" rms="4.2107546329498291e-01" purity="2.5500464439392090e-01" nType="-99"/>
          <Node pos="r" depth="2" NCoef="0" IVar="-1" Cut="0.0000000000000000e+00" cType="1" res="-5.4537004325538874e-04" rms="4.5005097985267639e-01" purity="3.8092136383056641e-01" nType="-99"/>
        </Node>
        <Node pos="r" depth="1" NCoef="0" IVar="17" Cut="6.2000385284423828e+01" cType="1" res="4.8218369483947754e-02" rms="3.4841829538345337e-01" purity="8.3955019712448120e-01" nType="0">
          <Node pos="l" depth="2" NCoef="0" IVar="-1" Cut="0.0000000000000000e+00" cType="1" res="1.8867876380681992e-02" rms="3.1922426819801331e-01" purity="8.8393169641494751e-01" nType="-99"/>
          <Node pos="r" depth="2" NCoef="0" IVar="-1" Cut="0.0000000000000000e+00" cType="1" res="5.7385326363146305e-03" rms="3.5078641772270203e-01" purity="8.3280980587005615e-01" nType="-99"/>
        </Node>
      </Node>
    </BinaryTree>
    <BinaryTree type="DecisionTree" boostWeight="1.0000000000000000e+00" itree="57">
      <Node pos="s" depth="0" NCoef="0" IVar="11" Cut="1.2980278730392456e+00" cType="1" res="9.1854966012760997e-04" rms="4.1898971796035767e-01" purity="5.0005608797073364e-01" nType="0">
        <Node pos="l" depth="1" NCoef="0" IVar="3" Cut="2.1116738319396973e+00" cType="1" res="3.7449903786182404e-02" rms="4.0140041708946228e-01" purity="6.3891845941543579e-01" nType="0">
          <Node pos="l" depth="2" NCoef="0" IVar="-1" Cut="0.0000000000000000e+00" cType="1" res="6.3633201643824577e-03" rms="4.0067365765571594e-01" purity="6.6186451911926270e-01" nType="-99"/>
          <Node pos="r" depth="2" NCoef="0" IVar="-1" Cut="0.0000000000000000e+00" cType="1" res="-1.3640553690493107e-02" rms="3.8738277554512024e-01" purity="1.9834300875663757e-01" nType="-99"/>
        </Node>
        <Node pos="r" depth="1" NCoef="0" IVar="14" Cut="1.0083722686767578e+02" cType="1" res="-2.0896408706903458e-02" rms="4.2766413092613220e-01" purity="4.1713342070579529e-01" nType="0">
          <Node pos="l" depth="2" NCoef="0" IVar="-1" Cut="0.0000000000000000e+00" cType="1" res="-1.0747021064162254e-02" rms="3.6435845494270325e-01" purity="1.6631792485713959e-01" nType="-99"/>
          <Node pos="r" depth="2" NCoef="0" IVar="-1" Cut="0.0000000000000000e+00" cType="1" res="-8.5575575940310955e-04" rms="4.4075214862823486e-01" purity="4.7892785072326660e-01" nType="-99"/>
        </Node>
      </Node>
    </BinaryTree>
    <BinaryTree type="DecisionTree" boostWeight="1.0000000000000000e+00" itree="58">
      <Node pos="s" depth="0" NCoef="0" IVar="11" Cut="9.5314496755599976e-01" cType="1" res="-6.5993360476568341e-04" rms="4.1443774104118347e-01" purity="4.9924117326736450e-01" nType="0">
        <Node pos="l" depth="1" NCoef="0" IVar="3" Cut="1.8520954847335815e+00" cType="1" res="4.5408822596073151e-02" rms="3.8593375682830811e-01" purity="6.7853003740310669e-01" nType="0">
          <Node pos="l" depth="2" NCoef="0" IVar="-1" Cut="0.0000000000000000e+00" cType="1" res="8.2720592617988586e-03" rms="3.8436537981033325e-01" purity="7.1618175506591797e-01" nType="-99"/>
          <Node pos="r" depth="2" NCoef="0" IVar="-1" Cut="0.0000000000000000e+00" cType="1" res="-1.0776980780065060e-02" rms="3.8002234697341919e-01" purity="2.3179826140403748e-01" nType="-99"/>
        </Node>
        <Node pos="r" depth="1" NCoef="0" IVar="14" Cut="5.2539978027343750e+02" cType="1" res="-2.0409321412444115e-02" rms="4.2454552650451660e-01" purity="4.2238119244575500e-01" nType="0">
          <Node pos="l" depth="2" NCoef="0" IVar="-1" Cut="0.0000000000000000e+00" cType="1" res="-3.4081076737493277e-03" rms="4.3414014577865601e-01" purity="3.8668856024742126e-01" nType="-99"/>
          <Node pos="r" depth="2" NCoef="0" IVar="-1" Cut="0.0000000000000000e+00" cType="1" res="1.8696635961532593e-02" rms="2.1369285881519318e-01" purity="9.5221734046936035e-01" nType="-99"/>
        </Node>
      </Node>
    </BinaryTree>
    <BinaryTree type="DecisionTree" boostWeight="1.0000000000000000e+00" itree="59">
      <Node pos="s" depth="0" NCoef="0" IVar="14" Cut="2.9732205200195312e+02" cType="1" res="4.3842806480824947e-03" rms="4.1938510537147522e-01" purity="5.0187665224075317e-01" nType="0">
        <Node pos="l" depth="1" NCoef="0" IVar="18" Cut="4.6594749450683594e+01" cType="1" res="-1.1672715656459332e-02" rms="4.4767710566520691e-01" purity="3.7610462307929993e-01" nType="0">
          <Node pos="l" depth="2" NCoef="0" IVar="-1" Cut="0.0000000000000000e+00" cType="1" res="-3.8924731779843569e-04" rms="4.4513949751853943e-01" purity="3.6972862482070923e-01" nType="-99"/>
          <Node pos="r" depth="2" NCoef="0" IVar="-1" Cut="0.0000000000000000e+00" cType="1" res="-1.3434323482215405e-02" rms="4.6553772687911987e-01" purity="4.5799678564071655e-01" nType="-99"/>
        </Node>
        <Node pos="r" depth="1" NCoef="0" IVar="16" Cut="1.2624868774414062e+02" cType="1" res="5.2862662822008133e-02" rms="3.1415429711341858e-01" purity="8.8160043954849243e-01" nType="0">
          <Node pos="l" depth="2" NCoef="0" IVar="-1" Cut="0.0000000000000000e+00" cType="1" res="1.9295539706945419e-02" rms="3.2162138819694519e-01" purity="8.7773162126541138e-01" nType="-99"/>
          <Node pos="r" depth="2" NCoef="0" IVar="-1" Cut="0.0000000000000000e+00" cType="1" res="8.1578055396676064e-03" rms="3.1162250041961670e-01" purity="8.8199633359909058e-01" nType="-99"/>
        </Node>
      </Node>
    </BinaryTree>
    <BinaryTree type="DecisionTree" boostWeight="1.0000000000000000e+00" itree="60">
      <Node pos="s" depth="0" NCoef="0" IVar="14" Cut="4.2152062988281250e+02" cType="1" res="3.3194660209119320e-03" rms="4.1912117600440979e-01" purity="5.0372064113616943e-01" nType="0">
        <Node pos="l" depth="1" NCoef="0" IVar="14" Cut="1.0124813842773438e+02" cType="1" res="-6.9938218221068382e-03" rms="4.4185054302215576e-01" purity="4.3040111660957336e-01" nType="0">
          <Node pos="l" depth="2" NCoef="0" IVar="-1" Cut="0.0000000000000000e+00" cType="1" res="-7.2765825316309929e-03" rms="3.8288524746894836e-01" purity="1.8725371360778809e-01" nType="-99"/>
          <Node pos="r" depth="2" NCoef="0" IVar="-1" Cut="0.0000000000000000e+00" cType="1" res="3.6903435830026865e-04" rms="4.5340502262115479e-01" purity="4.8488509654998779e-01" nType="-99"/>
        </Node>
        <Node pos="r" depth="1" NCoef="0" IVar="17" Cut="1.2569594573974609e+02" cType="1" res="6.4654342830181122e-02" rms="2.3427738249301910e-01" purity="9.3976414203643799e-01" nType="0">
          <Node pos="l" depth="2" NCoef="0" IVar="-1" Cut="0.0000000000000000e+00" cType="1" res="2.1647293120622635e-02" rms="1.8773466348648071e-01" purity="9.6357715129852295e-01" nType="-99"/>
