<?xml version="1.0"?>
<MethodSetup Method="BDT::BDTG4">
  <GeneralInfo>
    <Info name="TMVA Release" value="4.2.1 [262657]"/>
    <Info name="ROOT Release" value="6.14/09 [396809]"/>
    <Info name="Creator" value="sharmaa"/>
    <Info name="Date" value="Tue Jul 21 14:54:23 2020"/>
    <Info name="Host" value="Linux cmsbuild20.cern.ch 3.10.0-957.5.1.el7.x86_64 #1 SMP Fri Feb 1 14:54:57 UTC 2019 x86_64 x86_64 x86_64 GNU/Linux"/>
    <Info name="Dir" value="/afs/cern.ch/user/s/sharmaa/CMSSW_10_6_4/src/PlotsConfigurations/Configurations/EFT/WH3l/BDT_analysis/BDT_config/WH3left_combined"/>
    <Info name="Training events" value="16087"/>
    <Info name="TrainingTime" value="3.78998208e+00"/>
    <Info name="AnalysisType" value="Classification"/>
  </GeneralInfo>
  <Options>
    <Option name="V" modified="Yes">False</Option>
    <Option name="VerbosityLevel" modified="No">Default</Option>
    <Option name="VarTransform" modified="No">None</Option>
    <Option name="H" modified="Yes">False</Option>
    <Option name="CreateMVAPdfs" modified="No">False</Option>
    <Option name="IgnoreNegWeightsInTraining" modified="No">False</Option>
    <Option name="NTrees" modified="Yes">500</Option>
    <Option name="MaxDepth" modified="Yes">2</Option>
    <Option name="MinNodeSize" modified="Yes">1.5%</Option>
    <Option name="nCuts" modified="Yes">500</Option>
    <Option name="BoostType" modified="Yes">Grad</Option>
    <Option name="AdaBoostR2Loss" modified="No">quadratic</Option>
    <Option name="UseBaggedBoost" modified="Yes">True</Option>
    <Option name="Shrinkage" modified="Yes">5.000000e-02</Option>
    <Option name="AdaBoostBeta" modified="No">5.000000e-01</Option>
    <Option name="UseRandomisedTrees" modified="No">False</Option>
    <Option name="UseNvars" modified="No">4</Option>
    <Option name="UsePoissonNvars" modified="No">True</Option>
    <Option name="BaggedSampleFraction" modified="No">5.000000e-01</Option>
    <Option name="UseYesNoLeaf" modified="No">True</Option>
    <Option name="NegWeightTreatment" modified="No">pray</Option>
    <Option name="Css" modified="No">1.000000e+00</Option>
    <Option name="Cts_sb" modified="No">1.000000e+00</Option>
    <Option name="Ctb_ss" modified="No">1.000000e+00</Option>
    <Option name="Cbb" modified="No">1.000000e+00</Option>
    <Option name="NodePurityLimit" modified="No">5.000000e-01</Option>
    <Option name="SeparationType" modified="No">giniindex</Option>
    <Option name="RegressionLossFunctionBDTG" modified="No">huber</Option>
    <Option name="HuberQuantile" modified="No">7.000000e-01</Option>
    <Option name="DoBoostMonitor" modified="No">False</Option>
    <Option name="UseFisherCuts" modified="No">False</Option>
    <Option name="MinLinCorrForFisher" modified="No">8.000000e-01</Option>
    <Option name="UseExclusiveVars" modified="No">False</Option>
    <Option name="DoPreselection" modified="No">False</Option>
    <Option name="SigToBkgFraction" modified="No">1.000000e+00</Option>
    <Option name="PruneMethod" modified="No">nopruning</Option>
    <Option name="PruneStrength" modified="No">0.000000e+00</Option>
    <Option name="PruningValFraction" modified="No">5.000000e-01</Option>
    <Option name="SkipNormalization" modified="No">False</Option>
    <Option name="nEventsMin" modified="No">0</Option>
    <Option name="UseBaggedGrad" modified="No">False</Option>
    <Option name="GradBaggingFraction" modified="Yes">5.000000e-01</Option>
    <Option name="UseNTrainEvents" modified="No">0</Option>
    <Option name="NNodesMax" modified="No">0</Option>
  </Options>
  <Variables NVar="15">
    <Variable VarIndex="0" Expression="WH3l_dphilllmet" Label="WH3l_dphilllmet" Title="WH3l_dphilllmet" Unit="" Internal="WH3l_dphilllmet" Type="F" Min="5.09925419e-03" Max="3.14159179e+00"/>
    <Variable VarIndex="1" Expression="MinIf$(WH3l_mOSll[],WH3l_mOSll[Iteration$]&gt;0)" Label="MinIf$(WH3l_mOSll[],WH3l_mOSll[Iteration$]&gt;0)" Title="MinIf$(WH3l_mOSll[],WH3l_mOSll[Iteration$]&gt;0)" Unit="" Internal="MinIf__WH3l_mOSll__,WH3l_mOSll_Iteration___0_" Type="F" Min="1.20037289e+01" Max="5.29674866e+02"/>
    <Variable VarIndex="2" Expression="MinIf$(WH3l_ptOSll[],WH3l_ptOSll[Iteration$]&gt;0)" Label="MinIf$(WH3l_ptOSll[],WH3l_ptOSll[Iteration$]&gt;0)" Title="MinIf$(WH3l_ptOSll[],WH3l_ptOSll[Iteration$]&gt;0)" Unit="" Internal="MinIf__WH3l_ptOSll__,WH3l_ptOSll_Iteration___0_" Type="F" Min="5.13214529e-01" Max="1.14792993e+03"/>
    <Variable VarIndex="3" Expression="MinIf$(WH3l_drOSll[],WH3l_drOSll[Iteration$]&gt;0)" Label="MinIf$(WH3l_drOSll[],WH3l_drOSll[Iteration$]&gt;0)" Title="MinIf$(WH3l_drOSll[],WH3l_drOSll[Iteration$]&gt;0)" Unit="" Internal="MinIf__WH3l_drOSll__,WH3l_drOSll_Iteration___0_" Type="F" Min="1.88116059e-02" Max="3.98274994e+00"/>
    <Variable VarIndex="4" Expression="WH3l_ptlll" Label="WH3l_ptlll" Title="WH3l_ptlll" Unit="" Internal="WH3l_ptlll" Type="F" Min="7.23386586e-01" Max="2.27228418e+03"/>
    <Variable VarIndex="5" Expression="WH3l_dphilmet[0]" Label="WH3l_dphilmet[0]" Title="WH3l_dphilmet[0]" Unit="" Internal="WH3l_dphilmet_0_" Type="F" Min="4.21434641e-04" Max="3.14154959e+00"/>
    <Variable VarIndex="6" Expression="WH3l_dphilmet[1]" Label="WH3l_dphilmet[1]" Title="WH3l_dphilmet[1]" Unit="" Internal="WH3l_dphilmet_1_" Type="F" Min="1.13010406e-04" Max="3.14158440e+00"/>
    <Variable VarIndex="7" Expression="WH3l_dphilmet[2]" Label="WH3l_dphilmet[2]" Title="WH3l_dphilmet[2]" Unit="" Internal="WH3l_dphilmet_2_" Type="F" Min="1.40666962e-05" Max="3.14133954e+00"/>
    <Variable VarIndex="8" Expression="WH3l_ptWWW" Label="WH3l_ptWWW" Title="WH3l_ptWWW" Unit="" Internal="WH3l_ptWWW" Type="F" Min="7.23988339e-02" Max="8.94668030e+02"/>
    <Variable VarIndex="9" Expression="WH3l_mtWWW" Label="WH3l_mtWWW" Title="WH3l_mtWWW" Unit="" Internal="WH3l_mtWWW" Type="F" Min="6.24987446e-02" Max="4.55656348e+03"/>
    <Variable VarIndex="10" Expression="WH3l_mlll" Label="WH3l_mlll" Title="WH3l_mlll" Unit="" Internal="WH3l_mlll" Type="F" Min="2.70573235e+01" Max="3.92972656e+03"/>
    <Variable VarIndex="11" Expression="PuppiMET_pt" Label="PuppiMET_pt" Title="PuppiMET_pt" Unit="" Internal="PuppiMET_pt" Type="F" Min="6.74911380e-01" Max="2.28429541e+03"/>
    <Variable VarIndex="12" Expression="Alt$(Lepton_pt[0],0)" Label="Alt$(Lepton_pt[0],0)" Title="Alt$(Lepton_pt[0],0)" Unit="" Internal="Alt__Lepton_pt_0_,0_" Type="F" Min="2.50624638e+01" Max="2.81464209e+03"/>
    <Variable VarIndex="13" Expression="Alt$(Lepton_pt[1],0)" Label="Alt$(Lepton_pt[1],0)" Title="Alt$(Lepton_pt[1],0)" Unit="" Internal="Alt__Lepton_pt_1_,0_" Type="F" Min="2.00130501e+01" Max="1.26134314e+03"/>
    <Variable VarIndex="14" Expression="Alt$(Lepton_pt[2],0)" Label="Alt$(Lepton_pt[2],0)" Title="Alt$(Lepton_pt[2],0)" Unit="" Internal="Alt__Lepton_pt_2_,0_" Type="F" Min="1.50077734e+01" Max="7.84111694e+02"/>
  </Variables>
  <Spectators NSpec="0"/>
  <Classes NClass="2">
    <Class Name="Background" Index="0"/>
    <Class Name="Signal" Index="1"/>
  </Classes>
  <Transformations NTransformations="0"/>
  <MVAPdfs/>
  <Weights NTrees="500" AnalysisType="1">
    <BinaryTree type="DecisionTree" boostWeight="1.0000000000000000e+00" itree="0">
      <Node pos="s" depth="0" NCoef="0" IVar="12" Cut="1.2587323760986328e+02" cType="1" res="-2.2078435868024826e-03" rms="4.9999511241912842e-01" purity="4.9779215455055237e-01" nType="0">
        <Node pos="l" depth="1" NCoef="0" IVar="10" Cut="1.4028160095214844e+02" cType="1" res="-1.4760051667690277e-01" rms="4.7771757841110229e-01" purity="3.5239946842193604e-01" nType="0">
          <Node pos="l" depth="2" NCoef="0" IVar="-1" Cut="0.0000000000000000e+00" cType="1" res="-2.5902455672621727e-02" rms="4.2767542600631714e-01" purity="2.4097543954849243e-01" nType="-99"/>
          <Node pos="r" depth="2" NCoef="0" IVar="-1" Cut="0.0000000000000000e+00" cType="1" res="-3.2936211209744215e-03" rms="4.9891403317451477e-01" purity="4.6706378459930420e-01" nType="-99"/>
        </Node>
        <Node pos="r" depth="1" NCoef="0" IVar="10" Cut="4.3331732177734375e+02" cType="1" res="3.5131204128265381e-01" rms="3.5578063130378723e-01" purity="8.5131210088729858e-01" nType="0">
          <Node pos="l" depth="2" NCoef="0" IVar="-1" Cut="0.0000000000000000e+00" cType="1" res="2.6400098577141762e-02" rms="4.2462158203125000e-01" purity="7.6400101184844971e-01" nType="-99"/>
          <Node pos="r" depth="2" NCoef="0" IVar="-1" Cut="0.0000000000000000e+00" cType="1" res="4.7629330307245255e-02" rms="1.5213379263877869e-01" purity="9.7629326581954956e-01" nType="-99"/>
        </Node>
      </Node>
    </BinaryTree>
    <BinaryTree type="DecisionTree" boostWeight="1.0000000000000000e+00" itree="1">
      <Node pos="s" depth="0" NCoef="0" IVar="10" Cut="2.0770370483398438e+02" cType="1" res="-1.2426740489900112e-02" rms="4.9372950196266174e-01" purity="4.8753616213798523e-01" nType="0">
        <Node pos="l" depth="1" NCoef="0" IVar="4" Cut="1.0217023468017578e+02" cType="1" res="-1.9054831564426422e-01" rms="4.5740094780921936e-01" purity="3.0148023366928101e-01" nType="0">
          <Node pos="l" depth="2" NCoef="0" IVar="-1" Cut="0.0000000000000000e+00" cType="1" res="-2.2810999304056168e-02" rms="4.3960386514663696e-01" purity="2.6336249709129333e-01" nType="-99"/>
          <Node pos="r" depth="2" NCoef="0" IVar="-1" Cut="0.0000000000000000e+00" cType="1" res="2.7197839692234993e-02" rms="4.1846695542335510e-01" purity="7.7194350957870483e-01" nType="-99"/>
        </Node>
        <Node pos="r" depth="1" NCoef="0" IVar="10" Cut="4.3732632446289062e+02" cType="1" res="2.6353487372398376e-01" rms="4.1471931338310242e-01" purity="7.7579045295715332e-01" nType="0">
          <Node pos="l" depth="2" NCoef="0" IVar="-1" Cut="0.0000000000000000e+00" cType="1" res="1.8613334745168686e-02" rms="4.6059507131576538e-01" purity="6.9363045692443848e-01" nType="-99"/>
          <Node pos="r" depth="2" NCoef="0" IVar="-1" Cut="0.0000000000000000e+00" cType="1" res="4.4296115636825562e-02" rms="1.8394881486892700e-01" purity="9.6501183509826660e-01" nType="-99"/>
        </Node>
      </Node>
    </BinaryTree>
    <BinaryTree type="DecisionTree" boostWeight="1.0000000000000000e+00" itree="2">
      <Node pos="s" depth="0" NCoef="0" IVar="12" Cut="1.2577910614013672e+02" cType="1" res="1.0299976915121078e-02" rms="4.8821565508842468e-01" purity="5.1082044839859009e-01" nType="0">
        <Node pos="l" depth="1" NCoef="0" IVar="10" Cut="1.3696447753906250e+02" cType="1" res="-1.2024149298667908e-01" rms="4.7843557596206665e-01" purity="3.6656355857849121e-01" nType="0">
          <Node pos="l" depth="2" NCoef="0" IVar="-1" Cut="0.0000000000000000e+00" cType="1" res="-2.2157637402415276e-02" rms="4.3535375595092773e-01" purity="2.5605243444442749e-01" nType="-99"/>
          <Node pos="r" depth="2" NCoef="0" IVar="-1" Cut="0.0000000000000000e+00" cType="1" res="-2.7207215316593647e-03" rms="4.9717733263969421e-01" purity="4.6853700280189514e-01" nType="-99"/>
        </Node>
        <Node pos="r" depth="1" NCoef="0" IVar="10" Cut="3.7653210449218750e+02" cType="1" res="3.0669039487838745e-01" rms="3.6507651209831238e-01" purity="8.3835130929946899e-01" nType="0">
          <Node pos="l" depth="2" NCoef="0" IVar="-1" Cut="0.0000000000000000e+00" cType="1" res="2.1473582834005356e-02" rms="4.4000178575515747e-01" purity="7.3675382137298584e-01" nType="-99"/>
          <Node pos="r" depth="2" NCoef="0" IVar="-1" Cut="0.0000000000000000e+00" cType="1" res="4.0067140012979507e-02" rms="2.3879303038120270e-01" purity="9.3860262632369995e-01" nType="-99"/>
        </Node>
      </Node>
    </BinaryTree>
    <BinaryTree type="DecisionTree" boostWeight="1.0000000000000000e+00" itree="3">
      <Node pos="s" depth="0" NCoef="0" IVar="10" Cut="2.2959104919433594e+02" cType="1" res="-1.0302546434104443e-02" rms="4.8273125290870667e-01" purity="4.8982504010200500e-01" nType="0">
        <Node pos="l" depth="1" NCoef="0" IVar="4" Cut="1.0146527099609375e+02" cType="1" res="-1.5798351168632507e-01" rms="4.6218979358673096e-01" purity="3.2161280512809753e-01" nType="0">
          <Node pos="l" depth="2" NCoef="0" IVar="-1" Cut="0.0000000000000000e+00" cType="1" res="-1.9526291638612747e-02" rms="4.4766074419021606e-01" purity="2.8161340951919556e-01" nType="-99"/>
          <Node pos="r" depth="2" NCoef="0" IVar="-1" Cut="0.0000000000000000e+00" cType="1" res="1.9226277247071266e-02" rms="4.5221617817878723e-01" purity="7.0310133695602417e-01" nType="-99"/>
        </Node>
        <Node pos="r" depth="1" NCoef="0" IVar="7" Cut="1.6303157806396484e+00" cType="1" res="2.7437612414360046e-01" rms="3.8387739658355713e-01" purity="8.1408107280731201e-01" nType="0">
          <Node pos="l" depth="2" NCoef="0" IVar="-1" Cut="0.0000000000000000e+00" cType="1" res="3.7550747394561768e-02" rms="2.7383315563201904e-01" purity="9.1617476940155029e-01" nType="-99"/>
          <Node pos="r" depth="2" NCoef="0" IVar="-1" Cut="0.0000000000000000e+00" cType="1" res="1.6841359436511993e-02" rms="4.5265054702758789e-01" purity="7.0199209451675415e-01" nType="-99"/>
        </Node>
      </Node>
    </BinaryTree>
    <BinaryTree type="DecisionTree" boostWeight="1.0000000000000000e+00" itree="4">
      <Node pos="s" depth="0" NCoef="0" IVar="10" Cut="2.5710208129882812e+02" cType="1" res="-1.2452105991542339e-02" rms="4.7616180777549744e-01" purity="4.8656335473060608e-01" nType="0">
        <Node pos="l" depth="1" NCoef="0" IVar="4" Cut="1.0217023468017578e+02" cType="1" res="-1.3942705094814301e-01" rms="4.6399509906768799e-01" purity="3.3635729551315308e-01" nType="0">
          <Node pos="l" depth="2" NCoef="0" IVar="-1" Cut="0.0000000000000000e+00" cType="1" res="-1.7928997054696083e-02" rms="4.5042344927787781e-01" purity="2.9184392094612122e-01" nType="-99"/>
          <Node pos="r" depth="2" NCoef="0" IVar="-1" Cut="0.0000000000000000e+00" cType="1" res="2.2993385791778564e-02" rms="4.2753058671951294e-01" purity="7.5763225555419922e-01" nType="-99"/>
        </Node>
        <Node pos="r" depth="1" NCoef="0" IVar="10" Cut="3.2325076293945312e+02" cType="1" res="3.0778443813323975e-01" rms="3.3520939946174622e-01" purity="8.6538988351821899e-01" nType="0">
          <Node pos="l" depth="2" NCoef="0" IVar="-1" Cut="0.0000000000000000e+00" cType="1" res="1.4372512698173523e-02" rms="4.6579244732856750e-01" purity="6.7952901124954224e-01" nType="-99"/>
          <Node pos="r" depth="2" NCoef="0" IVar="-1" Cut="0.0000000000000000e+00" cType="1" res="3.8909491151571274e-02" rms="2.1897898614406586e-01" purity="9.4853585958480835e-01" nType="-99"/>
        </Node>
      </Node>
    </BinaryTree>
    <BinaryTree type="DecisionTree" boostWeight="1.0000000000000000e+00" itree="5">
      <Node pos="s" depth="0" NCoef="0" IVar="12" Cut="1.2528688049316406e+02" cType="1" res="8.8261207565665245e-03" rms="4.7151312232017517e-01" purity="5.0909304618835449e-01" nType="0">
        <Node pos="l" depth="1" NCoef="0" IVar="10" Cut="1.5250904846191406e+02" cType="1" res="-1.1399204283952713e-01" rms="4.6982082724571228e-01" purity="3.5409358143806458e-01" nType="0">
          <Node pos="l" depth="2" NCoef="0" IVar="-1" Cut="0.0000000000000000e+00" cType="1" res="-2.0156230777502060e-02" rms="4.3167939782142639e-01" purity="2.5303521752357483e-01" nType="-99"/>
          <Node pos="r" depth="2" NCoef="0" IVar="-1" Cut="0.0000000000000000e+00" cType="1" res="1.4034330379217863e-03" rms="4.9482667446136475e-01" purity="5.0530260801315308e-01" nType="-99"/>
        </Node>
        <Node pos="r" depth="1" NCoef="0" IVar="4" Cut="6.9956092834472656e+01" cType="1" res="2.9232808947563171e-01" rms="3.3288025856018066e-01" purity="8.6687940359115601e-01" nType="0">
          <Node pos="l" depth="2" NCoef="0" IVar="-1" Cut="0.0000000000000000e+00" cType="1" res="1.6498230397701263e-02" rms="4.3451657891273499e-01" purity="7.3161613941192627e-01" nType="-99"/>
          <Node pos="r" depth="2" NCoef="0" IVar="-1" Cut="0.0000000000000000e+00" cType="1" res="3.6467038094997406e-02" rms="2.4719670414924622e-01" purity="9.3190526962280273e-01" nType="-99"/>
        </Node>
      </Node>
    </BinaryTree>
    <BinaryTree type="DecisionTree" boostWeight="1.0000000000000000e+00" itree="6">
      <Node pos="s" depth="0" NCoef="0" IVar="10" Cut="2.2903965759277344e+02" cType="1" res="1.0353506542742252e-02" rms="4.6744859218597412e-01" purity="5.1143515110015869e-01" nType="0">
        <Node pos="l" depth="1" NCoef="0" IVar="9" Cut="1.8429827880859375e+02" cType="1" res="-1.2152180075645447e-01" rms="4.6352326869964600e-01" purity="3.3785551786422729e-01" nType="0">
          <Node pos="l" depth="2" NCoef="0" IVar="-1" Cut="0.0000000000000000e+00" cType="1" res="-1.6034547239542007e-02" rms="4.5112860202789307e-01" purity="2.9232889413833618e-01" nType="-99"/>
          <Node pos="r" depth="2" NCoef="0" IVar="-1" Cut="0.0000000000000000e+00" cType="1" res="1.1553349904716015e-02" rms="4.7189638018608093e-01" purity="6.2789958715438843e-01" nType="-99"/>
        </Node>
        <Node pos="r" depth="1" NCoef="0" IVar="10" Cut="2.9563726806640625e+02" cType="1" res="2.4705590307712555e-01" rms="3.7124678492546082e-01" purity="8.2299232482910156e-01" nType="0">
          <Node pos="l" depth="2" NCoef="0" IVar="-1" Cut="0.0000000000000000e+00" cType="1" res="9.4600608572363853e-03" rms="4.7914540767669678e-01" purity="6.3429808616638184e-01" nType="-99"/>
          <Node pos="r" depth="2" NCoef="0" IVar="-1" Cut="0.0000000000000000e+00" cType="1" res="3.3672656863927841e-02" rms="2.7210289239883423e-01" purity="9.1771018505096436e-01" nType="-99"/>
        </Node>
      </Node>
    </BinaryTree>
    <BinaryTree type="DecisionTree" boostWeight="1.0000000000000000e+00" itree="7">
      <Node pos="s" depth="0" NCoef="0" IVar="12" Cut="1.2315481567382812e+02" cType="1" res="8.1356531009078026e-03" rms="4.6277001500129700e-01" purity="5.0768256187438965e-01" nType="0">
        <Node pos="l" depth="1" NCoef="0" IVar="10" Cut="2.6301547241210938e+02" cType="1" res="-1.0279306024312973e-01" rms="4.6694260835647583e-01" purity="3.5402941703796387e-01" nType="0">
          <Node pos="l" depth="2" NCoef="0" IVar="-1" Cut="0.0000000000000000e+00" cType="1" res="-1.2831708416342735e-02" rms="4.6169680356979370e-01" purity="3.2539135217666626e-01" nType="-99"/>
          <Node pos="r" depth="2" NCoef="0" IVar="-1" Cut="0.0000000000000000e+00" cType="1" res="3.2328210771083832e-02" rms="3.3905732631683350e-01" purity="8.6236238479614258e-01" nType="-99"/>
        </Node>
        <Node pos="r" depth="1" NCoef="0" IVar="10" Cut="3.2883267211914062e+02" cType="1" res="2.7046304941177368e-01" rms="3.2721075415611267e-01" purity="8.7104600667953491e-01" nType="0">
          <Node pos="l" depth="2" NCoef="0" IVar="-1" Cut="0.0000000000000000e+00" cType="1" res="1.9606042653322220e-02" rms="4.2270416021347046e-01" purity="7.6148027181625366e-01" nType="-99"/>
          <Node pos="r" depth="2" NCoef="0" IVar="-1" Cut="0.0000000000000000e+00" cType="1" res="3.3950883895158768e-02" rms="2.3664920032024384e-01" purity="9.3954557180404663e-01" nType="-99"/>
        </Node>
      </Node>
    </BinaryTree>
    <BinaryTree type="DecisionTree" boostWeight="1.0000000000000000e+00" itree="8">
      <Node pos="s" depth="0" NCoef="0" IVar="10" Cut="2.6075009155273438e+02" cType="1" res="3.6173542030155659e-03" rms="4.6172925829887390e-01" purity="5.0506281852722168e-01" nType="0">
        <Node pos="l" depth="1" NCoef="0" IVar="4" Cut="1.0118709564208984e+02" cType="1" res="-9.1581076383590698e-02" rms="4.6910697221755981e-01" purity="3.6538535356521606e-01" nType="0">
          <Node pos="l" depth="2" NCoef="0" IVar="-1" Cut="0.0000000000000000e+00" cType="1" res="-1.2624159455299377e-02" rms="4.6161884069442749e-01" purity="3.2096293568611145e-01" nType="-99"/>
          <Node pos="r" depth="2" NCoef="0" IVar="-1" Cut="0.0000000000000000e+00" cType="1" res="1.6337553039193153e-02" rms="4.4946068525314331e-01" purity="7.0856559276580811e-01" nType="-99"/>
        </Node>
        <Node pos="r" depth="1" NCoef="0" IVar="2" Cut="3.3216300964355469e+01" cType="1" res="2.4481700360774994e-01" rms="3.3860754966735840e-01" purity="8.5895681381225586e-01" nType="0">
          <Node pos="l" depth="2" NCoef="0" IVar="-1" Cut="0.0000000000000000e+00" cType="1" res="7.2760325565468520e-05" rms="4.9305704236030579e-01" purity="5.9093058109283447e-01" nType="-99"/>
          <Node pos="r" depth="2" NCoef="0" IVar="-1" Cut="0.0000000000000000e+00" cType="1" res="2.8905194252729416e-02" rms="3.0487772822380066e-01" purity="8.8883769512176514e-01" nType="-99"/>
        </Node>
      </Node>
    </BinaryTree>
    <BinaryTree type="DecisionTree" boostWeight="1.0000000000000000e+00" itree="9">
      <Node pos="s" depth="0" NCoef="0" IVar="10" Cut="2.0979148864746094e+02" cType="1" res="9.1212345287203789e-03" rms="4.5659682154655457e-01" purity="5.1143449544906616e-01" nType="0">
        <Node pos="l" depth="1" NCoef="0" IVar="10" Cut="1.3936477661132812e+02" cType="1" res="-1.1470689624547958e-01" rms="4.5706364512443542e-01" purity="3.2422152161598206e-01" nType="0">
          <Node pos="l" depth="2" NCoef="0" IVar="-1" Cut="0.0000000000000000e+00" cType="1" res="-1.9276442006230354e-02" rms="4.1857892274856567e-01" purity="2.3514154553413391e-01" nType="-99"/>
          <Node pos="r" depth="2" NCoef="0" IVar="-1" Cut="0.0000000000000000e+00" cType="1" res="2.4356888025067747e-04" rms="4.9063688516616821e-01" purity="4.6717256307601929e-01" nType="-99"/>
        </Node>
        <Node pos="r" depth="1" NCoef="0" IVar="10" Cut="4.4008132934570312e+02" cType="1" res="1.9538179039955139e-01" rms="3.8740390539169312e-01" purity="7.9303765296936035e-01" nType="0">
          <Node pos="l" depth="2" NCoef="0" IVar="-1" Cut="0.0000000000000000e+00" cType="1" res="1.4869197271764278e-02" rms="4.4101721048355103e-01" purity="7.1479564905166626e-01" nType="-99"/>
          <Node pos="r" depth="2" NCoef="0" IVar="-1" Cut="0.0000000000000000e+00" cType="1" res="3.4235671162605286e-02" rms="1.8393556773662567e-01" purity="9.6487605571746826e-01" nType="-99"/>
        </Node>
      </Node>
    </BinaryTree>
    <BinaryTree type="DecisionTree" boostWeight="1.0000000000000000e+00" itree="10">
      <Node pos="s" depth="0" NCoef="0" IVar="10" Cut="2.8411935424804688e+02" cType="1" res="-2.2041550837457180e-03" rms="4.5737597346305847e-01" purity="5.0292742252349854e-01" nType="0">
        <Node pos="l" depth="1" NCoef="0" IVar="9" Cut="1.7654496765136719e+02" cType="1" res="-8.3750948309898376e-02" rms="4.6918156743049622e-01" purity="3.7469038367271423e-01" nType="0">
          <Node pos="l" depth="2" NCoef="0" IVar="-1" Cut="0.0000000000000000e+00" cType="1" res="-1.2720678001642227e-02" rms="4.5931422710418701e-01" purity="3.1795048713684082e-01" nType="-99"/>
          <Node pos="r" depth="2" NCoef="0" IVar="-1" Cut="0.0000000000000000e+00" cType="1" res="1.0222499258816242e-02" rms="4.6931219100952148e-01" purity="6.3087773323059082e-01" nType="-99"/>
        </Node>
        <Node pos="r" depth="1" NCoef="0" IVar="7" Cut="1.6804742813110352e+00" cType="1" res="2.4267967045307159e-01" rms="3.1049445271492004e-01" purity="8.8802134990692139e-01" nType="0">
          <Node pos="l" depth="2" NCoef="0" IVar="-1" Cut="0.0000000000000000e+00" cType="1" res="3.2780509442090988e-02" rms="2.1571832895278931e-01" purity="9.4957524538040161e-01" nType="-99"/>
          <Node pos="r" depth="2" NCoef="0" IVar="-1" Cut="0.0000000000000000e+00" cType="1" res="1.8678436055779457e-02" rms="3.9205676317214966e-01" purity="8.0662178993225098e-01" nType="-99"/>
        </Node>
      </Node>
    </BinaryTree>
    <BinaryTree type="DecisionTree" boostWeight="1.0000000000000000e+00" itree="11">
      <Node pos="s" depth="0" NCoef="0" IVar="10" Cut="2.2430513000488281e+02" cType="1" res="-8.6510023102164268e-03" rms="4.4987341761589050e-01" purity="4.9130353331565857e-01" nType="0">
        <Node pos="l" depth="1" NCoef="0" IVar="4" Cut="1.0221249389648438e+02" cType="1" res="-1.1523333191871643e-01" rms="4.5374539494514465e-01" purity="3.1797769665718079e-01" nType="0">
          <Node pos="l" depth="2" NCoef="0" IVar="-1" Cut="0.0000000000000000e+00" cType="1" res="-1.4491861686110497e-02" rms="4.4545808434486389e-01" purity="2.8029829263687134e-01" nType="-99"/>
          <Node pos="r" depth="2" NCoef="0" IVar="-1" Cut="0.0000000000000000e+00" cType="1" res="1.4235860668122768e-02" rms="4.5620810985565186e-01" purity="6.9141864776611328e-01" nType="-99"/>
        </Node>
        <Node pos="r" depth="1" NCoef="0" IVar="9" Cut="1.2005246734619141e+02" cType="1" res="1.9286695122718811e-01" rms="3.6562699079513550e-01" purity="8.1901514530181885e-01" nType="0">
          <Node pos="l" depth="2" NCoef="0" IVar="-1" Cut="0.0000000000000000e+00" cType="1" res="8.7259160354733467e-03" rms="4.4801869988441467e-01" purity="6.7995607852935791e-01" nType="-99"/>
          <Node pos="r" depth="2" NCoef="0" IVar="-1" Cut="0.0000000000000000e+00" cType="1" res="2.8092533349990845e-02" rms="2.9201373457908630e-01" purity="8.9718955755233765e-01" nType="-99"/>
        </Node>
      </Node>
    </BinaryTree>
    <BinaryTree type="DecisionTree" boostWeight="1.0000000000000000e+00" itree="12">
      <Node pos="s" depth="0" NCoef="0" IVar="10" Cut="2.2619152832031250e+02" cType="1" res="1.3135728659108281e-03" rms="4.5054006576538086e-01" purity="5.0381034612655640e-01" nType="0">
        <Node pos="l" depth="1" NCoef="0" IVar="9" Cut="1.9600769042968750e+02" cType="1" res="-9.4246096909046173e-02" rms="4.6031257510185242e-01" purity="3.3483359217643738e-01" nType="0">
          <Node pos="l" depth="2" NCoef="0" IVar="-1" Cut="0.0000000000000000e+00" cType="1" res="-1.2640068307518959e-02" rms="4.5238092541694641e-01" purity="2.9362389445304871e-01" nType="-99"/>
          <Node pos="r" depth="2" NCoef="0" IVar="-1" Cut="0.0000000000000000e+00" cType="1" res="1.4632008969783783e-02" rms="4.5785534381866455e-01" purity="6.8129038810729980e-01" nType="-99"/>
        </Node>
        <Node pos="r" depth="1" NCoef="0" IVar="10" Cut="2.9466409301757812e+02" cType="1" res="1.7365144193172455e-01" rms="3.7518569827079773e-01" purity="8.0855280160903931e-01" nType="0">
          <Node pos="l" depth="2" NCoef="0" IVar="-1" Cut="0.0000000000000000e+00" cType="1" res="7.3766326531767845e-03" rms="4.7328454256057739e-01" purity="6.3657903671264648e-01" nType="-99"/>
          <Node pos="r" depth="2" NCoef="0" IVar="-1" Cut="0.0000000000000000e+00" cType="1" res="2.5420667603611946e-02" rms="3.0331718921661377e-01" purity="8.9350402355194092e-01" nType="-99"/>
        </Node>
      </Node>
    </BinaryTree>
    <BinaryTree type="DecisionTree" boostWeight="1.0000000000000000e+00" itree="13">
      <Node pos="s" depth="0" NCoef="0" IVar="10" Cut="2.7092910766601562e+02" cType="1" res="1.3871160335838795e-02" rms="4.4498515129089355e-01" purity="5.1621168851852417e-01" nType="0">
        <Node pos="l" depth="1" NCoef="0" IVar="9" Cut="1.8509455871582031e+02" cType="1" res="-6.2094341963529587e-02" rms="4.6452739834785461e-01" purity="3.7623804807662964e-01" nType="0">
          <Node pos="l" depth="2" NCoef="0" IVar="-1" Cut="0.0000000000000000e+00" cType="1" res="-1.0400279425084591e-02" rms="4.5706892013549805e-01" purity="3.1852889060974121e-01" nType="-99"/>
          <Node pos="r" depth="2" NCoef="0" IVar="-1" Cut="0.0000000000000000e+00" cType="1" res="1.6084944829344749e-02" rms="4.4601574540138245e-01" purity="7.0498704910278320e-01" nType="-99"/>
        </Node>
        <Node pos="r" depth="1" NCoef="0" IVar="10" Cut="4.3502114868164062e+02" cType="1" res="2.1466869115829468e-01" rms="3.0896139144897461e-01" purity="8.8620030879974365e-01" nType="0">
          <Node pos="l" depth="2" NCoef="0" IVar="-1" Cut="0.0000000000000000e+00" cType="1" res="1.7660874873399734e-02" rms="3.9342430233955383e-01" purity="8.0542969703674316e-01" nType="-99"/>
          <Node pos="r" depth="2" NCoef="0" IVar="-1" Cut="0.0000000000000000e+00" cType="1" res="3.3461324870586395e-02" rms="1.3096593320369720e-01" purity="9.8258602619171143e-01" nType="-99"/>
        </Node>
      </Node>
    </BinaryTree>
    <BinaryTree type="DecisionTree" boostWeight="1.0000000000000000e+00" itree="14">
      <Node pos="s" depth="0" NCoef="0" IVar="10" Cut="1.9385449218750000e+02" cType="1" res="-3.1724837608635426e-03" rms="4.4410249590873718e-01" purity="4.9727302789688110e-01" nType="0">
        <Node pos="l" depth="1" NCoef="0" IVar="9" Cut="1.9794885253906250e+02" cType="1" res="-1.0637260973453522e-01" rms="4.4577923417091370e-01" purity="3.0272132158279419e-01" nType="0">
          <Node pos="l" depth="2" NCoef="0" IVar="-1" Cut="0.0000000000000000e+00" cType="1" res="-1.4047773554921150e-02" rms="4.3693849444389343e-01" purity="2.6269522309303284e-01" nType="-99"/>
          <Node pos="r" depth="2" NCoef="0" IVar="-1" Cut="0.0000000000000000e+00" cType="1" res="2.1782072260975838e-02" rms="4.2110702395439148e-01" purity="7.6164519786834717e-01" nType="-99"/>
        </Node>
        <Node pos="r" depth="1" NCoef="0" IVar="10" Cut="3.0801495361328125e+02" cType="1" res="1.2956410646438599e-01" rms="4.0495735406875610e-01" purity="7.4750649929046631e-01" nType="0">
          <Node pos="l" depth="2" NCoef="0" IVar="-1" Cut="0.0000000000000000e+00" cType="1" res="5.5955871939659119e-03" rms="4.8048791289329529e-01" purity="5.9099560976028442e-01" nType="-99"/>
          <Node pos="r" depth="2" NCoef="0" IVar="-1" Cut="0.0000000000000000e+00" cType="1" res="2.3922303691506386e-02" rms="2.9891645908355713e-01" purity="8.9731454849243164e-01" nType="-99"/>
        </Node>
      </Node>
    </BinaryTree>
    <BinaryTree type="DecisionTree" boostWeight="1.0000000000000000e+00" itree="15">
      <Node pos="s" depth="0" NCoef="0" IVar="12" Cut="1.2774215698242188e+02" cType="1" res="-1.9231786951422691e-02" rms="4.3977364897727966e-01" purity="4.8122501373291016e-01" nType="0">
        <Node pos="l" depth="1" NCoef="0" IVar="10" Cut="1.2596286773681641e+02" cType="1" res="-9.3267738819122314e-02" rms="4.5233672857284546e-01" purity="3.3466577529907227e-01" nType="0">
          <Node pos="l" depth="2" NCoef="0" IVar="-1" Cut="0.0000000000000000e+00" cType="1" res="-2.0011404529213905e-02" rms="3.9323145151138306e-01" purity="1.9632194936275482e-01" nType="-99"/>
          <Node pos="r" depth="2" NCoef="0" IVar="-1" Cut="0.0000000000000000e+00" cType="1" res="-2.2348740603774786e-03" rms="4.7974207997322083e-01" purity="4.3846550583839417e-01" nType="-99"/>
        </Node>
        <Node pos="r" depth="1" NCoef="0" IVar="11" Cut="7.8708106994628906e+01" cType="1" res="1.6830669343471527e-01" rms="3.4052276611328125e-01" purity="8.5247021913528442e-01" nType="0">
          <Node pos="l" depth="2" NCoef="0" IVar="-1" Cut="0.0000000000000000e+00" cType="1" res="7.6903612352907658e-03" rms="4.2066490650177002e-01" purity="7.3748987913131714e-01" nType="-99"/>
          <Node pos="r" depth="2" NCoef="0" IVar="-1" Cut="0.0000000000000000e+00" cType="1" res="2.6753116399049759e-02" rms="2.6877331733703613e-01" purity="9.1769963502883911e-01" nType="-99"/>
        </Node>
      </Node>
    </BinaryTree>
    <BinaryTree type="DecisionTree" boostWeight="1.0000000000000000e+00" itree="16">
      <Node pos="s" depth="0" NCoef="0" IVar="10" Cut="1.8285250854492188e+02" cType="1" res="2.1378523670136929e-03" rms="4.4057005643844604e-01" purity="5.0606358051300049e-01" nType="0">
        <Node pos="l" depth="1" NCoef="0" IVar="11" Cut="8.7064895629882812e+01" cType="1" res="-1.1030931025743484e-01" rms="4.4185295701026917e-01" purity="2.8899729251861572e-01" nType="0">
          <Node pos="l" depth="2" NCoef="0" IVar="-1" Cut="0.0000000000000000e+00" cType="1" res="-1.4574743807315826e-02" rms="4.2772713303565979e-01" purity="2.4520668387413025e-01" nType="-99"/>
          <Node pos="r" depth="2" NCoef="0" IVar="-1" Cut="0.0000000000000000e+00" cType="1" res="6.4784521237015724e-04" rms="4.8094248771667480e-01" purity="4.7727569937705994e-01" nType="-99"/>
        </Node>
        <Node pos="r" depth="1" NCoef="0" IVar="10" Cut="3.2497567749023438e+02" cType="1" res="1.2520098686218262e-01" rms="4.0482145547866821e-01" purity="7.4362277984619141e-01" nType="0">
          <Node pos="l" depth="2" NCoef="0" IVar="-1" Cut="0.0000000000000000e+00" cType="1" res="6.9094011560082436e-03" rms="4.7481015324592590e-01" purity="6.1060714721679688e-01" nType="-99"/>
          <Node pos="r" depth="2" NCoef="0" IVar="-1" Cut="0.0000000000000000e+00" cType="1" res="2.5136169046163559e-02" rms="2.6761519908905029e-01" purity="9.1983461380004883e-01" nType="-99"/>
        </Node>
      </Node>
    </BinaryTree>
    <BinaryTree type="DecisionTree" boostWeight="1.0000000000000000e+00" itree="17">
      <Node pos="s" depth="0" NCoef="0" IVar="10" Cut="1.6829583740234375e+02" cType="1" res="-1.2056166306138039e-03" rms="4.3643677234649658e-01" purity="4.9809449911117554e-01" nType="0">
        <Node pos="l" depth="1" NCoef="0" IVar="4" Cut="1.0073419952392578e+02" cType="1" res="-1.1677288264036179e-01" rms="4.3055838346481323e-01" purity="2.6845362782478333e-01" nType="0">
          <Node pos="l" depth="2" NCoef="0" IVar="-1" Cut="0.0000000000000000e+00" cType="1" res="-1.4530788175761700e-02" rms="4.2320257425308228e-01" purity="2.3803648352622986e-01" nType="-99"/>
          <Node pos="r" depth="2" NCoef="0" IVar="-1" Cut="0.0000000000000000e+00" cType="1" res="1.6867151483893394e-02" rms="4.4040033221244812e-01" purity="7.1828693151473999e-01" nType="-99"/>
        </Node>
        <Node pos="r" depth="1" NCoef="0" IVar="11" Cut="8.6536682128906250e+01" cType="1" res="1.0496106743812561e-01" rms="4.1426840424537659e-01" purity="7.0905572175979614e-01" nType="0">
          <Node pos="l" depth="2" NCoef="0" IVar="-1" Cut="0.0000000000000000e+00" cType="1" res="4.5934268273413181e-03" rms="4.5977696776390076e-01" purity="5.9619134664535522e-01" nType="-99"/>
          <Node pos="r" depth="2" NCoef="0" IVar="-1" Cut="0.0000000000000000e+00" cType="1" res="2.2935280576348305e-02" rms="3.1815102696418762e-01" purity="8.7051874399185181e-01" nType="-99"/>
        </Node>
      </Node>
    </BinaryTree>
    <BinaryTree type="DecisionTree" boostWeight="1.0000000000000000e+00" itree="18">
      <Node pos="s" depth="0" NCoef="0" IVar="10" Cut="2.5414678955078125e+02" cType="1" res="8.9705182472243905e-04" rms="4.3487524986267090e-01" purity="5.0207942724227905e-01" nType="0">
        <Node pos="l" depth="1" NCoef="0" IVar="4" Cut="9.8838920593261719e+01" cType="1" res="-6.9351129233837128e-02" rms="4.5560437440872192e-01" purity="3.4920543432235718e-01" nType="0">
          <Node pos="l" depth="2" NCoef="0" IVar="-1" Cut="0.0000000000000000e+00" cType="1" res="-9.8638711497187614e-03" rms="4.5080742239952087e-01" purity="3.0191639065742493e-01" nType="-99"/>
          <Node pos="r" depth="2" NCoef="0" IVar="-1" Cut="0.0000000000000000e+00" cType="1" res="1.0731440968811512e-02" rms="4.5325139164924622e-01" purity="6.9014763832092285e-01" nType="-99"/>
        </Node>
        <Node pos="r" depth="1" NCoef="0" IVar="2" Cut="3.4086990356445312e+01" cType="1" res="1.7076185345649719e-01" rms="3.2201704382896423e-01" purity="8.7173897027969360e-01" nType="0">
          <Node pos="l" depth="2" NCoef="0" IVar="-1" Cut="0.0000000000000000e+00" cType="1" res="-2.9740252066403627e-03" rms="4.7196400165557861e-01" purity="6.1690866947174072e-01" nType="-99"/>
          <Node pos="r" depth="2" NCoef="0" IVar="-1" Cut="0.0000000000000000e+00" cType="1" res="2.3726653307676315e-02" rms="2.9158392548561096e-01" purity="9.0100574493408203e-01" nType="-99"/>
        </Node>
      </Node>
    </BinaryTree>
    <BinaryTree type="DecisionTree" boostWeight="1.0000000000000000e+00" itree="19">
      <Node pos="s" depth="0" NCoef="0" IVar="10" Cut="2.2113693237304688e+02" cType="1" res="-1.4790281653404236e-02" rms="4.3359935283660889e-01" purity="4.8526579141616821e-01" nType="0">
        <Node pos="l" depth="1" NCoef="0" IVar="9" Cut="2.6324377441406250e+02" cType="1" res="-9.0013541281223297e-02" rms="4.4482281804084778e-01" purity="3.0922988057136536e-01" nType="0">
          <Node pos="l" depth="2" NCoef="0" IVar="-1" Cut="0.0000000000000000e+00" cType="1" res="-1.0920033790171146e-02" rms="4.4368195533752441e-01" purity="2.8842997550964355e-01" nType="-99"/>
          <Node pos="r" depth="2" NCoef="0" IVar="-1" Cut="0.0000000000000000e+00" cType="1" res="2.6885552331805229e-02" rms="3.2574298977851868e-01" purity="8.7624949216842651e-01" nType="-99"/>
        </Node>
        <Node pos="r" depth="1" NCoef="0" IVar="10" Cut="3.4412658691406250e+02" cType="1" res="1.1877892166376114e-01" rms="3.7764295935630798e-01" purity="7.9784160852432251e-01" nType="0">
          <Node pos="l" depth="2" NCoef="0" IVar="-1" Cut="0.0000000000000000e+00" cType="1" res="5.4326113313436508e-03" rms="4.6368151903152466e-01" purity="6.6310912370681763e-01" nType="-99"/>
          <Node pos="r" depth="2" NCoef="0" IVar="-1" Cut="0.0000000000000000e+00" cType="1" res="2.4580288678407669e-02" rms="2.4930682778358459e-01" purity="9.3054825067520142e-01" nType="-99"/>
        </Node>
      </Node>
    </BinaryTree>
    <BinaryTree type="DecisionTree" boostWeight="1.0000000000000000e+00" itree="20">
      <Node pos="s" depth="0" NCoef="0" IVar="10" Cut="1.4062956237792969e+02" cType="1" res="-6.3019134104251862e-03" rms="4.2882618308067322e-01" purity="4.9491283297538757e-01" nType="0">
        <Node pos="l" depth="1" NCoef="0" IVar="12" Cut="8.7805358886718750e+01" cType="1" res="-1.4756770431995392e-01" rms="4.0326464176177979e-01" purity="2.1573720872402191e-01" nType="0">
          <Node pos="l" depth="2" NCoef="0" IVar="-1" Cut="0.0000000000000000e+00" cType="1" res="-1.7324736341834068e-02" rms="3.9751309156417847e-01" purity="1.9933919608592987e-01" nType="-99"/>
          <Node pos="r" depth="2" NCoef="0" IVar="-1" Cut="0.0000000000000000e+00" cType="1" res="9.0014887973666191e-03" rms="4.5505735278129578e-01" purity="5.7699811458587646e-01" nType="-99"/>
        </Node>
        <Node pos="r" depth="1" NCoef="0" IVar="10" Cut="2.8852896118164062e+02" cType="1" res="8.2595288753509521e-02" rms="4.2049467563629150e-01" purity="6.7059534788131714e-01" nType="0">
          <Node pos="l" depth="2" NCoef="0" IVar="-1" Cut="0.0000000000000000e+00" cType="1" res="2.2866113577038050e-03" rms="4.8283824324607849e-01" purity="5.1239329576492310e-01" nType="-99"/>
          <Node pos="r" depth="2" NCoef="0" IVar="-1" Cut="0.0000000000000000e+00" cType="1" res="2.3226786404848099e-02" rms="2.7264788746833801e-01" purity="9.1719239950180054e-01" nType="-99"/>
        </Node>
      </Node>
    </BinaryTree>
    <BinaryTree type="DecisionTree" boostWeight="1.0000000000000000e+00" itree="21">
      <Node pos="s" depth="0" NCoef="0" IVar="10" Cut="1.7947718811035156e+02" cType="1" res="-1.0936147300526500e-03" rms="4.3125462532043457e-01" purity="4.9856770038604736e-01" nType="0">
        <Node pos="l" depth="1" NCoef="0" IVar="4" Cut="5.9973552703857422e+01" cType="1" res="-9.5507115125656128e-02" rms="4.3723458051681519e-01" purity="2.8121504187583923e-01" nType="0">
          <Node pos="l" depth="2" NCoef="0" IVar="-1" Cut="0.0000000000000000e+00" cType="1" res="-1.4514117501676083e-02" rms="4.1321307420730591e-01" purity="2.2129191458225250e-01" nType="-99"/>
          <Node pos="r" depth="2" NCoef="0" IVar="-1" Cut="0.0000000000000000e+00" cType="1" res="-5.4709604009985924e-03" rms="4.6081054210662842e-01" purity="3.5404255986213684e-01" nType="-99"/>
        </Node>
        <Node pos="r" depth="1" NCoef="0" IVar="10" Cut="3.4776416015625000e+02" cType="1" res="1.0365108400583267e-01" rms="3.9919665455818176e-01" purity="7.3970419168472290e-01" nType="0">
          <Node pos="l" depth="2" NCoef="0" IVar="-1" Cut="0.0000000000000000e+00" cType="1" res="6.3478071242570877e-03" rms="4.6590894460678101e-01" purity="6.1831128597259521e-01" nType="-99"/>
          <Node pos="r" depth="2" NCoef="0" IVar="-1" Cut="0.0000000000000000e+00" cType="1" res="2.4557514116168022e-02" rms="2.3562718927860260e-01" purity="9.4016242027282715e-01" nType="-99"/>
        </Node>
      </Node>
    </BinaryTree>
    <BinaryTree type="DecisionTree" boostWeight="1.0000000000000000e+00" itree="22">
      <Node pos="s" depth="0" NCoef="0" IVar="10" Cut="2.5741867065429688e+02" cType="1" res="-6.8306759931147099e-03" rms="4.3408340215682983e-01" purity="4.9797314405441284e-01" nType="0">
        <Node pos="l" depth="1" NCoef="0" IVar="6" Cut="3.2722327113151550e-01" cType="1" res="-5.7594265788793564e-02" rms="4.5608752965927124e-01" purity="3.5143390297889709e-01" nType="0">
          <Node pos="l" depth="2" NCoef="0" IVar="-1" Cut="0.0000000000000000e+00" cType="1" res="1.6621410846710205e-02" rms="4.6234121918678284e-01" purity="5.9640431404113770e-01" nType="-99"/>
          <Node pos="r" depth="2" NCoef="0" IVar="-1" Cut="0.0000000000000000e+00" cType="1" res="-7.4170208536088467e-03" rms="4.5293718576431274e-01" purity="3.3848157525062561e-01" nType="-99"/>
        </Node>
        <Node pos="r" depth="1" NCoef="0" IVar="7" Cut="1.6303157806396484e+00" cType="1" res="1.1489067226648331e-01" rms="3.4708270430564880e-01" purity="8.4934610128402710e-01" nType="0">
          <Node pos="l" depth="2" NCoef="0" IVar="-1" Cut="0.0000000000000000e+00" cType="1" res="2.3066831752657890e-02" rms="2.6441261172294617e-01" purity="9.2108809947967529e-01" nType="-99"/>
          <Node pos="r" depth="2" NCoef="0" IVar="-1" Cut="0.0000000000000000e+00" cType="1" res="5.8152810670435429e-03" rms="4.1822066903114319e-01" purity="7.6013541221618652e-01" nType="-99"/>
        </Node>
      </Node>
    </BinaryTree>
    <BinaryTree type="DecisionTree" boostWeight="1.0000000000000000e+00" itree="23">
      <Node pos="s" depth="0" NCoef="0" IVar="9" Cut="1.7776602172851562e+02" cType="1" res="-1.2015055865049362e-02" rms="4.3126562237739563e-01" purity="4.9027293920516968e-01" nType="0">
        <Node pos="l" depth="1" NCoef="0" IVar="10" Cut="1.8180111694335938e+02" cType="1" res="-5.9256322681903839e-02" rms="4.4140699505805969e-01" purity="3.8523945212364197e-01" nType="0">
          <Node pos="l" depth="2" NCoef="0" IVar="-1" Cut="0.0000000000000000e+00" cType="1" res="-1.2328107841312885e-02" rms="4.2190691828727722e-01" purity="2.3583483695983887e-01" nType="-99"/>
          <Node pos="r" depth="2" NCoef="0" IVar="-1" Cut="0.0000000000000000e+00" cType="1" res="2.8806417249143124e-03" rms="4.5889103412628174e-01" purity="6.2780392169952393e-01" nType="-99"/>
        </Node>
        <Node pos="r" depth="1" NCoef="0" IVar="7" Cut="2.1757423877716064e+00" cType="1" res="1.2265782058238983e-01" rms="3.6913648247718811e-01" purity="7.8969681262969971e-01" nType="0">
          <Node pos="l" depth="2" NCoef="0" IVar="-1" Cut="0.0000000000000000e+00" cType="1" res="2.3209508508443832e-02" rms="3.1267681717872620e-01" purity="8.7181675434112549e-01" nType="-99"/>
          <Node pos="r" depth="2" NCoef="0" IVar="-1" Cut="0.0000000000000000e+00" cType="1" res="1.9064209191128612e-03" rms="4.2902576923370361e-01" purity="6.4925891160964966e-01" nType="-99"/>
        </Node>
      </Node>
    </BinaryTree>
    <BinaryTree type="DecisionTree" boostWeight="1.0000000000000000e+00" itree="24">
      <Node pos="s" depth="0" NCoef="0" IVar="10" Cut="1.8245164489746094e+02" cType="1" res="4.3492941185832024e-03" rms="4.3376240134239197e-01" purity="5.1401567459106445e-01" nType="0">
        <Node pos="l" depth="1" NCoef="0" IVar="10" Cut="1.0007417297363281e+02" cType="1" res="-6.4048089087009430e-02" rms="4.4515070319175720e-01" purity="3.0414956808090210e-01" nType="0">
          <Node pos="l" depth="2" NCoef="0" IVar="-1" Cut="0.0000000000000000e+00" cType="1" res="-1.4640661887824535e-02" rms="4.0486028790473938e-01" purity="2.1202054619789124e-01" nType="-99"/>
          <Node pos="r" depth="2" NCoef="0" IVar="-1" Cut="0.0000000000000000e+00" cType="1" res="-3.8722413592040539e-03" rms="4.5852309465408325e-01" purity="3.4396630525588989e-01" nType="-99"/>
        </Node>
        <Node pos="r" depth="1" NCoef="0" IVar="12" Cut="2.6825872802734375e+02" cType="1" res="7.3217362165451050e-02" rms="4.1063168644905090e-01" purity="7.2532600164413452e-01" nType="0">
          <Node pos="l" depth="2" NCoef="0" IVar="-1" Cut="0.0000000000000000e+00" cType="1" res="5.2906386554241180e-03" rms="4.4664213061332703e-01" purity="6.6722524166107178e-01" nType="-99"/>
          <Node pos="r" depth="2" NCoef="0" IVar="-1" Cut="0.0000000000000000e+00" cType="1" res="3.0322806909680367e-02" rms="9.1567374765872955e-02" purity="9.9179458618164062e-01" nType="-99"/>
        </Node>
      </Node>
    </BinaryTree>
    <BinaryTree type="DecisionTree" boostWeight="1.0000000000000000e+00" itree="25">
      <Node pos="s" depth="0" NCoef="0" IVar="10" Cut="3.3353240966796875e+02" cType="1" res="-1.5532194636762142e-02" rms="4.3327739834785461e-01" purity="4.8474135994911194e-01" nType="0">
        <Node pos="l" depth="1" NCoef="0" IVar="9" Cut="2.6482666015625000e+02" cType="1" res="-5.2257888019084930e-02" rms="4.5635598897933960e-01" purity="3.8615345954895020e-01" nType="0">
          <Node pos="l" depth="2" NCoef="0" IVar="-1" Cut="0.0000000000000000e+00" cType="1" res="-7.2367098182439804e-03" rms="4.5776295661926270e-01" purity="3.5448086261749268e-01" nType="-99"/>
          <Node pos="r" depth="2" NCoef="0" IVar="-1" Cut="0.0000000000000000e+00" cType="1" res="1.7130395397543907e-02" rms="3.8467490673065186e-01" purity="8.3145242929458618e-01" nType="-99"/>
        </Node>
        <Node pos="r" depth="1" NCoef="0" IVar="13" Cut="1.2541431427001953e+02" cType="1" res="1.5159901976585388e-01" rms="2.4540540575981140e-01" purity="9.3339496850967407e-01" nType="0">
          <Node pos="l" depth="2" NCoef="0" IVar="-1" Cut="0.0000000000000000e+00" cType="1" res="2.8985135257244110e-02" rms="1.6097547113895416e-01" purity="9.7371041774749756e-01" nType="-99"/>
          <Node pos="r" depth="2" NCoef="0" IVar="-1" Cut="0.0000000000000000e+00" cType="1" res="1.6687577590346336e-02" rms="2.8996253013610840e-01" purity="9.0079534053802490e-01" nType="-99"/>
        </Node>
      </Node>
    </BinaryTree>
    <BinaryTree type="DecisionTree" boostWeight="1.0000000000000000e+00" itree="26">
      <Node pos="s" depth="0" NCoef="0" IVar="10" Cut="3.2715545654296875e+02" cType="1" res="2.4194759316742420e-03" rms="4.2758458852767944e-01" purity="5.0109636783599854e-01" nType="0">
        <Node pos="l" depth="1" NCoef="0" IVar="9" Cut="1.9676412963867188e+02" cType="1" res="-3.2841213047504425e-02" rms="4.5492732524871826e-01" purity="3.9419081807136536e-01" nType="0">
          <Node pos="l" depth="2" NCoef="0" IVar="-1" Cut="0.0000000000000000e+00" cType="1" res="-6.6133658401668072e-03" rms="4.5548042654991150e-01" purity="3.3600556850433350e-01" nType="-99"/>
          <Node pos="r" depth="2" NCoef="0" IVar="-1" Cut="0.0000000000000000e+00" cType="1" res="1.6185605898499489e-02" rms="4.0834087133407593e-01" purity="7.7267539501190186e-01" nType="-99"/>
        </Node>
        <Node pos="r" depth="1" NCoef="0" IVar="7" Cut="2.6710991859436035e+00" cType="1" res="1.4550909399986267e-01" rms="2.4369375407695770e-01" purity="9.3492460250854492e-01" nType="0">
          <Node pos="l" depth="2" NCoef="0" IVar="-1" Cut="0.0000000000000000e+00" cType="1" res="2.7367465198040009e-02" rms="1.6452759504318237e-01" purity="9.7140818834304810e-01" nType="-99"/>
          <Node pos="r" depth="2" NCoef="0" IVar="-1" Cut="0.0000000000000000e+00" cType="1" res="6.1270105652511120e-03" rms="3.8327276706695557e-01" purity="8.2022929191589355e-01" nType="-99"/>
        </Node>
      </Node>
    </BinaryTree>
    <BinaryTree type="DecisionTree" boostWeight="1.0000000000000000e+00" itree="27">
      <Node pos="s" depth="0" NCoef="0" IVar="10" Cut="1.7185620117187500e+02" cType="1" res="-1.0006751865148544e-02" rms="4.2704746127128601e-01" purity="4.8985338211059570e-01" nType="0">
        <Node pos="l" depth="1" NCoef="0" IVar="7" Cut="1.2668628692626953e+00" cType="1" res="-8.3540804684162140e-02" rms="4.3091437220573425e-01" purity="2.7013856172561646e-01" nType="0">
          <Node pos="l" depth="2" NCoef="0" IVar="-1" Cut="0.0000000000000000e+00" cType="1" res="1.6619210364297032e-03" rms="4.5750230550765991e-01" purity="3.8402873277664185e-01" nType="-99"/>
          <Node pos="r" depth="2" NCoef="0" IVar="-1" Cut="0.0000000000000000e+00" cType="1" res="-1.2657361105084419e-02" rms="4.1825574636459351e-01" purity="2.3630492389202118e-01" nType="-99"/>
        </Node>
        <Node pos="r" depth="1" NCoef="0" IVar="13" Cut="4.2352436065673828e+01" cType="1" res="6.3475295901298523e-02" rms="4.1018432378768921e-01" purity="7.0941275358200073e-01" nType="0">
          <Node pos="l" depth="2" NCoef="0" IVar="-1" Cut="0.0000000000000000e+00" cType="1" res="2.5483770295977592e-02" rms="3.7342366576194763e-01" purity="7.7007496356964111e-01" nType="-99"/>
          <Node pos="r" depth="2" NCoef="0" IVar="-1" Cut="0.0000000000000000e+00" cType="1" res="5.8341529220342636e-03" rms="4.0988051891326904e-01" purity="7.0358908176422119e-01" nType="-99"/>
        </Node>
      </Node>
    </BinaryTree>
    <BinaryTree type="DecisionTree" boostWeight="1.0000000000000000e+00" itree="28">
      <Node pos="s" depth="0" NCoef="0" IVar="12" Cut="1.1984790039062500e+02" cType="1" res="-5.5476295528933406e-04" rms="4.2627018690109253e-01" purity="5.0216400623321533e-01" nType="0">
        <Node pos="l" depth="1" NCoef="0" IVar="9" Cut="2.0754861450195312e+02" cType="1" res="-4.6397641301155090e-02" rms="4.5085525512695312e-01" purity="3.4206634759902954e-01" nType="0">
          <Node pos="l" depth="2" NCoef="0" IVar="-1" Cut="0.0000000000000000e+00" cType="1" res="-6.3736098818480968e-03" rms="4.4933423399925232e-01" purity="3.2030421495437622e-01" nType="-99"/>
          <Node pos="r" depth="2" NCoef="0" IVar="-1" Cut="0.0000000000000000e+00" cType="1" res="1.4496573247015476e-02" rms="4.3504765629768372e-01" purity="6.9993674755096436e-01" nType="-99"/>
        </Node>
        <Node pos="r" depth="1" NCoef="0" IVar="7" Cut="3.0284132957458496e+00" cType="1" res="9.7310148179531097e-02" rms="3.4872242808341980e-01" purity="8.4393882751464844e-01" nType="0">
          <Node pos="l" depth="2" NCoef="0" IVar="-1" Cut="0.0000000000000000e+00" cType="1" res="1.5966840088367462e-02" rms="3.3004841208457947e-01" purity="8.6259502172470093e-01" nType="-99"/>
          <Node pos="r" depth="2" NCoef="0" IVar="-1" Cut="0.0000000000000000e+00" cType="1" res="-1.5341049060225487e-02" rms="4.6525603532791138e-01" purity="6.3328719139099121e-01" nType="-99"/>
        </Node>
      </Node>
    </BinaryTree>
    <BinaryTree type="DecisionTree" boostWeight="1.0000000000000000e+00" itree="29">
      <Node pos="s" depth="0" NCoef="0" IVar="10" Cut="3.2382598876953125e+02" cType="1" res="1.3361756689846516e-02" rms="4.3172475695610046e-01" purity="5.2047502994537354e-01" nType="0">
        <Node pos="l" depth="1" NCoef="0" IVar="11" Cut="6.8087303161621094e+01" cType="1" res="-1.2698321603238583e-02" rms="4.6043765544891357e-01" purity="4.1688513755798340e-01" nType="0">
          <Node pos="l" depth="2" NCoef="0" IVar="-1" Cut="0.0000000000000000e+00" cType="1" res="-5.1670563407242298e-03" rms="4.5670047402381897e-01" purity="3.3825635910034180e-01" nType="-99"/>
          <Node pos="r" depth="2" NCoef="0" IVar="-1" Cut="0.0000000000000000e+00" cType="1" res="3.8420846685767174e-03" rms="4.6145445108413696e-01" purity="5.2652418613433838e-01" nType="-99"/>
        </Node>
        <Node pos="r" depth="1" NCoef="0" IVar="10" Cut="5.9807257080078125e+02" cType="1" res="1.1208291351795197e-01" rms="2.7753680944442749e-01" purity="9.1289579868316650e-01" nType="0">
          <Node pos="l" depth="2" NCoef="0" IVar="-1" Cut="0.0000000000000000e+00" cType="1" res="1.2679963372647762e-02" rms="3.2885399460792542e-01" purity="8.7437933683395386e-01" nType="-99"/>
          <Node pos="r" depth="2" NCoef="0" IVar="-1" Cut="0.0000000000000000e+00" cType="1" res="3.0495299026370049e-02" rms="2.1315036341547966e-02" purity="1.0000000000000000e+00" nType="-99"/>
        </Node>
      </Node>
    </BinaryTree>
    <BinaryTree type="DecisionTree" boostWeight="1.0000000000000000e+00" itree="30">
      <Node pos="s" depth="0" NCoef="0" IVar="10" Cut="1.3176835632324219e+02" cType="1" res="6.2025869265198708e-03" rms="4.3103531002998352e-01" purity="5.1534551382064819e-01" nType="0">
        <Node pos="l" depth="1" NCoef="0" IVar="4" Cut="9.9426773071289062e+01" cType="1" res="-7.7885620296001434e-02" rms="4.2045634984970093e-01" purity="2.4564731121063232e-01" nType="0">
          <Node pos="l" depth="2" NCoef="0" IVar="-1" Cut="0.0000000000000000e+00" cType="1" res="-1.0582385584712029e-02" rms="4.1460394859313965e-01" purity="2.2129191458225250e-01" nType="-99"/>
          <Node pos="r" depth="2" NCoef="0" IVar="-1" Cut="0.0000000000000000e+00" cType="1" res="1.5465070493519306e-02" rms="4.5701515674591064e-01" purity="6.8133622407913208e-01" nType="-99"/>
        </Node>
        <Node pos="r" depth="1" NCoef="0" IVar="10" Cut="4.3016384887695312e+02" cType="1" res="4.3293133378028870e-02" rms="4.3043017387390137e-01" purity="6.3430696725845337e-01" nType="0">
          <Node pos="l" depth="2" NCoef="0" IVar="-1" Cut="0.0000000000000000e+00" cType="1" res="2.2275724913924932e-03" rms="4.6718114614486694e-01" purity="5.5740112066268921e-01" nType="-99"/>
          <Node pos="r" depth="2" NCoef="0" IVar="-1" Cut="0.0000000000000000e+00" cType="1" res="2.5432478636503220e-02" rms="1.6635504364967346e-01" purity="9.7138756513595581e-01" nType="-99"/>
        </Node>
      </Node>
    </BinaryTree>
    <BinaryTree type="DecisionTree" boostWeight="1.0000000000000000e+00" itree="31">
      <Node pos="s" depth="0" NCoef="0" IVar="10" Cut="2.0148451232910156e+02" cType="1" res="1.1366139166057110e-02" rms="4.2411687970161438e-01" purity="5.1843231916427612e-01" nType="0">
        <Node pos="l" depth="1" NCoef="0" IVar="6" Cut="2.9095606803894043e+00" cType="1" res="-3.9465732872486115e-02" rms="4.4882139563560486e-01" purity="3.2345518469810486e-01" nType="0">
          <Node pos="l" depth="2" NCoef="0" IVar="-1" Cut="0.0000000000000000e+00" cType="1" res="-6.1748209409415722e-03" rms="4.4661456346511841e-01" purity="3.0362743139266968e-01" nType="-99"/>
          <Node pos="r" depth="2" NCoef="0" IVar="-1" Cut="0.0000000000000000e+00" cType="1" res="9.8530277609825134e-03" rms="4.4671827554702759e-01" purity="4.8532009124755859e-01" nType="-99"/>
        </Node>
        <Node pos="r" depth="1" NCoef="0" IVar="4" Cut="6.6822929382324219e+01" cType="1" res="8.0410584807395935e-02" rms="3.7723475694656372e-01" purity="7.8326779603958130e-01" nType="0">
          <Node pos="l" depth="2" NCoef="0" IVar="-1" Cut="0.0000000000000000e+00" cType="1" res="2.4612918496131897e-03" rms="4.4420650601387024e-01" purity="6.5612745285034180e-01" nType="-99"/>
          <Node pos="r" depth="2" NCoef="0" IVar="-1" Cut="0.0000000000000000e+00" cType="1" res="1.7776044085621834e-02" rms="3.1207007169723511e-01" purity="8.7668138742446899e-01" nType="-99"/>
        </Node>
      </Node>
    </BinaryTree>
    <BinaryTree type="DecisionTree" boostWeight="1.0000000000000000e+00" itree="32">
      <Node pos="s" depth="0" NCoef="0" IVar="10" Cut="3.0748864746093750e+02" cType="1" res="-7.1805603802204132e-03" rms="4.2052289843559265e-01" purity="4.9312323331832886e-01" nType="0">
        <Node pos="l" depth="1" NCoef="0" IVar="11" Cut="1.0437716674804688e+02" cType="1" res="-4.0616605430841446e-02" rms="4.4937318563461304e-01" purity="3.7449038028717041e-01" nType="0">
          <Node pos="l" depth="2" NCoef="0" IVar="-1" Cut="0.0000000000000000e+00" cType="1" res="-6.8656033836305141e-03" rms="4.5088440179824829e-01" purity="3.2322210073471069e-01" nType="-99"/>
          <Node pos="r" depth="2" NCoef="0" IVar="-1" Cut="0.0000000000000000e+00" cType="1" res="1.0740411467850208e-02" rms="4.1451296210289001e-01" purity="7.0385849475860596e-01" nType="-99"/>
        </Node>
        <Node pos="r" depth="1" NCoef="0" IVar="13" Cut="1.0059341430664062e+02" cType="1" res="1.1354017257690430e-01" rms="2.6003441214561462e-01" purity="9.2144691944122314e-01" nType="0">
          <Node pos="l" depth="2" NCoef="0" IVar="-1" Cut="0.0000000000000000e+00" cType="1" res="2.8952093794941902e-02" rms="1.4159132540225983e-01" purity="9.7932302951812744e-01" nType="-99"/>
          <Node pos="r" depth="2" NCoef="0" IVar="-1" Cut="0.0000000000000000e+00" cType="1" res="1.3290954753756523e-02" rms="2.9309985041618347e-01" purity="8.9463597536087036e-01" nType="-99"/>
        </Node>
      </Node>
    </BinaryTree>
    <BinaryTree type="DecisionTree" boostWeight="1.0000000000000000e+00" itree="33">
      <Node pos="s" depth="0" NCoef="0" IVar="10" Cut="1.3375123596191406e+02" cType="1" res="-3.2970011234283447e-03" rms="4.2245966196060181e-01" purity="4.9416959285736084e-01" nType="0">
        <Node pos="l" depth="1" NCoef="0" IVar="12" Cut="7.2972335815429688e+01" cType="1" res="-8.5918493568897247e-02" rms="4.1302543878555298e-01" purity="2.3151411116123199e-01" nType="0">
          <Node pos="l" depth="2" NCoef="0" IVar="-1" Cut="0.0000000000000000e+00" cType="1" res="-1.2264024466276169e-02" rms="4.0159955620765686e-01" purity="2.0311383903026581e-01" nType="-99"/>
          <Node pos="r" depth="2" NCoef="0" IVar="-1" Cut="0.0000000000000000e+00" cType="1" res="1.0548263788223267e-02" rms="4.7969925403594971e-01" purity="5.2461522817611694e-01" nType="-99"/>
        </Node>
        <Node pos="r" depth="1" NCoef="0" IVar="11" Cut="6.4488655090332031e+01" cType="1" res="3.9870306849479675e-02" rms="4.2090424895286560e-01" purity="6.3139939308166504e-01" nType="0">
          <Node pos="l" depth="2" NCoef="0" IVar="-1" Cut="0.0000000000000000e+00" cType="1" res="-2.2545496467500925e-03" rms="4.6412551403045654e-01" purity="4.9149706959724426e-01" nType="-99"/>
          <Node pos="r" depth="2" NCoef="0" IVar="-1" Cut="0.0000000000000000e+00" cType="1" res="1.2042660266160965e-02" rms="3.7137806415557861e-01" purity="7.5348174571990967e-01" nType="-99"/>
        </Node>
      </Node>
    </BinaryTree>
    <BinaryTree type="DecisionTree" boostWeight="1.0000000000000000e+00" itree="34">
      <Node pos="s" depth="0" NCoef="0" IVar="10" Cut="2.9539669799804688e+02" cType="1" res="7.1907509118318558e-03" rms="4.2738416790962219e-01" purity="5.1275050640106201e-01" nType="0">
        <Node pos="l" depth="1" NCoef="0" IVar="4" Cut="1.5039799499511719e+02" cType="1" res="-2.1531030535697937e-02" rms="4.6010553836822510e-01" purity="3.8965731859207153e-01" nType="0">
          <Node pos="l" depth="2" NCoef="0" IVar="-1" Cut="0.0000000000000000e+00" cType="1" res="-3.3561920281499624e-03" rms="4.6355143189430237e-01" purity="3.6943593621253967e-01" nType="-99"/>
          <Node pos="r" depth="2" NCoef="0" IVar="-1" Cut="0.0000000000000000e+00" cType="1" res="2.5308543816208839e-02" rms="2.7414903044700623e-01" purity="9.2075902223587036e-01" nType="-99"/>
        </Node>
        <Node pos="r" depth="1" NCoef="0" IVar="13" Cut="1.1220184326171875e+02" cType="1" res="9.9755287170410156e-02" rms="2.7899950742721558e-01" purity="9.0945500135421753e-01" nType="0">
          <Node pos="l" depth="2" NCoef="0" IVar="-1" Cut="0.0000000000000000e+00" cType="1" res="2.6486162096261978e-02" rms="1.8653368949890137e-01" purity="9.6226447820663452e-01" nType="-99"/>
          <Node pos="r" depth="2" NCoef="0" IVar="-1" Cut="0.0000000000000000e+00" cType="1" res="8.4826098755002022e-03" rms="3.1930890679359436e-01" purity="8.7219178676605225e-01" nType="-99"/>
        </Node>
      </Node>
    </BinaryTree>
    <BinaryTree type="DecisionTree" boostWeight="1.0000000000000000e+00" itree="35">
      <Node pos="s" depth="0" NCoef="0" IVar="10" Cut="4.3212478637695312e+02" cType="1" res="-1.0955588892102242e-02" rms="4.3343022465705872e-01" purity="4.9777650833129883e-01" nType="0">
        <Node pos="l" depth="1" NCoef="0" IVar="9" Cut="2.9992297363281250e+02" cType="1" res="-2.8506932780146599e-02" rms="4.5414409041404724e-01" purity="4.3315795063972473e-01" nType="0">
          <Node pos="l" depth="2" NCoef="0" IVar="-1" Cut="0.0000000000000000e+00" cType="1" res="-4.3372786603868008e-03" rms="4.5949861407279968e-01" purity="4.0385910868644714e-01" nType="-99"/>
          <Node pos="r" depth="2" NCoef="0" IVar="-1" Cut="0.0000000000000000e+00" cType="1" res="1.6420600935816765e-02" rms="3.3042889833450317e-01" purity="8.8138639926910400e-01" nType="-99"/>
        </Node>
        <Node pos="r" depth="1" NCoef="0" IVar="1" Cut="6.0194911956787109e+01" cType="1" res="1.1446896940469742e-01" rms="1.9633223116397858e-01" purity="9.5955044031143188e-01" nType="0">
          <Node pos="l" depth="2" NCoef="0" IVar="-1" Cut="0.0000000000000000e+00" cType="1" res="2.7147108688950539e-02" rms="1.1582402139902115e-01" purity="9.8669689893722534e-01" nType="-99"/>
          <Node pos="r" depth="2" NCoef="0" IVar="-1" Cut="0.0000000000000000e+00" cType="1" res="-1.1972362175583839e-02" rms="4.1056209802627563e-01" purity="7.7986931800842285e-01" nType="-99"/>
        </Node>
      </Node>
    </BinaryTree>
    <BinaryTree type="DecisionTree" boostWeight="1.0000000000000000e+00" itree="36">
      <Node pos="s" depth="0" NCoef="0" IVar="10" Cut="1.3738815307617188e+02" cType="1" res="-1.1226017028093338e-02" rms="4.2126479744911194e-01" purity="4.9493870139122009e-01" nType="0">
        <Node pos="l" depth="1" NCoef="0" IVar="6" Cut="2.9033980369567871e+00" cType="1" res="-8.9247308671474457e-02" rms="4.0660259127616882e-01" purity="2.2537332773208618e-01" nType="0">
          <Node pos="l" depth="2" NCoef="0" IVar="-1" Cut="0.0000000000000000e+00" cType="1" res="-1.3154880143702030e-02" rms="3.9498376846313477e-01" purity="1.9909501075744629e-01" nType="-99"/>
          <Node pos="r" depth="2" NCoef="0" IVar="-1" Cut="0.0000000000000000e+00" cType="1" res="8.7214959785342216e-03" rms="4.5448344945907593e-01" purity="4.2822122573852539e-01" nType="-99"/>
        </Node>
        <Node pos="r" depth="1" NCoef="0" IVar="7" Cut="1.6302428245544434e+00" cType="1" res="3.0800744891166687e-02" rms="4.2303335666656494e-01" purity="6.4014214277267456e-01" nType="0">
          <Node pos="l" depth="2" NCoef="0" IVar="-1" Cut="0.0000000000000000e+00" cType="1" res="1.1193564161658287e-02" rms="3.7800762057304382e-01" purity="7.4376571178436279e-01" nType="-99"/>
          <Node pos="r" depth="2" NCoef="0" IVar="-1" Cut="0.0000000000000000e+00" cType="1" res="-2.2077055182307959e-03" rms="4.5552688837051392e-01" purity="5.4352825880050659e-01" nType="-99"/>
        </Node>
      </Node>
    </BinaryTree>
    <BinaryTree type="DecisionTree" boostWeight="1.0000000000000000e+00" itree="37">
      <Node pos="s" depth="0" NCoef="0" IVar="9" Cut="1.7286393737792969e+02" cType="1" res="-3.1642813701182604e-03" rms="4.1989701986312866e-01" purity="4.9641025066375732e-01" nType="0">
        <Node pos="l" depth="1" NCoef="0" IVar="10" Cut="4.6315020751953125e+02" cType="1" res="-4.1216541081666946e-02" rms="4.3662488460540771e-01" purity="3.8658756017684937e-01" nType="0">
          <Node pos="l" depth="2" NCoef="0" IVar="-1" Cut="0.0000000000000000e+00" cType="1" res="-5.8860280551016331e-03" rms="4.4463673233985901e-01" purity="3.5382577776908875e-01" nType="-99"/>
          <Node pos="r" depth="2" NCoef="0" IVar="-1" Cut="0.0000000000000000e+00" cType="1" res="2.3646535351872444e-02" rms="1.8660920858383179e-01" purity="9.6428179740905762e-01" nType="-99"/>
        </Node>
        <Node pos="r" depth="1" NCoef="0" IVar="14" Cut="2.1759284973144531e+01" cType="1" res="1.0879111289978027e-01" rms="3.4258550405502319e-01" purity="8.1952494382858276e-01" nType="0">
          <Node pos="l" depth="2" NCoef="0" IVar="-1" Cut="0.0000000000000000e+00" cType="1" res="2.9361834749579430e-02" rms="2.9257595539093018e-01" purity="8.7384641170501709e-01" nType="-99"/>
          <Node pos="r" depth="2" NCoef="0" IVar="-1" Cut="0.0000000000000000e+00" cType="1" res="1.1872031725943089e-02" rms="3.4671545028686523e-01" purity="8.0769550800323486e-01" nType="-99"/>
        </Node>
      </Node>
    </BinaryTree>
    <BinaryTree type="DecisionTree" boostWeight="1.0000000000000000e+00" itree="38">
      <Node pos="s" depth="0" NCoef="0" IVar="10" Cut="1.2977462768554688e+02" cType="1" res="6.8922098726034164e-03" rms="4.1891598701477051e-01" purity="5.0977027416229248e-01" nType="0">
        <Node pos="l" depth="1" NCoef="0" IVar="12" Cut="4.5681716918945312e+01" cType="1" res="-6.6938780248165131e-02" rms="4.1391932964324951e-01" purity="2.3385064303874969e-01" nType="0">
          <Node pos="l" depth="2" NCoef="0" IVar="-1" Cut="0.0000000000000000e+00" cType="1" res="-1.3859549537301064e-02" rms="3.7655431032180786e-01" purity="1.7053659260272980e-01" nType="-99"/>
          <Node pos="r" depth="2" NCoef="0" IVar="-1" Cut="0.0000000000000000e+00" cType="1" res="-2.8033775743097067e-03" rms="4.4233101606369019e-01" purity="2.9424160718917847e-01" nType="-99"/>
        </Node>
        <Node pos="r" depth="1" NCoef="0" IVar="4" Cut="6.5613594055175781e+01" cType="1" res="4.1472475975751877e-02" rms="4.1676229238510132e-01" purity="6.3900291919708252e-01" nType="0">
          <Node pos="l" depth="2" NCoef="0" IVar="-1" Cut="0.0000000000000000e+00" cType="1" res="-6.1188515974208713e-04" rms="4.5638656616210938e-01" purity="5.0355988740921021e-01" nType="-99"/>
          <Node pos="r" depth="2" NCoef="0" IVar="-1" Cut="0.0000000000000000e+00" cType="1" res="1.2258035130798817e-02" rms="3.6572569608688354e-01" purity="7.7760511636734009e-01" nType="-99"/>
        </Node>
      </Node>
    </BinaryTree>
    <BinaryTree type="DecisionTree" boostWeight="1.0000000000000000e+00" itree="39">
      <Node pos="s" depth="0" NCoef="0" IVar="10" Cut="4.3117800903320312e+02" cType="1" res="-2.3580785840749741e-02" rms="4.2161473631858826e-01" purity="4.7528034448623657e-01" nType="0">
        <Node pos="l" depth="1" NCoef="0" IVar="5" Cut="1.6321316957473755e+00" cType="1" res="-4.1024509817361832e-02" rms="4.4119498133659363e-01" purity="4.0973660349845886e-01" nType="0">
          <Node pos="l" depth="2" NCoef="0" IVar="-1" Cut="0.0000000000000000e+00" cType="1" res="-1.5857124701142311e-02" rms="4.3259218335151672e-01" purity="2.9754883050918579e-01" nType="-99"/>
          <Node pos="r" depth="2" NCoef="0" IVar="-1" Cut="0.0000000000000000e+00" cType="1" res="-2.3788036778569221e-03" rms="4.4022032618522644e-01" purity="4.3370380997657776e-01" nType="-99"/>
        </Node>
        <Node pos="r" depth="1" NCoef="0" IVar="8" Cut="1.0920462608337402e+01" cType="1" res="1.0678637027740479e-01" rms="1.7952816188335419e-01" purity="9.6512740850448608e-01" nType="0">
          <Node pos="l" depth="2" NCoef="0" IVar="-1" Cut="0.0000000000000000e+00" cType="1" res="3.9700041525065899e-03" rms="3.2741519808769226e-01" purity="8.7395942211151123e-01" nType="-99"/>
          <Node pos="r" depth="2" NCoef="0" IVar="-1" Cut="0.0000000000000000e+00" cType="1" res="2.7664534747600555e-02" rms="8.2522347569465637e-02" purity="9.9244624376296997e-01" nType="-99"/>
        </Node>
      </Node>
    </BinaryTree>
    <BinaryTree type="DecisionTree" boostWeight="1.0000000000000000e+00" itree="40">
      <Node pos="s" depth="0" NCoef="0" IVar="10" Cut="3.2427606201171875e+02" cType="1" res="5.3812242113053799e-03" rms="4.1277337074279785e-01" purity="5.0165331363677979e-01" nType="0">
        <Node pos="l" depth="1" NCoef="0" IVar="10" Cut="1.3976837158203125e+02" cType="1" res="-2.1875336766242981e-02" rms="4.4592300057411194e-01" purity="3.9176809787750244e-01" nType="0">
          <Node pos="l" depth="2" NCoef="0" IVar="-1" Cut="0.0000000000000000e+00" cType="1" res="-8.0489944666624069e-03" rms="4.1031575202941895e-01" purity="2.3695747554302216e-01" nType="-99"/>
          <Node pos="r" depth="2" NCoef="0" IVar="-1" Cut="0.0000000000000000e+00" cType="1" res="1.9798516295850277e-03" rms="4.7208368778228760e-01" purity="5.3079426288604736e-01" nType="-99"/>
        </Node>
        <Node pos="r" depth="1" NCoef="0" IVar="12" Cut="1.4469506835937500e+02" cType="1" res="1.1973967403173447e-01" rms="1.8643052875995636e-01" purity="9.6269124746322632e-01" nType="0">
          <Node pos="l" depth="2" NCoef="0" IVar="-1" Cut="0.0000000000000000e+00" cType="1" res="3.2351385802030563e-02" rms="4.2255617678165436e-02" purity="1.0000000000000000e+00" nType="-99"/>
          <Node pos="r" depth="2" NCoef="0" IVar="-1" Cut="0.0000000000000000e+00" cType="1" res="2.1313950419425964e-02" rms="1.9373254477977753e-01" purity="9.5795071125030518e-01" nType="-99"/>
        </Node>
      </Node>
    </BinaryTree>
    <BinaryTree type="DecisionTree" boostWeight="1.0000000000000000e+00" itree="41">
      <Node pos="s" depth="0" NCoef="0" IVar="10" Cut="3.2306817626953125e+02" cType="1" res="5.2164644002914429e-03" rms="4.2410731315612793e-01" purity="5.1489180326461792e-01" nType="0">
        <Node pos="l" depth="1" NCoef="0" IVar="4" Cut="2.4251893997192383e+01" cType="1" res="-1.4329929836094379e-02" rms="4.5637777447700500e-01" purity="4.0536278486251831e-01" nType="0">
          <Node pos="l" depth="2" NCoef="0" IVar="-1" Cut="0.0000000000000000e+00" cType="1" res="9.6908109262585640e-03" rms="4.7158697247505188e-01" purity="4.4355693459510803e-01" nType="-99"/>
          <Node pos="r" depth="2" NCoef="0" IVar="-1" Cut="0.0000000000000000e+00" cType="1" res="-2.7681735809892416e-03" rms="4.5368146896362305e-01" purity="4.0159642696380615e-01" nType="-99"/>
        </Node>
        <Node pos="r" depth="1" NCoef="0" IVar="7" Cut="3.0277624130249023e+00" cType="1" res="7.7486716210842133e-02" rms="2.6110446453094482e-01" purity="9.1986107826232910e-01" nType="0">
          <Node pos="l" depth="2" NCoef="0" IVar="-1" Cut="0.0000000000000000e+00" cType="1" res="2.0305007696151733e-02" rms="2.0985512435436249e-01" purity="9.4971573352813721e-01" nType="-99"/>
          <Node pos="r" depth="2" NCoef="0" IVar="-1" Cut="0.0000000000000000e+00" cType="1" res="-2.9730705544352531e-02" rms="4.6675696969032288e-01" purity="6.4877265691757202e-01" nType="-99"/>
        </Node>
      </Node>
    </BinaryTree>
    <BinaryTree type="DecisionTree" boostWeight="1.0000000000000000e+00" itree="42">
      <Node pos="s" depth="0" NCoef="0" IVar="10" Cut="2.0076196289062500e+02" cType="1" res="-3.6689806729555130e-03" rms="4.1461929678916931e-01" purity="4.9780303239822388e-01" nType="0">
        <Node pos="l" depth="1" NCoef="0" IVar="9" Cut="2.6091952514648438e+02" cType="1" res="-4.7333147376775742e-02" rms="4.3592050671577454e-01" purity="2.9707989096641541e-01" nType="0">
          <Node pos="l" depth="2" NCoef="0" IVar="-1" Cut="0.0000000000000000e+00" cType="1" res="-6.5712975338101387e-03" rms="4.3763267993927002e-01" purity="2.7738556265830994e-01" nType="-99"/>
          <Node pos="r" depth="2" NCoef="0" IVar="-1" Cut="0.0000000000000000e+00" cType="1" res="3.1453359872102737e-02" rms="2.0253264904022217e-01" purity="9.5769792795181274e-01" nType="-99"/>
        </Node>
        <Node pos="r" depth="1" NCoef="0" IVar="13" Cut="7.9548988342285156e+01" cType="1" res="5.7672943919897079e-02" rms="3.7418621778488159e-01" purity="7.7979040145874023e-01" nType="0">
          <Node pos="l" depth="2" NCoef="0" IVar="-1" Cut="0.0000000000000000e+00" cType="1" res="1.5342931263148785e-02" rms="3.8773795962333679e-01" purity="7.6148569583892822e-01" nType="-99"/>
          <Node pos="r" depth="2" NCoef="0" IVar="-1" Cut="0.0000000000000000e+00" cType="1" res="1.9948082044720650e-03" rms="3.5801604390144348e-01" purity="7.9146873950958252e-01" nType="-99"/>
        </Node>
      </Node>
    </BinaryTree>
    <BinaryTree type="DecisionTree" boostWeight="1.0000000000000000e+00" itree="43">
      <Node pos="s" depth="0" NCoef="0" IVar="10" Cut="3.4863024902343750e+02" cType="1" res="-1.0413970798254013e-02" rms="4.1821664571762085e-01" purity="4.8842284083366394e-01" nType="0">
        <Node pos="l" depth="1" NCoef="0" IVar="7" Cut="1.2476521730422974e+00" cType="1" res="-3.1419415026903152e-02" rms="4.4659054279327393e-01" purity="3.9136230945587158e-01" nType="0">
          <Node pos="l" depth="2" NCoef="0" IVar="-1" Cut="0.0000000000000000e+00" cType="1" res="4.5273071154952049e-03" rms="4.3708941340446472e-01" purity="5.2098977565765381e-01" nType="-99"/>
          <Node pos="r" depth="2" NCoef="0" IVar="-1" Cut="0.0000000000000000e+00" cType="1" res="-7.0338733494281769e-03" rms="4.4729503989219666e-01" purity="3.3635821938514709e-01" nType="-99"/>
        </Node>
        <Node pos="r" depth="1" NCoef="0" IVar="1" Cut="6.3027820587158203e+01" cType="1" res="8.8085792958736420e-02" rms="2.1924747526645660e-01" purity="9.4356393814086914e-01" nType="0">
          <Node pos="l" depth="2" NCoef="0" IVar="-1" Cut="0.0000000000000000e+00" cType="1" res="2.2120656445622444e-02" rms="1.7989467084407806e-01" purity="9.6474403142929077e-01" nType="-99"/>
          <Node pos="r" depth="2" NCoef="0" IVar="-1" Cut="0.0000000000000000e+00" cType="1" res="-1.9341751933097839e-02" rms="4.1711089015007019e-01" purity="7.1639484167098999e-01" nType="-99"/>
        </Node>
      </Node>
    </BinaryTree>
    <BinaryTree type="DecisionTree" boostWeight="1.0000000000000000e+00" itree="44">
      <Node pos="s" depth="0" NCoef="0" IVar="10" Cut="1.4137222290039062e+02" cType="1" res="6.9741513580083847e-03" rms="4.1928526759147644e-01" purity="5.1113474369049072e-01" nType="0">
        <Node pos="l" depth="1" NCoef="0" IVar="11" Cut="8.2891754150390625e+01" cType="1" res="-4.4583760201931000e-02" rms="4.2328003048896790e-01" purity="2.5440883636474609e-01" nType="0">
          <Node pos="l" depth="2" NCoef="0" IVar="-1" Cut="0.0000000000000000e+00" cType="1" res="-8.0419182777404785e-03" rms="4.0956163406372070e-01" purity="2.1187959611415863e-01" nType="-99"/>
          <Node pos="r" depth="2" NCoef="0" IVar="-1" Cut="0.0000000000000000e+00" cType="1" res="3.7768152542412281e-03" rms="4.6639820933341980e-01" purity="4.2568016052246094e-01" nType="-99"/>
        </Node>
        <Node pos="r" depth="1" NCoef="0" IVar="8" Cut="5.5599956512451172e+00" cType="1" res="3.6909569054841995e-02" rms="4.1401246190071106e-01" purity="6.6019427776336670e-01" nType="0">
          <Node pos="l" depth="2" NCoef="0" IVar="-1" Cut="0.0000000000000000e+00" cType="1" res="-1.1337773874402046e-02" rms="4.4604051113128662e-01" purity="5.1668679714202881e-01" nType="-99"/>
          <Node pos="r" depth="2" NCoef="0" IVar="-1" Cut="0.0000000000000000e+00" cType="1" res="6.6635506227612495e-03" rms="4.0775951743125916e-01" purity="6.7633956670761108e-01" nType="-99"/>
        </Node>
      </Node>
    </BinaryTree>
    <BinaryTree type="DecisionTree" boostWeight="1.0000000000000000e+00" itree="45">
      <Node pos="s" depth="0" NCoef="0" IVar="10" Cut="1.6727297973632812e+02" cType="1" res="5.3170211613178253e-03" rms="4.2078351974487305e-01" purity="5.0863844156265259e-01" nType="0">
        <Node pos="l" depth="1" NCoef="0" IVar="11" Cut="1.0491394042968750e+02" cType="1" res="-3.6645028740167618e-02" rms="4.3422660231590271e-01" purity="2.8156879544258118e-01" nType="0">
          <Node pos="l" depth="2" NCoef="0" IVar="-1" Cut="0.0000000000000000e+00" cType="1" res="-5.6929988786578178e-03" rms="4.2909315228462219e-01" purity="2.4928669631481171e-01" nType="-99"/>
          <Node pos="r" depth="2" NCoef="0" IVar="-1" Cut="0.0000000000000000e+00" cType="1" res="7.6193124987185001e-03" rms="4.7143664956092834e-01" purity="6.1816829442977905e-01" nType="-99"/>
        </Node>
        <Node pos="r" depth="1" NCoef="0" IVar="1" Cut="6.4132179260253906e+01" cType="1" res="4.3395262211561203e-02" rms="4.0445125102996826e-01" purity="7.1469163894653320e-01" nType="0">
          <Node pos="l" depth="2" NCoef="0" IVar="-1" Cut="0.0000000000000000e+00" cType="1" res="7.2614918462932110e-03" rms="4.0052545070648193e-01" purity="7.2666710615158081e-01" nType="-99"/>
          <Node pos="r" depth="2" NCoef="0" IVar="-1" Cut="0.0000000000000000e+00" cType="1" res="-1.0632261633872986e-02" rms="4.2947503924369812e-01" purity="5.7156181335449219e-01" nType="-99"/>
        </Node>
      </Node>
    </BinaryTree>
    <BinaryTree type="DecisionTree" boostWeight="1.0000000000000000e+00" itree="46">
      <Node pos="s" depth="0" NCoef="0" IVar="10" Cut="1.3975086975097656e+02" cType="1" res="7.6371310278773308e-03" rms="4.1846936941146851e-01" purity="5.1380294561386108e-01" nType="0">
        <Node pos="l" depth="1" NCoef="0" IVar="12" Cut="8.4236259460449219e+01" cType="1" res="-4.7497931867837906e-02" rms="4.1456568241119385e-01" purity="2.4346512556076050e-01" nType="0">
          <Node pos="l" depth="2" NCoef="0" IVar="-1" Cut="0.0000000000000000e+00" cType="1" res="-7.6558738946914673e-03" rms="4.1041269898414612e-01" purity="2.2004461288452148e-01" nType="-99"/>
          <Node pos="r" depth="2" NCoef="0" IVar="-1" Cut="0.0000000000000000e+00" cType="1" res="2.6109028607606888e-02" rms="3.9784252643585205e-01" purity="7.3424357175827026e-01" nType="-99"/>
        </Node>
        <Node pos="r" depth="1" NCoef="0" IVar="7" Cut="3.0089662075042725e+00" cType="1" res="3.8901686668395996e-02" rms="4.1744387149810791e-01" purity="6.6709905862808228e-01" nType="0">
          <Node pos="l" depth="2" NCoef="0" IVar="-1" Cut="0.0000000000000000e+00" cType="1" res="6.5796738490462303e-03" rms="4.1033250093460083e-01" purity="6.7684596776962280e-01" nType="-99"/>
          <Node pos="r" depth="2" NCoef="0" IVar="-1" Cut="0.0000000000000000e+00" cType="1" res="-1.2947755865752697e-02" rms="4.7411715984344482e-01" purity="5.4866552352905273e-01" nType="-99"/>
        </Node>
      </Node>
    </BinaryTree>
    <BinaryTree type="DecisionTree" boostWeight="1.0000000000000000e+00" itree="47">
      <Node pos="s" depth="0" NCoef="0" IVar="1" Cut="7.0823997497558594e+01" cType="1" res="-1.6327584162354469e-02" rms="4.2243191599845886e-01" purity="4.9013394117355347e-01" nType="0">
        <Node pos="l" depth="1" NCoef="0" IVar="10" Cut="2.2875045776367188e+02" cType="1" res="-9.0341679751873016e-03" rms="4.1899594664573669e-01" purity="4.9411746859550476e-01" nType="0">
          <Node pos="l" depth="2" NCoef="0" IVar="-1" Cut="0.0000000000000000e+00" cType="1" res="-4.3833791278302670e-03" rms="4.4547751545906067e-01" purity="3.2354584336280823e-01" nType="-99"/>
          <Node pos="r" depth="2" NCoef="0" IVar="-1" Cut="0.0000000000000000e+00" cType="1" res="7.1371970698237419e-03" rms="3.5680189728736877e-01" purity="8.1975376605987549e-01" nType="-99"/>
        </Node>
        <Node pos="r" depth="1" NCoef="0" IVar="-1" Cut="0.0000000000000000e+00" cType="1" res="-2.9488306492567062e-02" rms="4.6399033069610596e-01" purity="3.6648952960968018e-01" nType="-99"/>
      </Node>
    </BinaryTree>
    <BinaryTree type="DecisionTree" boostWeight="1.0000000000000000e+00" itree="48">
      <Node pos="s" depth="0" NCoef="0" IVar="11" Cut="8.4112228393554688e+01" cType="1" res="-1.9024214707314968e-03" rms="4.1829800605773926e-01" purity="5.0265860557556152e-01" nType="0">
        <Node pos="l" depth="1" NCoef="0" IVar="6" Cut="9.8031693696975708e-01" cType="1" res="-2.7508011087775230e-02" rms="4.3525406718254089e-01" purity="3.9631661772727966e-01" nType="0">
          <Node pos="l" depth="2" NCoef="0" IVar="-1" Cut="0.0000000000000000e+00" cType="1" res="5.0079496577382088e-03" rms="4.4198969006538391e-01" purity="5.3610461950302124e-01" nType="-99"/>
          <Node pos="r" depth="2" NCoef="0" IVar="-1" Cut="0.0000000000000000e+00" cType="1" res="-6.1481613665819168e-03" rms="4.3047687411308289e-01" purity="3.4842842817306519e-01" nType="-99"/>
        </Node>
        <Node pos="r" depth="1" NCoef="0" IVar="1" Cut="2.7947721481323242e+01" cType="1" res="5.2930980920791626e-02" rms="3.7358981370925903e-01" purity="7.3038589954376221e-01" nType="0">
          <Node pos="l" depth="2" NCoef="0" IVar="-1" Cut="0.0000000000000000e+00" cType="1" res="-3.2605789601802826e-03" rms="4.0679320693016052e-01" purity="6.0428166389465332e-01" nType="-99"/>
          <Node pos="r" depth="2" NCoef="0" IVar="-1" Cut="0.0000000000000000e+00" cType="1" res="1.3638209551572800e-02" rms="3.4909385442733765e-01" purity="7.9470020532608032e-01" nType="-99"/>
        </Node>
      </Node>
    </BinaryTree>
    <BinaryTree type="DecisionTree" boostWeight="1.0000000000000000e+00" itree="49">
      <Node pos="s" depth="0" NCoef="0" IVar="4" Cut="6.6895362854003906e+01" cType="1" res="6.9191777147352695e-03" rms="4.1812819242477417e-01" purity="5.1031488180160522e-01" nType="0">
        <Node pos="l" depth="1" NCoef="0" IVar="5" Cut="2.8784997463226318e+00" cType="1" res="-2.6632918044924736e-02" rms="4.3631282448768616e-01" purity="3.8371694087982178e-01" nType="0">
          <Node pos="l" depth="2" NCoef="0" IVar="-1" Cut="0.0000000000000000e+00" cType="1" res="-5.1390063017606735e-03" rms="4.2885848879814148e-01" purity="3.6808222532272339e-01" nType="-99"/>
          <Node pos="r" depth="2" NCoef="0" IVar="-1" Cut="0.0000000000000000e+00" cType="1" res="8.3197923377156258e-03" rms="4.6731713414192200e-01" purity="4.7663164138793945e-01" nType="-99"/>
        </Node>
        <Node pos="r" depth="1" NCoef="0" IVar="8" Cut="4.1316398620605469e+01" cType="1" res="4.8368468880653381e-02" rms="3.9054784178733826e-01" purity="6.6671025753021240e-01" nType="0">
          <Node pos="l" depth="2" NCoef="0" IVar="-1" Cut="0.0000000000000000e+00" cType="1" res="4.6763964928686619e-03" rms="3.9924088120460510e-01" purity="6.4356940984725952e-01" nType="-99"/>
          <Node pos="r" depth="2" NCoef="0" IVar="-1" Cut="0.0000000000000000e+00" cType="1" res="2.6792494580149651e-02" rms="2.7115753293037415e-01" purity="8.7134814262390137e-01" nType="-99"/>
        </Node>
      </Node>
    </BinaryTree>
    <BinaryTree type="DecisionTree" boostWeight="1.0000000000000000e+00" itree="50">
      <Node pos="s" depth="0" NCoef="0" IVar="7" Cut="1.4044787883758545e+00" cType="1" res="-1.3143471442162991e-02" rms="4.2161032557487488e-01" purity="4.9003186821937561e-01" nType="0">
        <Node pos="l" depth="1" NCoef="0" IVar="6" Cut="2.9974005222320557e+00" cType="1" res="3.6119684576988220e-02" rms="3.9806339144706726e-01" purity="6.2144398689270020e-01" nType="0">
          <Node pos="l" depth="2" NCoef="0" IVar="-1" Cut="0.0000000000000000e+00" cType="1" res="8.3087543025612831e-03" rms="3.8022819161415100e-01" purity="6.4011758565902710e-01" nType="-99"/>
          <Node pos="r" depth="2" NCoef="0" IVar="-1" Cut="0.0000000000000000e+00" cType="1" res="-1.7573086544871330e-02" rms="4.7655186057090759e-01" purity="4.8350220918655396e-01" nType="-99"/>
        </Node>
        <Node pos="r" depth="1" NCoef="0" IVar="10" Cut="4.2334896850585938e+02" cType="1" res="-4.5143086463212967e-02" rms="4.3323433399200439e-01" purity="4.0467119216918945e-01" nType="0">
          <Node pos="l" depth="2" NCoef="0" IVar="-1" Cut="0.0000000000000000e+00" cType="1" res="-6.7132660187780857e-03" rms="4.4511821866035461e-01" purity="3.5650581121444702e-01" nType="-99"/>
          <Node pos="r" depth="2" NCoef="0" IVar="-1" Cut="0.0000000000000000e+00" cType="1" res="1.6968565061688423e-02" rms="2.3241314291954041e-01" purity="9.4272184371948242e-01" nType="-99"/>
        </Node>
      </Node>
    </BinaryTree>
    <BinaryTree type="DecisionTree" boostWeight="1.0000000000000000e+00" itree="51">
      <Node pos="s" depth="0" NCoef="0" IVar="10" Cut="1.1274467468261719e+02" cType="1" res="1.4787255786359310e-02" rms="4.1783598065376282e-01" purity="5.2128148078918457e-01" nType="0">
        <Node pos="l" depth="1" NCoef="0" IVar="12" Cut="6.0082332611083984e+01" cType="1" res="-6.5365187823772430e-02" rms="4.0140455961227417e-01" purity="2.0967894792556763e-01" nType="0">
          <Node pos="l" depth="2" NCoef="0" IVar="-1" Cut="0.0000000000000000e+00" cType="1" res="-1.1053224094212055e-02" rms="3.8512325286865234e-01" purity="1.7838533222675323e-01" nType="-99"/>
          <Node pos="r" depth="2" NCoef="0" IVar="-1" Cut="0.0000000000000000e+00" cType="1" res="7.3962775059044361e-03" rms="4.7427332401275635e-01" purity="4.1210123896598816e-01" nType="-99"/>
        </Node>
        <Node pos="r" depth="1" NCoef="0" IVar="5" Cut="3.0914182662963867e+00" cType="1" res="3.9457477629184723e-02" rms="4.1969531774520874e-01" purity="6.1719000339508057e-01" nType="0">
          <Node pos="l" depth="2" NCoef="0" IVar="-1" Cut="0.0000000000000000e+00" cType="1" res="3.7535401061177254e-03" rms="4.2710521817207336e-01" purity="5.9583228826522827e-01" nType="-99"/>
          <Node pos="r" depth="2" NCoef="0" IVar="-1" Cut="0.0000000000000000e+00" cType="1" res="2.9335737228393555e-02" rms="2.5899216532707214e-01" purity="9.1350948810577393e-01" nType="-99"/>
        </Node>
      </Node>
    </BinaryTree>
    <BinaryTree type="DecisionTree" boostWeight="1.0000000000000000e+00" itree="52">
      <Node pos="s" depth="0" NCoef="0" IVar="9" Cut="2.8424926757812500e+02" cType="1" res="-9.1223800554871559e-03" rms="4.1129916906356812e-01" purity="4.9366387724876404e-01" nType="0">
        <Node pos="l" depth="1" NCoef="0" IVar="10" Cut="3.1262835693359375e+02" cType="1" res="-2.3670749738812447e-02" rms="4.2779147624969482e-01" purity="4.3654438853263855e-01" nType="0">
          <Node pos="l" depth="2" NCoef="0" IVar="-1" Cut="0.0000000000000000e+00" cType="1" res="-4.5568398199975491e-03" rms="4.4755885004997253e-01" purity="3.4770214557647705e-01" nType="-99"/>
          <Node pos="r" depth="2" NCoef="0" IVar="-1" Cut="0.0000000000000000e+00" cType="1" res="1.1010906659066677e-02" rms="2.9141366481781006e-01" purity="9.0041434764862061e-01" nType="-99"/>
        </Node>
        <Node pos="r" depth="1" NCoef="0" IVar="10" Cut="2.9474221801757812e+02" cType="1" res="1.0832216590642929e-01" rms="2.0481921732425690e-01" purity="9.5477241277694702e-01" nType="0">
          <Node pos="l" depth="2" NCoef="0" IVar="-1" Cut="0.0000000000000000e+00" cType="1" res="2.7268784120678902e-02" rms="2.0002178847789764e-01" purity="9.5665591955184937e-01" nType="-99"/>
          <Node pos="r" depth="2" NCoef="0" IVar="-1" Cut="0.0000000000000000e+00" cType="1" res="1.7324676737189293e-02" rms="1.9487732648849487e-01" purity="9.5397233963012695e-01" nType="-99"/>
        </Node>
      </Node>
    </BinaryTree>
    <BinaryTree type="DecisionTree" boostWeight="1.0000000000000000e+00" itree="53">
      <Node pos="s" depth="0" NCoef="0" IVar="11" Cut="1.0389262390136719e+02" cType="1" res="-6.0226484201848507e-03" rms="4.1940447688102722e-01" purity="4.9793088436126709e-01" nType="0">
        <Node pos="l" depth="1" NCoef="0" IVar="3" Cut="7.8522223234176636e-01" cType="1" res="-2.7093470096588135e-02" rms="4.3849551677703857e-01" purity="4.0528342127799988e-01" nType="0">
          <Node pos="l" depth="2" NCoef="0" IVar="-1" Cut="0.0000000000000000e+00" cType="1" res="-7.4824066832661629e-03" rms="4.3737739324569702e-01" purity="4.6724608540534973e-01" nType="-99"/>
          <Node pos="r" depth="2" NCoef="0" IVar="-1" Cut="0.0000000000000000e+00" cType="1" res="-1.8236757023259997e-04" rms="4.3771621584892273e-01" purity="3.5550290346145630e-01" nType="-99"/>
        </Node>
        <Node pos="r" depth="1" NCoef="0" IVar="5" Cut="2.8470959663391113e+00" cType="1" res="7.2993829846382141e-02" rms="3.2645460963249207e-01" purity="8.4536278247833252e-01" nType="0">
          <Node pos="l" depth="2" NCoef="0" IVar="-1" Cut="0.0000000000000000e+00" cType="1" res="2.7844360098242760e-02" rms="2.6985591650009155e-01" purity="9.1145402193069458e-01" nType="-99"/>
          <Node pos="r" depth="2" NCoef="0" IVar="-1" Cut="0.0000000000000000e+00" cType="1" res="6.6360305063426495e-03" rms="3.3462345600128174e-01" purity="8.2530188560485840e-01" nType="-99"/>
        </Node>
      </Node>
    </BinaryTree>
    <BinaryTree type="DecisionTree" boostWeight="1.0000000000000000e+00" itree="54">
      <Node pos="s" depth="0" NCoef="0" IVar="7" Cut="1.2602565288543701e+00" cType="1" res="-1.0397249832749367e-02" rms="4.1684553027153015e-01" purity="4.9109777808189392e-01" nType="0">
        <Node pos="l" depth="1" NCoef="0" IVar="0" Cut="3.0979702472686768e+00" cType="1" res="4.5481909066438675e-02" rms="3.8657730817794800e-01" purity="6.5847259759902954e-01" nType="0">
          <Node pos="l" depth="2" NCoef="0" IVar="-1" Cut="0.0000000000000000e+00" cType="1" res="2.8995135799050331e-03" rms="4.0462210774421692e-01" purity="5.9855693578720093e-01" nType="-99"/>
          <Node pos="r" depth="2" NCoef="0" IVar="-1" Cut="0.0000000000000000e+00" cType="1" res="2.4350143969058990e-02" rms="2.8505244851112366e-01" purity="8.9645850658416748e-01" nType="-99"/>
        </Node>
        <Node pos="r" depth="1" NCoef="0" IVar="6" Cut="2.1956698596477509e-01" cType="1" res="-3.8458433002233505e-02" rms="4.2850524187088013e-01" purity="4.0704613924026489e-01" nType="0">
          <Node pos="l" depth="2" NCoef="0" IVar="-1" Cut="0.0000000000000000e+00" cType="1" res="2.0987454801797867e-02" rms="3.5098555684089661e-01" purity="7.9390770196914673e-01" nType="-99"/>
          <Node pos="r" depth="2" NCoef="0" IVar="-1" Cut="0.0000000000000000e+00" cType="1" res="-5.8875163085758686e-03" rms="4.2983907461166382e-01" purity="3.8853320479393005e-01" nType="-99"/>
        </Node>
      </Node>
    </BinaryTree>
    <BinaryTree type="DecisionTree" boostWeight="1.0000000000000000e+00" itree="55">
      <Node pos="s" depth="0" NCoef="0" IVar="6" Cut="5.0320137292146683e-02" cType="1" res="-6.3956324011087418e-03" rms="4.1880783438682556e-01" purity="4.9626007676124573e-01" nType="0">
        <Node pos="l" depth="1" NCoef="0" IVar="-1" Cut="0.0000000000000000e+00" cType="1" res="3.9992898702621460e-02" rms="2.6375943422317505e-01" purity="9.5647722482681274e-01" nType="-99"/>
        <Node pos="r" depth="1" NCoef="0" IVar="7" Cut="2.7274541854858398e+00" cType="1" res="-1.0226385667920113e-02" rms="4.1982570290565491e-01" purity="4.8863345384597778e-01" nType="0">
          <Node pos="l" depth="2" NCoef="0" IVar="-1" Cut="0.0000000000000000e+00" cType="1" res="6.8056531017646194e-04" rms="4.1223046183586121e-01" purity="5.0895851850509644e-01" nType="-99"/>
          <Node pos="r" depth="2" NCoef="0" IVar="-1" Cut="0.0000000000000000e+00" cType="1" res="-8.5053751245141029e-03" rms="4.4184145331382751e-01" purity="4.1470879316329956e-01" nType="-99"/>
        </Node>
      </Node>
    </BinaryTree>
    <BinaryTree type="DecisionTree" boostWeight="1.0000000000000000e+00" itree="56">
      <Node pos="s" depth="0" NCoef="0" IVar="1" Cut="1.4400145530700684e+01" cType="1" res="-1.1681825853884220e-02" rms="4.2160907387733459e-01" purity="4.9004220962524414e-01" nType="0">
        <Node pos="l" depth="1" NCoef="0" IVar="-1" Cut="0.0000000000000000e+00" cType="1" res="-2.2317057475447655e-02" rms="3.8453820347785950e-01" purity="2.7012234926223755e-01" nType="-99"/>
        <Node pos="r" depth="1" NCoef="0" IVar="9" Cut="1.6515119552612305e+01" cType="1" res="-4.3798852711915970e-03" rms="4.2169839143753052e-01" purity="4.9981680512428284e-01" nType="0">
          <Node pos="l" depth="2" NCoef="0" IVar="-1" Cut="0.0000000000000000e+00" cType="1" res="-2.1272633224725723e-02" rms="4.4110354781150818e-01" purity="2.7184408903121948e-01" nType="-99"/>
          <Node pos="r" depth="2" NCoef="0" IVar="-1" Cut="0.0000000000000000e+00" cType="1" res="2.5824402109719813e-04" rms="4.1960889101028442e-01" purity="5.0814068317413330e-01" nType="-99"/>
        </Node>
      </Node>
    </BinaryTree>
    <BinaryTree type="DecisionTree" boostWeight="1.0000000000000000e+00" itree="57">
      <Node pos="s" depth="0" NCoef="0" IVar="10" Cut="1.3978289794921875e+02" cType="1" res="-1.7127570463344455e-03" rms="4.1283708810806274e-01" purity="4.9479767680168152e-01" nType="0">
        <Node pos="l" depth="1" NCoef="0" IVar="4" Cut="1.0373848724365234e+02" cType="1" res="-5.1157370209693909e-02" rms="4.0399608016014099e-01" purity="2.3004998266696930e-01" nType="0">
          <Node pos="l" depth="2" NCoef="0" IVar="-1" Cut="0.0000000000000000e+00" cType="1" res="-7.8303515911102295e-03" rms="4.0114429593086243e-01" purity="2.0513671636581421e-01" nType="-99"/>
          <Node pos="r" depth="2" NCoef="0" IVar="-1" Cut="0.0000000000000000e+00" cType="1" res="1.4943610876798630e-02" rms="4.1359227895736694e-01" purity="7.3312383890151978e-01" nType="-99"/>
        </Node>
        <Node pos="r" depth="1" NCoef="0" IVar="12" Cut="5.4796058654785156e+01" cType="1" res="2.9761942103505135e-02" rms="4.1531264781951904e-01" purity="6.6332668066024780e-01" nType="0">
          <Node pos="l" depth="2" NCoef="0" IVar="-1" Cut="0.0000000000000000e+00" cType="1" res="2.3906007409095764e-02" rms="4.9363547563552856e-01" purity="6.2148725986480713e-01" nType="-99"/>
          <Node pos="r" depth="2" NCoef="0" IVar="-1" Cut="0.0000000000000000e+00" cType="1" res="3.0428976751863956e-03" rms="4.1035255789756775e-01" purity="6.6490286588668823e-01" nType="-99"/>
        </Node>
      </Node>
    </BinaryTree>
    <BinaryTree type="DecisionTree" boostWeight="1.0000000000000000e+00" itree="58">
      <Node pos="s" depth="0" NCoef="0" IVar="10" Cut="4.3096997070312500e+02" cType="1" res="3.9771664887666702e-03" rms="4.1738128662109375e-01" purity="5.0642573833465576e-01" nType="0">
        <Node pos="l" depth="1" NCoef="0" IVar="14" Cut="7.9807464599609375e+01" cType="1" res="-8.6328368633985519e-03" rms="4.4221365451812744e-01" purity="4.3805703520774841e-01" nType="0">
          <Node pos="l" depth="2" NCoef="0" IVar="-1" Cut="0.0000000000000000e+00" cType="1" res="-3.5801442572847009e-04" rms="4.3926113843917847e-01" purity="4.3741834163665771e-01" nType="-99"/>
          <Node pos="r" depth="2" NCoef="0" IVar="-1" Cut="0.0000000000000000e+00" cType="1" res="-4.6130392700433731e-02" rms="4.9105432629585266e-01" purity="4.7145992517471313e-01" nType="-99"/>
        </Node>
        <Node pos="r" depth="1" NCoef="0" IVar="4" Cut="6.4513587951660156e+01" cType="1" res="9.1827005147933960e-02" rms="1.2912240624427795e-01" purity="9.8272848129272461e-01" nType="0">
          <Node pos="l" depth="2" NCoef="0" IVar="-1" Cut="0.0000000000000000e+00" cType="1" res="2.9086699709296227e-02" rms="2.2049976512789726e-02" purity="1.0000000000000000e+00" nType="-99"/>
          <Node pos="r" depth="2" NCoef="0" IVar="-1" Cut="0.0000000000000000e+00" cType="1" res="2.1445956081151962e-02" rms="1.4562843739986420e-01" purity="9.7691112756729126e-01" nType="-99"/>
        </Node>
      </Node>
    </BinaryTree>
    <BinaryTree type="DecisionTree" boostWeight="1.0000000000000000e+00" itree="59">
      <Node pos="s" depth="0" NCoef="0" IVar="10" Cut="3.4752322387695312e+02" cType="1" res="-5.6988908909261227e-03" rms="4.1474020481109619e-01" purity="4.8915633559226990e-01" nType="0">
        <Node pos="l" depth="1" NCoef="0" IVar="13" Cut="7.6124565124511719e+01" cType="1" res="-2.2552272304892540e-02" rms="4.4486054778099060e-01" purity="3.9076453447341919e-01" nType="0">
          <Node pos="l" depth="2" NCoef="0" IVar="-1" Cut="0.0000000000000000e+00" cType="1" res="-1.1206817580386996e-03" rms="4.4116663932800293e-01" purity="3.7035632133483887e-01" nType="-99"/>
          <Node pos="r" depth="2" NCoef="0" IVar="-1" Cut="0.0000000000000000e+00" cType="1" res="-1.2193000875413418e-02" rms="4.5873662829399109e-01" purity="5.1837986707687378e-01" nType="-99"/>
        </Node>
        <Node pos="r" depth="1" NCoef="0" IVar="8" Cut="5.8761663436889648e+00" cType="1" res="7.3759116232395172e-02" rms="2.0563836395740509e-01" purity="9.5304077863693237e-01" nType="0">
          <Node pos="l" depth="2" NCoef="0" IVar="-1" Cut="0.0000000000000000e+00" cType="1" res="-1.7928265035152435e-02" rms="3.8946795463562012e-01" purity="7.8611332178115845e-01" nType="-99"/>
          <Node pos="r" depth="2" NCoef="0" IVar="-1" Cut="0.0000000000000000e+00" cType="1" res="2.1558964625000954e-02" rms="1.6915474832057953e-01" purity="9.6984893083572388e-01" nType="-99"/>
        </Node>
      </Node>
    </BinaryTree>
    <BinaryTree type="DecisionTree" boostWeight="1.0000000000000000e+00" itree="60">
      <Node pos="s" depth="0" NCoef="0" IVar="5" Cut="3.1164898872375488e+00" cType="1" res="-3.6824035923928022e-03" rms="4.2299181222915649e-01" purity="5.0590395927429199e-01" nType="0">
        <Node pos="l" depth="1" NCoef="0" IVar="4" Cut="1.4547473144531250e+02" cType="1" res="-8.7187448516488075e-03" rms="4.2502197623252869e-01" purity="4.9616065621376038e-01" nType="0">
          <Node pos="l" depth="2" NCoef="0" IVar="-1" Cut="0.0000000000000000e+00" cType="1" res="-2.1684875246137381e-03" rms="4.3874558806419373e-01" purity="4.4992515444755554e-01" nType="-99"/>
          <Node pos="r" depth="2" NCoef="0" IVar="-1" Cut="0.0000000000000000e+00" cType="1" res="1.5221103094518185e-02" rms="2.4960955977439880e-01" purity="9.3039560317993164e-01" nType="-99"/>
        </Node>
        <Node pos="r" depth="1" NCoef="0" IVar="13" Cut="6.1515422821044922e+01" cType="1" res="1.4767029881477356e-01" rms="3.2173654437065125e-01" purity="7.9871052503585815e-01" nType="0">
          <Node pos="l" depth="2" NCoef="0" IVar="-1" Cut="0.0000000000000000e+00" cType="1" res="2.9456319287419319e-02" rms="3.9698746800422668e-01" purity="7.1511930227279663e-01" nType="-99"/>
          <Node pos="r" depth="2" NCoef="0" IVar="-1" Cut="0.0000000000000000e+00" cType="1" res="1.3396476395428181e-02" rms="2.0544773340225220e-01" purity="8.7315160036087036e-01" nType="-99"/>
        </Node>
      </Node>
    </BinaryTree>
    <BinaryTree type="DecisionTree" boostWeight="1.0000000000000000e+00" itree="61">
      <Node pos="s" depth="0" NCoef="0" IVar="10" Cut="3.1469052124023438e+02" cType="1" res="7.5575751252472401e-03" rms="4.1836455464363098e-01" purity="5.1143276691436768e-01" nType="0">
        <Node pos="l" depth="1" NCoef="0" IVar="0" Cut="3.1227252483367920e+00" cType="1" res="-9.0050548315048218e-03" rms="4.5475557446479797e-01" purity="3.9457526803016663e-01" nType="0">
          <Node pos="l" depth="2" NCoef="0" IVar="-1" Cut="0.0000000000000000e+00" cType="1" res="-2.2190324962139130e-03" rms="4.5428344607353210e-01" purity="3.7920019030570984e-01" nType="-99"/>
          <Node pos="r" depth="2" NCoef="0" IVar="-1" Cut="0.0000000000000000e+00" cType="1" res="1.7994914203882217e-02" rms="4.3236139416694641e-01" purity="6.4555650949478149e-01" nType="-99"/>
        </Node>
        <Node pos="r" depth="1" NCoef="0" IVar="7" Cut="2.6697926521301270e+00" cType="1" res="6.8127319216728210e-02" rms="2.3272319138050079e-01" purity="9.3878215551376343e-01" nType="0">
          <Node pos="l" depth="2" NCoef="0" IVar="-1" Cut="0.0000000000000000e+00" cType="1" res="2.2690469399094582e-02" rms="1.6079506278038025e-01" purity="9.7296994924545288e-01" nType="-99"/>
          <Node pos="r" depth="2" NCoef="0" IVar="-1" Cut="0.0000000000000000e+00" cType="1" res="-2.8223649132996798e-03" rms="3.6383092403411865e-01" purity="8.3346366882324219e-01" nType="-99"/>
        </Node>
      </Node>
    </BinaryTree>
    <BinaryTree type="DecisionTree" boostWeight="1.0000000000000000e+00" itree="62">
      <Node pos="s" depth="0" NCoef="0" IVar="10" Cut="3.0141308593750000e+02" cType="1" res="-5.4584788158535957e-03" rms="4.1291469335556030e-01" purity="4.9362415075302124e-01" nType="0">
